<?xml version="1.0"?>
<opencv_storage>
<opencv_ml_svm>
  <format>3</format>
  <svmType>C_SVC</svmType>
  <kernel>
    <type>LINEAR</type></kernel>
  <C>1.</C>
  <term_criteria><iterations>100</iterations></term_criteria>
  <var_count>40</var_count>
  <class_count>4</class_count>
  <class_labels type_id="opencv-matrix">
    <rows>4</rows>
    <cols>1</cols>
    <dt>i</dt>
    <data>
      -2147483648 -1 0 1</data></class_labels>
  <sv_total>6</sv_total>
  <support_vectors>
    <_>
      -1.31524389e-03 6.27267931e-04 9.89615452e-04 -4.69674036e-04
      4.59012389e-03 -2.03042268e-03 6.40492770e-04 -2.89859856e-03
      -2.17208592e-03 1.18174555e-03 -1.41108630e-03 -1.78854179e-03
      2.15948466e-03 1.64749974e-03 1.78100204e-03 -2.14274798e-04
      1.59646582e-03 2.17906432e-03 -1.14468695e-03 1.05431082e-03
      -2.22551706e-03 -8.92430835e-05 1.63815403e-03 1.26489031e-05
      3.15640960e-03 -9.12938558e-04 -2.23767158e-04 -3.88999062e-04
      -6.51957293e-04 2.93679885e-04 2.29083351e-03 -1.85427128e-03
      1.26804446e-03 1.75233325e-03 -2.61327205e-03 1.78142730e-03
      3.50841042e-03 -6.27894595e-04 -4.77329548e-03 1.21627131e-03</_>
    <_>
      -2.38601677e-03 -2.50869693e-04 5.69293101e-04 -3.20140133e-03
      4.11005691e-03 -3.27452249e-03 5.12306578e-03 -5.03735896e-03
      -4.63334145e-04 2.14518071e-03 -3.06177256e-03 4.07185435e-04
      3.74814053e-03 3.97275621e-03 -1.53884001e-04 -1.89670362e-03
      2.16421159e-03 5.58532774e-03 -2.07195454e-03 2.87698722e-03
      -5.28962025e-03 -1.88956142e-03 -1.37589592e-03 -6.10820018e-03
      1.01732425e-02 -2.80917203e-03 -3.11520038e-04 -1.42519129e-03
      -1.78949951e-04 2.89798900e-03 2.32629222e-03 -3.42497090e-03
      -5.72397432e-04 3.69363325e-03 -4.33659600e-03 5.30498894e-03
      4.99136699e-03 4.36757138e-04 -4.88294056e-03 8.22112255e-04</_>
    <_>
      7.07869243e-04 -6.33912714e-05 8.18803965e-04 -2.64130300e-04
      8.76912614e-04 -3.06391157e-04 6.86738815e-04 -6.33912714e-05
      6.39195379e-04 1.84891222e-04 1.74326007e-04 1.58478178e-05
      8.18803965e-04 1.21499943e-04 7.97673536e-04 -2.21869457e-04
      8.34651757e-04 2.11304243e-04 7.50130101e-04 3.16956357e-05
      2.53565086e-04 1.58478178e-05 7.87108322e-04 -3.16956357e-05
      7.34282250e-04 4.22608500e-05 9.61434329e-04 -1.47912971e-04
      7.13151821e-04 1.37347757e-04 7.55412679e-04 2.11304250e-05
      8.55782186e-04 1.58478178e-05 2.74695514e-04 2.79978121e-04
      8.08238750e-04 1.26782543e-04 3.16956357e-05 -6.86738786e-05</_>
    <_>
      2.22064159e-03 1.58652628e-03 2.31886422e-03 -2.45025265e-03
      1.31253619e-04 -1.17281347e-03 3.06517608e-03 1.43844471e-03
      1.50867912e-03 3.75769939e-03 -1.19679307e-05 5.97003195e-03
      -3.34801315e-03 -2.04262114e-03 6.76588388e-04 -3.70096741e-03
      -5.90393785e-04 6.75469963e-03 1.29630056e-03 -1.65159916e-04
      1.13654463e-03 3.21676489e-03 -4.02397010e-03 -7.74006546e-03
      -1.09271132e-04 8.27377778e-04 2.20898166e-03 -4.98331850e-03
      5.32211619e-04 2.10888335e-03 9.56019154e-04 3.32251028e-03
      6.36253215e-04 -2.16001831e-03 3.40158492e-03 3.31953680e-03
      7.79682596e-04 -1.31888746e-03 9.52556205e-04 -5.19779604e-03</_>
    <_>
      1.82099408e-03 -4.62339725e-04 1.75134570e-03 -1.28490222e-03
      1.00855948e-03 -1.39278593e-03 -3.00373678e-04 -2.10314174e-04
      1.00696657e-03 1.03100284e-03 -2.13177502e-03 6.67591172e-04
      4.96920664e-04 -2.47065385e-04 1.36303797e-03 -6.05397858e-04
      1.43289228e-03 7.28702988e-04 2.39837542e-03 -5.54582046e-04
      3.73776682e-04 -3.13813158e-04 1.87371625e-03 -2.48875062e-04
      -1.96993374e-03 6.60329068e-04 1.93128327e-03 -1.07718701e-03
      -5.03398260e-05 1.20997967e-04 1.08944939e-03 6.57121127e-04
      1.62273669e-03 -4.89324739e-04 3.30672192e-04 1.05135201e-03
      1.10712578e-03 2.98427447e-04 -1.12630927e-03 -1.41725631e-03</_>
    <_>
      2.24845344e-03 -1.16730470e-03 2.93552433e-03 -2.77955062e-03
      5.44772076e-04 -3.50741297e-03 -5.37403102e-04 4.06358828e-04
      1.57689827e-03 2.87220161e-03 -4.24129143e-03 1.26193161e-03
      2.46931915e-03 -9.34686046e-04 5.97148668e-04 -2.54091993e-03
      2.79889279e-03 8.41155183e-04 3.82190407e-03 -1.62489817e-03
      -1.43283280e-03 -2.05136923e-04 2.97243288e-03 6.83401769e-04
      -2.58314121e-03 1.72733760e-03 4.36853850e-03 -2.06216797e-03
      1.40624435e-03 1.36830402e-03 7.02916528e-04 2.04990408e-03
      2.17380212e-03 -1.76433811e-03 -9.74627153e-04 2.09029834e-03
      -2.72228732e-04 2.66201259e-03 -4.53529786e-03 -1.94795791e-03</_></support_vectors>
  <uncompressed_sv_total>82</uncompressed_sv_total>
  <uncompressed_support_vectors>
    <_>
      189. 205. 234. 167. 180. 212. 233. 180. 216. 203. 227. 200. 206.
      202. 219. 188. 174. 223. 214. 216. 238. 231. 238. 208. 208. 190.
      193. 221. 228. 210. 214. 228. 199. 237. 173. 236. 237. 197. 220.
      237.</_>
    <_>
      81. 189. 67. 203. 62. 213. 9. 202. 131. 185. 9. 215. 35. 192. 68.
      189. 24. 185. 77. 225. 121. 193. 94. 237. 8. 231. 93. 191. 80.
      236. 53. 191. 16. 193. 120. 236. 120. 223. 120. 209.</_>
    <_>
      154. 209. 176. 185. 221. 177. 211. 181. 166. 213. 162. 196. 193.
      228. 184. 192. 184. 234. 151. 220. 143. 204. 161. 182. 238. 189.
      192. 200. 178. 216. 202. 191. 190. 218. 136. 233. 223. 208. 138.
      218.</_>
    <_>
      164. 194. 147. 178. 168. 218. 232. 234. 235. 206. 181. 235. 178.
      225. 155. 185. 171. 206. 192. 235. 180. 196. 170. 176. 213. 231.
      200. 226. 201. 201. 193. 195. 158. 173. 189. 218. 202. 236. 221.
      206.</_>
    <_>
      151. 212. 173. 207. 223. 182. 232. 188. 163. 192. 187. 189. 166.
      223. 234. 208. 162. 205. 180. 229. 189. 213. 187. 200. 204. 188.
      141. 231. 192. 223. 222. 194. 237. 171. 148. 222. 213. 201. 219.
      234.</_>
    <_>
      134. 191. 164. 166. 177. 163. 221. 205. 116. 210. 110. 236. 158.
      228. 132. 217. 143. 210. 157. 199. 217. 190. 151. 181. 237. 221.
      209. 232. 206. 211. 193. 160. 141. 227. 141. 180. 106. 225. 205.
      174.</_>
    <_>
      93. 193. 110. 226. 93. 234. 129. 225. 105. 206. 81. 198. 73. 229.
      46. 194. 32. 236. 19. 225. 13. 215. 70. 191. 119. 192. 107. 190.
      34. 192. 37. 209. 84. 227. 28. 202. 122. 233. 13. 233.</_>
    <_>
      184. 185. 181. 204. 143. 206. 141. 186. 160. 186. 172. 216. 105.
      193. 74. 189. 133. 233. 119. 195. 84. 187. 67. 199. 174. 173. 131.
      190. 160. 218. 66. 237. 175. 190. 94. 187. 154. 202. 143. 216.</_>
    <_>
      152. 229. 192. 195. 180. 210. 160. 211. 167. 237. 178. 227. 207.
      185. 231. 191. 144. 238. 202. 208. 186. 221. 236. 176. 191. 235.
      226. 175. 220. 184. 238. 203. 206. 197. 220. 197. 190. 207. 167.
      227.</_>
    <_>
      52. 143. 47. 185. 76. 224. 72. 159. 23. 166. 57. 177. 26. 204. 99.
      171. 88. 223. 75. 180. 98. 155. 78. 167. 87. 182. 24. 146. 37.
      143. 98. 210. 21. 195. 97. 185. 87. 144. 73. 199.</_>
    <_>
      126. 226. 33. 177. 133. 206. 93. 223. 8. 218. 10. 188. 50. 178.
      121. 235. 9. 230. 135. 189. 122. 207. 66. 236. 14. 176. 119. 186.
      7. 205. 120. 218. 103. 181. 91. 180. 71. 179. 61. 177.</_>
    <_>
      189. 190. 203. 188. 172. 211. 214. 200. 166. 198. 141. 229. 223.
      177. 231. 171. 154. 213. 184. 206. 189. 231. 163. 223. 212. 178.
      232. 201. 238. 217. 199. 233. 226. 192. 177. 226. 238. 184. 196.
      198.</_>
    <_>
      158. 211. 161. 195. 178. 210. 191. 192. 144. 211. 204. 189. 223.
      177. 193. 216. 238. 217. 231. 171. 165. 222. 194. 228. 238. 185.
      190. 206. 210. 180. 202. 205. 232. 197. 177. 231. 227. 230. 150.
      226.</_>
    <_>
      215. 194. 108. 215. 68. 192. 119. 213. 146. 213. 149. 172. 55.
      173. 154. 229. 84. 209. 42. 222. 55. 212. 60. 182. 176. 157. 192.
      155. 138. 225. 237. 208. 132. 190. 42. 198. 157. 181. 32. 209.</_>
    <_>
      33. 177. 11. 215. 13. 194. 121. 205. 37. 187. 57. 178. 117. 194.
      8. 231. 34. 230. 65. 185. 20. 221. 74. 180. 47. 229. 60. 235. 106.
      181. 103. 191. 50. 188. 84. 180. 23. 188. 131. 213.</_>
    <_>
      20. 221. 21. 235. 55. 235. 81. 193. 45. 178. 129. 193. 38. 205.
      33. 234. 26. 194. 9. 214. 95. 201. 12. 188. 99. 181. 10. 228. 43.
      190. 59. 187. 28. 215. 84. 180. 70. 184. 132. 231.</_>
    <_>
      202. 221. 159. 169. 229. 185. 187. 219. 226. 215. 233. 204. 179.
      209. 146. 168. 225. 229. 189. 189. 167. 210. 162. 193. 202. 184.
      238. 190. 185. 199. 214. 226. 175. 193. 147. 178. 236. 217. 157.
      204.</_>
    <_>
      121. 225. 121. 191. 144. 191. 116. 162. 57. 188. 155. 169. 125.
      201. 180. 154. 79. 193. 101. 204. 98. 165. 67. 220. 167. 156. 78.
      204. 110. 237. 198. 161. 83. 234. 105. 178. 96. 144. 60. 200.</_>
    <_>
      26. 225. 33. 177. 69. 221. 106. 188. 118. 197. 119. 221. 13. 182.
      7. 221. 115. 183. 10. 196. 74. 209. 23. 180. 59. 183. 73. 187.
      119. 236. 68. 232. 10. 232. 85. 186. 120. 208. 48. 184.</_>
    <_>
      182. 236. 221. 180. 235. 192. 194. 205. 210. 181. 181. 217. 191.
      224. 202. 232. 209. 193. 238. 220. 217. 219. 204. 202. 195. 190.
      238. 180. 209. 213. 235. 208. 236. 167. 223. 192. 183. 206. 220.
      202.</_>
    <_>
      88. 225. 53. 206. 46. 196. 85. 189. 25. 186. 72. 221. 33. 225. 61.
      223. 58. 192. 88. 238. 98. 228. 8. 210. 10. 223. 11. 195. 86. 209.
      76. 209. 35. 192. 22. 224. 95. 216. 103. 238.</_>
    <_>
      179. 217. 228. 220. 168. 187. 181. 194. 236. 209. 235. 230. 158.
      207. 220. 186. 164. 166. 189. 224. 233. 186. 142. 171. 151. 181.
      182. 204. 197. 186. 205. 227. 220. 226. 197. 211. 155. 197. 216.
      216.</_>
    <_>
      177. 191. 221. 188. 180. 217. 226. 219. 236. 209. 150. 189. 168.
      186. 236. 189. 234. 227. 158. 207. 163. 166. 139. 173. 188. 224.
      220. 227. 168. 211. 182. 204. 199. 186. 148. 178. 201. 228. 195.
      210.</_>
    <_>
      53. 187. 26. 225. 67. 180. 73. 213. 8. 219. 63. 232. 11. 208. 25.
      207. 78. 192. 36. 234. 83. 216. 8. 192. 86. 227. 26. 193. 42. 188.
      47. 224. 93. 183. 37. 177. 59. 196. 11. 176.</_>
    <_>
      183. 218. 233. 205. 161. 162. 142. 167. 167. 191. 226. 226. 156.
      197. 237. 191. 177. 189. 189. 183. 161. 207. 153. 187. 214. 186.
      226. 188. 206. 230. 237. 215. 181. 203. 225. 216. 150. 175. 171.
      212.</_>
    <_>
      218. 236. 165. 162. 161. 203. 226. 227. 175. 210. 235. 208. 180.
      232. 235. 237. 172. 179. 177. 222. 182. 187. 146. 165. 161. 185.
      229. 217. 151. 176. 192. 233. 228. 187. 208. 238. 188. 219. 191.
      205.</_>
    <_>
      107. 213. 144. 174. 217. 165. 77. 144. 90. 148. 201. 162. 28. 226.
      118. 195. 146. 198. 180. 148. 43. 168. 38. 178. 132. 176. 205.
      145. 130. 231. 121. 223. 84. 231. 29. 209. 190. 156. 139. 185.</_>
    <_>
      198. 150. 144. 179. 89. 156. 57. 136. 112. 217. 35. 197. 151. 195.
      202. 161. 215. 162. 160. 161. 79. 155. 37. 207. 52. 146. 227. 183.
      102. 212. 120. 226. 68. 150. 59. 189. 173. 201. 150. 168.</_>
    <_>
      49. 235. 6. 213. 63. 230. 34. 236. 38. 203. 76. 203. 55. 186. 67.
      212. 80. 221. 37. 191. 47. 179. 10. 192. 69. 190. 12. 222. 5. 233.
      52. 224. 14. 207. 41. 228. 50. 210. 11. 176.</_>
    <_>
      183. 224. 196. 216. 229. 175. 222. 183. 238. 229. 238. 210. 208.
      204. 217. 196. 212. 186. 238. 184. 208. 234. 200. 196. 197. 226.
      217. 215. 237. 167. 235. 199. 184. 235. 230. 220. 226. 235. 219.
      227.</_>
    <_>
      109. 212. 143. 179. 170. 156. 75. 155. 50. 200. 189. 153. 82. 223.
      105. 202. 68. 141. 82. 204. 205. 149. 97. 166. 151. 198. 144. 230.
      84. 164. 203. 169. 59. 156. 123. 225. 103. 233. 238. 192.</_>
    <_>
      111. 208. 203. 154. 85. 160. 95. 161. 74. 152. 161. 162. 192. 168.
      178. 154. 121. 194. 74. 202. 125. 220. 112. 185. 69. 135. 189.
      152. 129. 230. 89. 221. 103. 230. 158. 213. 67. 237. 107. 157.</_>
    <_>
      174. 224. 236. 171. 226. 180. 196. 222. 215. 183. 212. 199. 238.
      231. 238. 210. 209. 235. 228. 198. 220. 206. 174. 237. 238. 185.
      205. 190. 205. 213. 220. 192. 184. 224. 226. 238. 184. 238. 193.
      233.</_>
    <_>
      113. 211. 162. 160. 177. 152. 122. 194. 110. 221. 100. 223. 46.
      192. 143. 177. 77. 229. 189. 156. 95. 192. 37. 224. 85. 154. 122.
      217. 71. 137. 134. 236. 68. 155. 109. 151. 155. 211. 75. 202.</_>
    <_>
      118. 221. 53. 184. 137. 186. 196. 152. 82. 189. 123. 236. 68. 199.
      82. 222. 97. 187. 31. 198. 153. 175. 172. 160. 46. 192. 155. 201.
      53. 225. 155. 218. 148. 210. 38. 207. 140. 223. 184. 154.</_>
    <_>
      93. 181. 118. 222. 124. 235. 150. 206. 154. 176. 196. 153. 60.
      192. 172. 160. 70. 195. 46. 208. 62. 226. 50. 190. 82. 222. 141.
      183. 58. 179. 123. 210. 96. 236. 43. 223. 161. 202. 185. 153.</_>
    <_>
      229. 217. 200. 213. 154. 235. 238. 228. 224. 196. 148. 186. 210.
      196. 217. 205. 196. 236. 238. 187. 232. 206. 215. 186. 138. 236.
      205. 222. 235. 176. 177. 238. 186. 233. 192. 225. 146. 216. 196.
      186.</_>
    <_>
      149. 182. 188. 160. 98. 155. 214. 158. 155. 167. 109. 157. 85.
      196. 153. 223. 39. 237. 108. 208. 167. 160. 82. 143. 76. 135. 85.
      220. 180. 153. 67. 178. 69. 146. 135. 229. 105. 225. 151. 198.</_>
    <_>
      165. 194. 149. 166. 182. 203. 185. 177. 165. 215. 176. 214. 228.
      202. 175. 173. 170. 203. 193. 168. 170. 182. 158. 157. 230. 176.
      212. 213. 198. 195. 171. 158. 237. 213. 162. 175. 160. 185. 223.
      212.</_>
    <_>
      145. 185. 42. 208. 203. 151. 112. 212. 142. 174. 96. 169. 187.
      146. 105. 235. 161. 182. 82. 154. 73. 144. 221. 160. 144. 200.
      155. 198. 90. 207. 65. 173. 125. 231. 87. 187. 171. 150. 48. 192.</_>
    <_>
      73. 196. 25. 198. 85. 185. 82. 221. 44. 197. 10. 234. 62. 206. 50.
      177. 21. 177. 38. 187. 85. 205. 5. 192. 73. 230. 59. 192. 26. 187.
      61. 230. 31. 177. 10. 224. 10. 213. 51. 208.</_>
    <_>
      227. 192. 238. 197. 200. 212. 217. 186. 238. 236. 159. 202. 132.
      238. 191. 231. 213. 196. 165. 188. 158. 221. 180. 238. 201. 230.
      217. 208. 193. 220. 238. 187. 150. 231. 198. 202. 236. 213. 226.
      180.</_>
    <_>
      219. 193. 133. 236. 170. 188. 211. 211. 238. 198. 191. 221. 191.
      232. 213. 201. 236. 187. 208. 185. 176. 237. 235. 177. 230. 229.
      200. 216. 235. 208. 224. 208. 163. 196. 159. 224. 201. 227. 223.
      181.</_>
    <_>
      114. 206. 62. 167. 125. 216. 39. 193. 95. 162. 80. 224. 41. 224.
      108. 193. 139. 233. 214. 142. 149. 176. 46. 209. 68. 191. 81. 156.
      71. 144. 179. 149. 51. 187. 138. 218. 131. 226. 166. 158.</_>
    <_>
      73. 147. 76. 224. 95. 178. 25. 146. 62. 145. 69. 164. 47. 174. 88.
      222. 70. 178. 23. 171. 84. 181. 23. 206. 51. 185. 54. 235. 39.
      213. 23. 230. 74. 198. 86. 164. 24. 158. 68. 189.</_>
    <_>
      157. 235. 230. 197. 206. 208. 214. 196. 201. 221. 180. 187. 193.
      236. 238. 221. 221. 186. 184. 230. 219. 225. 167. 220. 207. 229.
      224. 213. 173. 197. 233. 181. 197. 186. 150. 226. 231. 237. 170.
      207.</_>
    <_>
      7. 187. 38. 102. 8. 200. 11. 210. 25. 109. 37. 210. 39. 181. 60.
      10. 20. 91. 46. 94. 73. 12. 58. 32. 17. 187. 63. 205. 64. 185. 2.
      101. 62. 83. 10. 235. 8. 221. 62. 233.</_>
    <_>
      7. 187. 72. 17. 40. 129. 15. 202. 37. 210. 13. 212. 56. 35. 39.
      181. 60. 53. 1. 215. 51. 60. 17. 187. 34. 119. 43. 112. 11. 112.
      57. 167. 63. 205. 52. 47. 48. 99. 50. 73.</_>
    <_>
      118. 187. 89. 189. 62. 179. 61. 236. 108. 186. 48. 220. 12. 225.
      14. 184. 8. 208. 70. 189. 27. 177. 52. 183. 131. 220. 9. 196. 106.
      224. 131. 207. 100. 193. 47. 233. 14. 238. 129. 189.</_>
    <_>
      7. 187. 22. 144. 39. 221. 39. 174. 59. 68. 30. 150. 54. 82. 40.
      154. 63. 179. 9. 212. 10. 139. 16. 202. 6. 202. 17. 187. 37. 211.
      25. 213. 62. 233. 63. 204. 44. 139. 46. 128.</_>
    <_>
      238. 227. 129. 230. 187. 219. 222. 186. 155. 187. 117. 229. 228.
      195. 237. 186. 178. 234. 199. 231. 212. 212. 217. 201. 238. 211.
      197. 210. 145. 206. 207. 237. 212. 184. 189. 238. 232. 236. 197.
      220.</_>
    <_>
      108. 223. 132. 188. 123. 230. 76. 190. 151. 211. 58. 179. 83. 221.
      72. 227. 45. 200. 88. 184. 143. 233. 189. 148. 204. 152. 152. 172.
      63. 232. 131. 210. 65. 192. 153. 190. 136. 220. 177. 152.</_>
    <_>
      122. 231. 150. 209. 93. 180. 66. 192. 76. 190. 133. 196. 72. 226.
      83. 221. 110. 222. 45. 207. 189. 148. 127. 187. 204. 152. 59. 177.
      41. 233. 101. 190. 153. 190. 177. 152. 146. 179. 124. 216.</_>
    <_>
      125. 233. 171. 236. 222. 187. 212. 204. 179. 188. 144. 186. 238.
      227. 228. 195. 115. 235. 119. 224. 198. 212. 192. 226. 238. 211.
      220. 212. 232. 178. 139. 213. 224. 226. 231. 236. 210. 187. 205.
      231.</_>
    <_>
      158. 192. 238. 211. 226. 181. 159. 205. 144. 226. 134. 222. 203.
      215. 213. 196. 183. 223. 172. 181. 151. 218. 196. 205. 156. 233.
      233. 191. 207. 185. 218. 187. 210. 233. 130. 236. 223. 228. 199.
      231.</_>
    <_>
      58. 153. 95. 139. 75. 154. 113. 179. 125. 200. 73. 177. 159. 156.
      221. 143. 157. 222. 188. 143. 127. 188. 152. 171. 61. 227. 141.
      185. 99. 194. 71. 217. 56. 198. 204. 137. 55. 186. 163. 166.</_>
    <_>
      26. 181. 74. 187. 93. 181. 22. 223. 141. 221. 18. 206. 52. 194.
      41. 203. 66. 237. 130. 187. 91. 192. 20. 189. 12. 221. 58. 181.
      33. 193. 104. 187. 140. 189. 132. 229. 119. 192. 69. 178.</_>
    <_>
      21. 223. 21. 177. 11. 177. 74. 182. 137. 226. 7. 197. 133. 237.
      130. 183. 48. 196. 120. 185. 143. 188. 35. 185. 71. 234. 58. 189.
      37. 196. 147. 206. 23. 237. 143. 217. 12. 213. 12. 187.</_>
    <_>
      147. 186. 101. 189. 200. 148. 156. 177. 127. 222. 116. 220. 168.
      170. 98. 223. 143. 217. 79. 215. 151. 206. 71. 190. 153. 232. 159.
      195. 160. 213. 129. 212. 236. 174. 135. 233. 183. 156. 110. 184.</_>
    <_>
      9. 202. 27. 233. 50. 209. 60. 185. 71. 209. 14. 177. 22. 221. 8.
      227. 45. 189. 35. 181. 23. 193. 59. 214. 60. 196. 88. 210. 77.
      223. 6. 213. 13. 189. 50. 177. 9. 238. 46. 199.</_>
    <_>
      189. 222. 214. 186. 202. 207. 149. 234. 238. 207. 182. 237. 233.
      189. 137. 235. 165. 223. 198. 235. 238. 227. 225. 220. 222. 196.
      217. 227. 219. 206. 200. 224. 168. 188. 228. 236. 210. 196. 232.
      176.</_>
    <_>
      231. 190. 238. 207. 193. 216. 214. 187. 202. 208. 199. 232. 181.
      237. 149. 237. 238. 227. 220. 208. 191. 226. 138. 237. 217. 228.
      222. 195. 167. 207. 165. 224. 212. 219. 232. 176. 167. 190. 230.
      214.</_>
    <_>
      13. 213. 70. 211. 52. 190. 64. 189. 90. 226. 75. 221. 60. 179. 23.
      178. 34. 177. 38. 194. 81. 192. 14. 232. 61. 206. 18. 187. 35.
      208. 11. 196. 83. 208. 69. 200. 22. 225. 93. 237.</_>
    <_>
      43. 189. 53. 218. 70. 192. 25. 208. 28. 194. 9. 204. 63. 206. 51.
      208. 44. 233. 59. 182. 13. 233. 48. 178. 76. 209. 13. 179. 70.
      222. 22. 221. 79. 180. 84. 235. 13. 190. 42. 220.</_>
    <_>
      25. 207. 22. 225. 58. 205. 65. 194. 53. 235. 63. 231. 54. 222. 37.
      222. 9. 224. 12. 214. 93. 224. 41. 191. 55. 192. 73. 217. 14. 191.
      9. 234. 14. 174. 26. 197. 92. 234. 24. 238.</_>
    <_>
      8. 230. 62. 209. 13. 216. 37. 225. 36. 195. 24. 224. 81. 222. 29.
      210. 89. 209. 47. 181. 25. 234. 13. 191. 13. 175. 32. 183. 62.
      179. 78. 182. 16. 206. 71. 190. 47. 219. 72. 215.</_>
    <_>
      8. 230. 62. 209. 69. 190. 81. 222. 17. 207. 89. 209. 38. 177. 35.
      207. 25. 228. 14. 194. 38. 223. 32. 188. 62. 178. 73. 205. 26.
      213. 47. 217. 25. 201. 10. 216. 14. 174. 19. 237.</_>
    <_>
      204. 185. 189. 236. 168. 188. 142. 218. 203. 221. 131. 223. 224.
      186. 151. 227. 223. 209. 184. 225. 228. 200. 199. 207. 135. 233.
      238. 192. 145. 235. 156. 207. 238. 206. 170. 238. 238. 218. 238.
      180.</_>
    <_>
      71. 193. 22. 187. 56. 179. 111. 224. 47. 187. 87. 225. 101. 221.
      58. 225. 15. 209. 68. 225. 35. 183. 90. 179. 12. 199. 62. 187. 14.
      231. 72. 213. 69. 178. 118. 233. 66. 236. 78. 183.</_>
    <_>
      105. 193. 118. 232. 43. 224. 37. 205. 38. 194. 109. 227. 51. 195.
      49. 206. 63. 229. 169. 210. 128. 205. 62. 179. 195. 145. 83. 201.
      69. 192. 136. 198. 152. 221. 226. 215. 224. 195. 170. 178.</_>
    <_>
      120. 224. 53. 190. 109. 192. 116. 205. 67. 173. 98. 220. 137. 190.
      49. 211. 95. 188. 37. 229. 159. 190. 52. 200. 213. 145. 151. 184.
      76. 183. 128. 203. 226. 219. 167. 166. 193. 150. 161. 207.</_>
    <_>
      12. 177. 75. 211. 62. 179. 24. 235. 44. 225. 69. 232. 71. 222. 81.
      181. 63. 205. 98. 208. 34. 206. 29. 177. 48. 192. 22. 188. 71.
      187. 13. 216. 59. 215. 58. 190. 88. 225. 35. 191.</_>
    <_>
      8. 219. 49. 189. 106. 183. 12. 237. 107. 197. 43. 238. 92. 235.
      57. 183. 58. 238. 119. 208. 12. 199. 15. 176. 26. 181. 67. 183.
      94. 179. 118. 233. 118. 223. 36. 185. 84. 180. 16. 187.</_>
    <_>
      230. 187. 238. 194. 225. 198. 238. 227. 174. 212. 206. 191. 177.
      236. 182. 186. 188. 220. 166. 236. 194. 230. 177. 200. 207. 206.
      238. 204. 217. 220. 220. 237. 175. 225. 217. 191. 236. 216. 151.
      238.</_>
    <_>
      182. 189. 225. 183. 238. 194. 224. 198. 215. 191. 178. 206. 175.
      233. 194. 209. 213. 204. 191. 229. 166. 238. 238. 226. 238. 204.
      217. 220. 191. 219. 220. 238. 236. 216. 200. 237. 176. 217. 196.
      185.</_>
    <_>
      89. 193. 65. 206. 101. 188. 8. 197. 23. 178. 53. 204. 67. 189. 50.
      177. 70. 221. 42. 209. 50. 189. 13. 175. 22. 192. 86. 221. 62.
      179. 82. 207. 35. 182. 81. 186. 12. 209. 27. 205.</_>
    <_>
      106. 210. 109. 186. 62. 179. 19. 179. 37. 234. 13. 216. 49. 195.
      117. 212. 75. 231. 119. 194. 97. 196. 73. 181. 7. 207. 52. 183.
      29. 175. 67. 223. 11. 194. 108. 224. 86. 180. 41. 188.</_>
    <_>
      169. 170. 183. 187. 174. 207. 228. 222. 180. 217. 164. 207. 146.
      176. 170. 195. 189. 205. 216. 232. 202. 186. 157. 182. 232. 189.
      228. 233. 193. 226. 237. 228. 203. 228. 214. 187. 220. 216. 209.
      214.</_>
    <_>
      146. 191. 104. 226. 155. 235. 145. 174. 227. 193. 124. 218. 111.
      210. 113. 233. 160. 192. 134. 195. 159. 163. 203. 146. 138. 206.
      184. 152. 175. 219. 225. 179. 162. 177. 164. 208. 129. 186. 173.
      153.</_>
    <_>
      157. 226. 182. 214. 174. 228. 181. 188. 238. 200. 230. 189. 166.
      235. 196. 190. 190. 202. 222. 200. 227. 232. 210. 186. 234. 176.
      204. 206. 190. 233. 238. 232. 203. 224. 217. 220. 232. 211. 209.
      196.</_>
    <_>
      179. 221. 170. 205. 163. 186. 210. 228. 170. 195. 189. 205. 183.
      189. 228. 217. 174. 183. 169. 170. 230. 231. 146. 178. 194. 182.
      234. 189. 189. 223. 220. 232. 199. 227. 201. 211. 160. 196. 224.
      188.</_>
    <_>
      235. 180. 227. 193. 224. 183. 190. 208. 215. 190. 238. 207. 206.
      197. 190. 230. 213. 208. 238. 230. 227. 233. 196. 198. 216. 221.
      235. 218. 204. 220. 202. 209. 184. 221. 201. 236. 213. 237. 224.
      208.</_></uncompressed_support_vectors>
  <decision_functions>
    <_>
      <sv_count>1</sv_count>
      <rho>1.9193720286917066e+00</rho>
      <alpha>
        1.</alpha>
      <index>
        0</index></_>
    <_>
      <sv_count>1</sv_count>
      <rho>3.3596525093964047e+00</rho>
      <alpha>
        1.</alpha>
      <index>
        1</index></_>
    <_>
      <sv_count>1</sv_count>
      <rho>1.5301095348401097e+00</rho>
      <alpha>
        1.</alpha>
      <index>
        2</index></_>
    <_>
      <sv_count>1</sv_count>
      <rho>3.2048605171444455e+00</rho>
      <alpha>
        1.</alpha>
      <index>
        3</index></_>
    <_>
      <sv_count>1</sv_count>
      <rho>3.5997457206869740e-02</rho>
      <alpha>
        1.</alpha>
      <index>
        4</index></_>
    <_>
      <sv_count>1</sv_count>
      <rho>-1.2748070673719092e+00</rho>
      <alpha>
        1.</alpha>
      <index>
        5</index></_></decision_functions></opencv_ml_svm>
</opencv_storage>
