<?xml version="1.0"?>
<opencv_storage>
<opencv_ml_svm>
  <format>3</format>
  <svmType>C_SVC</svmType>
  <kernel>
    <type>RBF</type>
    <gamma>5.0625000000000009e-01</gamma></kernel>
  <C>1.2500000000000000e+01</C>
  <term_criteria><iterations>100</iterations></term_criteria>
  <var_count>7</var_count>
  <class_count>24</class_count>
  <class_labels type_id="opencv-matrix">
    <rows>24</rows>
    <cols>1</cols>
    <dt>i</dt>
    <data>
      1 2 3 4 5 6 7 8 9 11 12 13 14 15 16 17 18 19 20 21 22 23 24 25</data></class_labels>
  <sv_total>2180</sv_total>
  <support_vectors>
    <_>
      1.97907555e+00 4.19931221e+00 6.71192694e+00 7.15506601e+00
      1.40914068e+01 9.32406616e+00 1.50313644e+01</_>
    <_>
      2.18534780e+00 4.74764109e+00 7.36447239e+00 7.73489285e+00
      1.52866926e+01 1.01794949e+01 -1.62911472e+01</_>
    <_>
      2.15587950e+00 4.72852135e+00 7.54804182e+00 8.14341450e+00
      1.60699844e+01 1.05748186e+01 -1.62428722e+01</_>
    <_>
      2.15038204e+00 4.67189741e+00 7.55338573e+00 7.99275112e+00
      1.57791557e+01 1.04179935e+01 -1.63783207e+01</_>
    <_>
      2.19137192e+00 4.80575848e+00 7.61291599e+00 8.27314472e+00
      1.62182789e+01 1.08802643e+01 -1.72240372e+01</_>
    <_>
      2.18144917e+00 4.77406979e+00 7.48737955e+00 8.14395714e+00
      1.59747028e+01 1.08881855e+01 1.65463333e+01</_>
    <_>
      2.17485189e+00 4.64519787e+00 7.39574909e+00 8.25930595e+00
      1.61698799e+01 1.08933153e+01 1.63357487e+01</_>
    <_>
      2.24096489e+00 4.82448053e+00 7.70258474e+00 8.29155540e+00
      1.62890301e+01 1.08428020e+01 -1.76532898e+01</_>
    <_>
      2.23362422e+00 4.79570293e+00 7.40903139e+00 7.92711782e+00
      1.56063614e+01 1.04610844e+01 1.62451248e+01</_>
    <_>
      2.11895585e+00 4.54510212e+00 7.09535837e+00 7.66088009e+00
      1.50737982e+01 1.01292629e+01 1.54537611e+01</_>
    <_>
      2.31040025e+00 5.05046082e+00 7.60418510e+00 8.09053707e+00
      1.59429312e+01 1.07329245e+01 1.67578583e+01</_>
    <_>
      2.27063751e+00 4.93101358e+00 7.48265600e+00 7.81447840e+00
      1.54635420e+01 1.03077183e+01 -1.67836323e+01</_>
    <_>
      2.24968410e+00 4.96517324e+00 7.48175287e+00 7.98061180e+00
      1.57119284e+01 1.05719500e+01 1.73168468e+01</_>
    <_>
      2.16073751e+00 4.63092709e+00 7.32356644e+00 8.02919865e+00
      1.58079119e+01 1.06397285e+01 1.59181166e+01</_>
    <_>
      2.11492538e+00 4.57385540e+00 7.26583338e+00 7.56364536e+00
      1.49841938e+01 9.89680386e+00 -1.57676153e+01</_>
    <_>
      2.02936411e+00 4.30684900e+00 7.18719816e+00 7.97127914e+00
      1.55920382e+01 1.03219271e+01 1.59301958e+01</_>
    <_>
      2.14643645e+00 4.63461542e+00 7.18409443e+00 8.31109333e+00
      -1.62355328e+01 -1.07320499e+01 -1.61857243e+01</_>
    <_>
      2.19584870e+00 4.68341541e+00 7.23170900e+00 7.80491400e+00
      1.53630247e+01 1.03404036e+01 1.57112579e+01</_>
    <_>
      2.22123528e+00 4.81851625e+00 7.41158533e+00 8.18040943e+00
      1.62142677e+01 1.19877062e+01 1.60648041e+01</_>
    <_>
      2.20673728e+00 4.76753616e+00 7.37089348e+00 7.89326668e+00
      1.55386877e+01 1.04238987e+01 1.61377735e+01</_>
    <_>
      2.15758610e+00 4.52777529e+00 7.11575031e+00 7.71974564e+00
      1.51785297e+01 1.01597290e+01 1.55194845e+01</_>
    <_>
      2.19918299e+00 4.80320311e+00 7.20853615e+00 8.09722137e+00
      1.61442509e+01 -1.20461626e+01 1.57886896e+01</_>
    <_>
      2.21389198e+00 4.85371637e+00 7.41714907e+00 8.37130642e+00
      1.64537029e+01 1.13222914e+01 1.63839722e+01</_>
    <_>
      2.30040336e+00 5.12905169e+00 7.52524281e+00 8.41426468e+00
      1.72103443e+01 -1.16629009e+01 1.63889046e+01</_>
    <_>
      2.29104662e+00 5.12216902e+00 7.62622929e+00 8.47487164e+00
      1.67506390e+01 1.20585518e+01 1.66204605e+01</_>
    <_>
      2.19901824e+00 4.69617987e+00 7.32297134e+00 8.37522602e+00
      1.77223663e+01 -1.10242510e+01 1.62245445e+01</_>
    <_>
      2.15541935e+00 4.62558651e+00 7.43513298e+00 8.06933117e+00
      1.58244133e+01 1.05487766e+01 -1.67639370e+01</_>
    <_>
      2.15131593e+00 4.63359118e+00 7.34222603e+00 8.54267311e+00
      1.66421585e+01 -1.16899891e+01 1.66293068e+01</_>
    <_>
      2.25946832e+00 4.93258810e+00 7.68791771e+00 8.85423565e+00
      -1.73087616e+01 -1.13577471e+01 1.72472363e+01</_>
    <_>
      2.28293180e+00 4.97789145e+00 7.47655725e+00 7.90001869e+00
      1.55883875e+01 1.04478407e+01 1.73027306e+01</_>
    <_>
      2.19818234e+00 4.74765491e+00 7.37646484e+00 8.31738853e+00
      1.68737144e+01 -1.12059326e+01 1.61727562e+01</_>
    <_>
      2.27273250e+00 4.96072817e+00 7.48469114e+00 8.38994408e+00
      -1.76051121e+01 -1.12075891e+01 1.63278656e+01</_>
    <_>
      2.22575307e+00 4.85173178e+00 7.30293846e+00 8.33746433e+00
      -1.73000908e+01 -1.10784321e+01 1.61587963e+01</_>
    <_>
      2.15658307e+00 4.61202717e+00 7.06004095e+00 7.95722866e+00
      -1.62690430e+01 -1.06446819e+01 1.54713058e+01</_>
    <_>
      2.12434268e+00 4.52875233e+00 7.03531218e+00 7.93092155e+00
      1.63627777e+01 -1.07713032e+01 1.54168053e+01</_>
    <_>
      1.99471307e+00 4.21804667e+00 6.70212126e+00 7.49337959e+00
      1.47566023e+01 1.00895815e+01 1.47276516e+01</_>
    <_>
      2.10667181e+00 4.48741817e+00 7.00317621e+00 7.79268456e+00
      1.53578405e+01 1.07032328e+01 1.53256130e+01</_>
    <_>
      2.22264028e+00 4.87102175e+00 7.44867086e+00 8.26158142e+00
      1.62198906e+01 1.10120173e+01 1.63278294e+01</_>
    <_>
      2.27623868e+00 4.96205425e+00 7.35948515e+00 7.67302036e+00
      1.51893578e+01 1.02143488e+01 1.68941879e+01</_>
    <_>
      2.27806115e+00 4.94637728e+00 7.43729544e+00 8.04627609e+00
      1.58509111e+01 1.08527508e+01 1.60879536e+01</_>
    <_>
      2.15954828e+00 4.67497921e+00 7.20384932e+00 8.00761509e+00
      1.58949442e+01 1.14881573e+01 1.56827021e+01</_>
    <_>
      2.18802381e+00 4.81689310e+00 7.18496227e+00 8.23313999e+00
      -1.60717487e+01 -1.06953831e+01 1.61159039e+01</_>
    <_>
      2.20492244e+00 4.81561804e+00 7.18420029e+00 8.22103977e+00
      -1.59313307e+01 -1.06347904e+01 -1.66534691e+01</_>
    <_>
      2.20597482e+00 4.88536787e+00 7.19429588e+00 7.67585993e+00
      1.51109447e+01 1.01505766e+01 -1.73538361e+01</_>
    <_>
      2.22270679e+00 4.91644764e+00 7.31114912e+00 7.72518778e+00
      1.52569742e+01 1.01989670e+01 -1.58514471e+01</_>
    <_>
      2.27090621e+00 5.01116085e+00 7.31495953e+00 7.63818836e+00
      1.51153069e+01 1.01846685e+01 -1.64153214e+01</_>
    <_>
      2.19957662e+00 4.81290531e+00 7.15271521e+00 7.67147255e+00
      1.51147995e+01 1.02639666e+01 1.55200663e+01</_>
    <_>
      2.14555717e+00 4.66718626e+00 7.08362627e+00 8.19155025e+00
      -1.58309832e+01 -1.05277948e+01 1.68654785e+01</_>
    <_>
      2.16009760e+00 4.69352388e+00 7.13643503e+00 8.24637222e+00
      -1.59623289e+01 -1.05998611e+01 1.64232540e+01</_>
    <_>
      2.13324285e+00 4.66629648e+00 7.02021170e+00 8.10225868e+00
      -1.56636639e+01 -1.04354362e+01 1.72160950e+01</_>
    <_>
      2.05642152e+00 4.37891912e+00 6.82864046e+00 7.42228985e+00
      1.45710278e+01 9.88403130e+00 1.50442467e+01</_>
    <_>
      2.09542966e+00 4.48984575e+00 7.28756666e+00 8.03515339e+00
      1.57783413e+01 1.06980267e+01 1.59480724e+01</_>
    <_>
      2.03663111e+00 4.33346796e+00 6.78168058e+00 7.40707397e+00
      1.45731974e+01 9.96284199e+00 1.47768154e+01</_>
    <_>
      1.94889975e+00 4.09900570e+00 6.72043133e+00 7.31871700e+00
      1.43619108e+01 9.60897732e+00 1.48317385e+01</_>
    <_>
      1.95063233e+00 4.11409616e+00 6.66191101e+00 7.03324270e+00
      1.38808918e+01 9.17131710e+00 1.56222172e+01</_>
    <_>
      2.05061555e+00 4.35837603e+00 6.99835587e+00 7.70887518e+00
      1.50810461e+01 1.01509829e+01 1.56058397e+01</_>
    <_>
      2.07824898e+00 4.47750092e+00 7.13894224e+00 8.60176849e+00
      -1.77323303e+01 -1.10585775e+01 1.64727802e+01</_>
    <_>
      2.14959240e+00 4.68917751e+00 7.18908787e+00 8.09847260e+00
      1.57696848e+01 1.08949337e+01 1.62050781e+01</_>
    <_>
      2.11304712e+00 4.68996906e+00 6.96218681e+00 8.04800415e+00
      1.60720558e+01 -1.17713003e+01 -1.55739698e+01</_>
    <_>
      2.09909892e+00 4.68918562e+00 6.95232916e+00 8.08937931e+00
      1.58423862e+01 -1.14756327e+01 1.57015553e+01</_>
    <_>
      2.13811207e+00 4.60699224e+00 7.15372372e+00 7.56051731e+00
      1.49271688e+01 9.95452499e+00 -1.56011925e+01</_>
    <_>
      2.08077264e+00 4.47307158e+00 7.03050661e+00 7.64847183e+00
      1.49942608e+01 9.98249817e+00 -1.57598381e+01</_>
    <_>
      1.94511056e+00 4.11313581e+00 6.53816032e+00 6.80910110e+00
      1.34847727e+01 8.91368771e+00 1.44972448e+01</_>
    <_>
      2.17867970e+00 4.70905685e+00 7.18630171e+00 7.76402855e+00
      1.52395430e+01 1.02646666e+01 1.66361752e+01</_>
    <_>
      2.27174425e+00 5.06076097e+00 7.44209051e+00 8.25180626e+00
      1.61055470e+01 1.10088739e+01 1.68545170e+01</_>
    <_>
      2.28741384e+00 5.12954092e+00 7.45431185e+00 8.14162254e+00
      1.59398603e+01 1.08742323e+01 -1.73920727e+01</_>
    <_>
      2.36491370e+00 5.40787268e+00 7.67135525e+00 8.29005432e+00
      1.62774715e+01 1.12087193e+01 1.70290756e+01</_>
    <_>
      2.39011002e+00 5.51534700e+00 7.77892971e+00 8.21907616e+00
      1.62325439e+01 1.10005980e+01 -1.68134899e+01</_>
    <_>
      2.28782678e+00 5.21223354e+00 7.51104450e+00 7.91959715e+00
      1.56377850e+01 1.06042013e+01 1.65760059e+01</_>
    <_>
      2.26888847e+00 5.09028673e+00 7.39301825e+00 7.95685148e+00
      1.56554251e+01 1.07292166e+01 1.61250648e+01</_>
    <_>
      2.16097116e+00 4.70813036e+00 7.07436657e+00 8.19263935e+00
      -1.58369236e+01 -1.05550995e+01 -1.64835548e+01</_>
    <_>
      2.19138932e+00 4.75081205e+00 7.25214005e+00 8.48352528e+00
      -1.63819923e+01 -1.08634920e+01 1.67917633e+01</_>
    <_>
      1.85088766e+00 3.90362835e+00 6.61663675e+00 7.17437840e+00
      1.40925865e+01 9.23269653e+00 1.45714979e+01</_>
    <_>
      2.29748607e+00 5.01050091e+00 7.49362087e+00 8.61697006e+00
      -1.66764393e+01 -1.11222210e+01 1.75324650e+01</_>
    <_>
      2.31343889e+00 5.06236696e+00 7.51664305e+00 8.53545094e+00
      -1.66908150e+01 -1.10964708e+01 1.67355061e+01</_>
    <_>
      2.22304821e+00 4.79357767e+00 7.27644014e+00 8.37071896e+00
      -1.61944733e+01 -1.07704678e+01 1.77414246e+01</_>
    <_>
      2.17631364e+00 4.72287464e+00 7.08168268e+00 7.83428907e+00
      1.55350456e+01 1.10323992e+01 1.53782454e+01</_>
    <_>
      2.17465568e+00 4.69646072e+00 7.15297461e+00 8.11670208e+00
      1.65243587e+01 -1.12106190e+01 1.57578115e+01</_>
    <_>
      2.10818219e+00 4.50813150e+00 7.03711367e+00 8.03291130e+00
      -1.77694416e+01 -1.07653580e+01 1.55679321e+01</_>
    <_>
      2.20030093e+00 4.73868847e+00 7.13014221e+00 7.85823298e+00
      1.55906334e+01 1.12506046e+01 1.54406404e+01</_>
    <_>
      2.22730446e+00 4.79660273e+00 7.18169689e+00 7.70914125e+00
      1.52160254e+01 1.03656034e+01 1.54586306e+01</_>
    <_>
      1.91587090e+00 4.01819086e+00 7.00742626e+00 7.03395224e+00
      1.40546856e+01 9.04318619e+00 -1.58992376e+01</_>
    <_>
      1.93423641e+00 4.06095505e+00 6.72231579e+00 6.68561554e+00
      1.33896751e+01 8.71687889e+00 -1.50715885e+01</_>
    <_>
      1.77123272e+00 3.75138187e+00 7.42761135e+00 7.71667624e+00
      1.56295128e+01 1.04200230e+01 -1.53395300e+01</_>
    <_>
      1.82886112e+00 3.84036946e+00 8.25266743e+00 8.90821457e+00
      -1.74925861e+01 -1.08413925e+01 -1.83617592e+01</_>
    <_>
      1.66388965e+00 3.57997131e+00 7.53794670e+00 7.99252701e+00
      -1.57577658e+01 -9.78596973e+00 -1.83014355e+01</_>
    <_>
      1.60145938e+00 3.46108770e+00 6.06149244e+00 5.94925594e+00
      1.19558258e+01 7.68352604e+00 1.30847645e+01</_>
    <_>
      1.73741555e+00 3.65882301e+00 8.12205124e+00 8.27224255e+00
      1.68193378e+01 1.01179867e+01 1.65177288e+01</_>
    <_>
      1.97398388e+00 4.14702225e+00 7.80014133e+00 7.60567284e+00
      1.53092098e+01 9.67929840e+00 -1.65776176e+01</_>
    <_>
      2.01999998e+00 4.22802448e+00 7.99576855e+00 7.96327066e+00
      1.59512415e+01 1.00777006e+01 -1.66518993e+01</_>
    <_>
      2.00031376e+00 4.16559315e+00 7.81635904e+00 7.83375454e+00
      1.56632242e+01 9.91825867e+00 -1.65070248e+01</_>
    <_>
      1.93235898e+00 4.02759504e+00 8.13009071e+00 7.87752056e+00
      1.58948307e+01 9.89925289e+00 -1.64911823e+01</_>
    <_>
      1.94389951e+00 4.07740641e+00 8.48642445e+00 7.85238028e+00
      1.60261040e+01 9.92018986e+00 -1.68744678e+01</_>
    <_>
      1.95563924e+00 4.09297037e+00 7.27416182e+00 7.27232647e+00
      1.45461645e+01 9.32094574e+00 -1.58272219e+01</_>
    <_>
      1.95069563e+00 4.05418777e+00 7.46796513e+00 7.38781214e+00
      1.48214550e+01 9.42261791e+00 -1.56069403e+01</_>
    <_>
      1.96425796e+00 4.09954834e+00 8.00720024e+00 8.25093651e+00
      1.63835373e+01 1.03126831e+01 -1.72760735e+01</_>
    <_>
      1.99900234e+00 4.19469929e+00 7.52306271e+00 7.35136986e+00
      1.47901497e+01 9.45101166e+00 -1.58606262e+01</_>
    <_>
      1.87002087e+00 3.92925239e+00 7.53941250e+00 7.18726158e+00
      1.45506735e+01 9.16321564e+00 -1.62820873e+01</_>
    <_>
      1.78002751e+00 3.77128386e+00 7.96941566e+00 7.76300907e+00
      1.57440071e+01 9.67403412e+00 1.58225241e+01</_>
    <_>
      1.90169501e+00 4.00744915e+00 7.05424595e+00 6.98469973e+00
      1.40043497e+01 8.98843193e+00 1.55489101e+01</_>
    <_>
      1.80726278e+00 3.77751756e+00 7.09691954e+00 7.30575132e+00
      1.45071840e+01 9.20246124e+00 1.61817875e+01</_>
    <_>
      1.80217838e+00 3.81513262e+00 6.52381945e+00 6.49615765e+00
      1.30064354e+01 8.40397739e+00 1.44440670e+01</_>
    <_>
      1.81141448e+00 3.85031462e+00 6.97600269e+00 7.02002716e+00
      1.40193777e+01 8.94635391e+00 -1.51243086e+01</_>
    <_>
      1.97154844e+00 4.11306810e+00 7.24914074e+00 7.29288960e+00
      1.45648422e+01 9.35279846e+00 -1.57468729e+01</_>
    <_>
      1.65749013e+00 3.51894760e+00 6.60324907e+00 6.27048922e+00
      1.27172661e+01 8.03238010e+00 1.33826666e+01</_>
    <_>
      1.58897281e+00 3.38433218e+00 7.00862980e+00 6.65022469e+00
      1.35169382e+01 8.34374332e+00 1.38806324e+01</_>
    <_>
      1.70908296e+00 3.60583353e+00 7.98094130e+00 7.77040529e+00
      1.57198153e+01 1.02137537e+01 1.59164419e+01</_>
    <_>
      1.67547667e+00 3.56555867e+00 6.83414173e+00 6.52458954e+00
      1.32099247e+01 8.31706524e+00 1.39873571e+01</_>
    <_>
      1.70212817e+00 3.62336135e+00 7.29016733e+00 6.98042870e+00
      1.41622610e+01 8.79780769e+00 1.44730692e+01</_>
    <_>
      1.72965753e+00 3.68365026e+00 7.26848698e+00 6.98677397e+00
      1.41324844e+01 8.84582615e+00 1.46631632e+01</_>
    <_>
      1.68040037e+00 3.56237388e+00 7.22340393e+00 6.92094040e+00
      1.40139942e+01 8.70235729e+00 1.45119677e+01</_>
    <_>
      1.71477997e+00 3.64019251e+00 7.01094818e+00 6.78192949e+00
      1.36831760e+01 8.61723709e+00 1.45081558e+01</_>
    <_>
      1.69454169e+00 3.53102350e+00 7.69832897e+00 8.48899078e+00
      -1.68397770e+01 -1.06498480e+01 -1.66619759e+01</_>
    <_>
      1.93428159e+00 4.05026674e+00 7.11632776e+00 7.09800720e+00
      1.42053785e+01 9.12538338e+00 -1.57192688e+01</_>
    <_>
      1.68115890e+00 3.53956556e+00 6.57682991e+00 6.43020964e+00
      1.29338360e+01 8.20220661e+00 1.45883379e+01</_>
    <_>
      1.74007976e+00 3.66715908e+00 6.49811268e+00 6.46274233e+00
      1.29463692e+01 8.31129456e+00 1.38606386e+01</_>
    <_>
      1.70444965e+00 3.59242129e+00 6.69369030e+00 6.65005350e+00
      1.33234425e+01 8.46149254e+00 1.44005661e+01</_>
    <_>
      1.70067799e+00 3.57850814e+00 6.58713484e+00 6.53545761e+00
      1.30967636e+01 8.34205818e+00 -1.52716312e+01</_>
    <_>
      1.73334813e+00 3.63056540e+00 6.85904789e+00 6.96706629e+00
      1.38806009e+01 8.81693363e+00 1.52089396e+01</_>
    <_>
      1.68357074e+00 3.53467202e+00 6.24558973e+00 6.21665716e+00
      1.24485521e+01 7.98624516e+00 1.36730833e+01</_>
    <_>
      1.81542051e+00 3.82753873e+00 7.06466293e+00 6.97254086e+00
      1.39951544e+01 8.91539574e+00 1.48598757e+01</_>
    <_>
      1.70970762e+00 3.63827372e+00 6.91582584e+00 6.77150106e+00
      1.36365681e+01 8.60295391e+00 1.41289139e+01</_>
    <_>
      1.64319992e+00 3.48662567e+00 6.67934561e+00 6.36879778e+00
      1.29094667e+01 8.11212254e+00 1.34594784e+01</_>
    <_>
      1.96977890e+00 4.12322760e+00 7.37802839e+00 7.26258039e+00
      1.45836611e+01 9.32762337e+00 -1.58065119e+01</_>
    <_>
      1.81266677e+00 3.87319350e+00 6.66371393e+00 6.85017443e+00
      1.36087322e+01 8.82533836e+00 -1.46723299e+01</_>
    <_>
      1.96813703e+00 4.13523722e+00 7.69073772e+00 7.42927837e+00
      1.49974003e+01 9.49740314e+00 -1.57070990e+01</_>
    <_>
      1.92118526e+00 4.01845026e+00 7.14659405e+00 7.04964256e+00
      1.41480627e+01 9.05944538e+00 -1.55760622e+01</_>
    <_>
      2.00178289e+00 4.19095373e+00 7.36060190e+00 7.39283943e+00
      1.47718258e+01 9.49200630e+00 -1.57615328e+01</_>
    <_>
      1.93796515e+00 4.08817005e+00 7.29037237e+00 7.20952320e+00
      1.44605103e+01 9.25362492e+00 -1.56199532e+01</_>
    <_>
      1.89797747e+00 3.96678638e+00 7.14730597e+00 7.25116825e+00
      1.44521112e+01 9.23457241e+00 -1.55036125e+01</_>
    <_>
      1.88723338e+00 3.95733976e+00 7.12202263e+00 7.18803263e+00
      1.43438520e+01 9.16928959e+00 -1.55624123e+01</_>
    <_>
      1.93211210e+00 4.04648161e+00 7.15683079e+00 7.15105915e+00
      1.43071060e+01 9.17486572e+00 -1.53130789e+01</_>
    <_>
      1.93770289e+00 4.07248974e+00 8.28646564e+00 7.85046196e+00
      1.59245195e+01 9.91901302e+00 -1.67162476e+01</_>
    <_>
      1.80095422e+00 3.77994251e+00 7.59879875e+00 8.06266880e+00
      -1.63473969e+01 -1.06751423e+01 -1.59220505e+01</_>
    <_>
      1.75542462e+00 3.70730758e+00 7.90322447e+00 7.55041122e+00
      1.53396788e+01 9.45778942e+00 1.55783186e+01</_>
    <_>
      1.68731380e+00 3.52319694e+00 7.11307383e+00 6.73309660e+00
      1.36695166e+01 8.49832344e+00 1.42687006e+01</_>
    <_>
      1.64066315e+00 3.44916773e+00 6.64111090e+00 6.66739130e+00
      1.33230801e+01 8.39466763e+00 1.44118490e+01</_>
    <_>
      1.84442997e+00 3.81178975e+00 6.85807228e+00 6.89947224e+00
      1.37809601e+01 8.82729435e+00 -1.47310562e+01</_>
    <_>
      1.70583105e+00 3.59134102e+00 6.58671331e+00 6.34630823e+00
      1.28135834e+01 8.15547371e+00 -1.40398912e+01</_>
    <_>
      1.67776763e+00 3.54942012e+00 6.99434280e+00 6.59515524e+00
      1.33920002e+01 8.38206959e+00 -1.43986130e+01</_>
    <_>
      1.62743068e+00 3.40710974e+00 6.65753031e+00 6.22201920e+00
      1.26631594e+01 7.92563629e+00 1.37632093e+01</_>
    <_>
      1.71663868e+00 3.60793424e+00 7.67340088e+00 8.10473633e+00
      1.67639561e+01 1.03198433e+01 -1.60001564e+01</_>
    <_>
      1.95850658e+00 4.09878254e+00 8.51428890e+00 8.54134941e+00
      1.71942463e+01 1.10648727e+01 -1.72484989e+01</_>
    <_>
      1.73383725e+00 3.61284232e+00 7.36520720e+00 7.90577316e+00
      1.55603476e+01 9.72169209e+00 -1.60787754e+01</_>
    <_>
      1.80491900e+00 3.77147675e+00 7.27256489e+00 7.38991117e+00
      1.47213774e+01 9.27729130e+00 -1.62100677e+01</_>
    <_>
      1.79620910e+00 3.75795889e+00 7.18141794e+00 7.27830076e+00
      1.45218735e+01 9.22758579e+00 -1.51147881e+01</_>
    <_>
      1.79818738e+00 3.79355001e+00 7.82001209e+00 7.86875963e+00
      1.59388304e+01 1.02575264e+01 -1.58079271e+01</_>
    <_>
      1.87309873e+00 3.90561318e+00 6.89732122e+00 6.91969824e+00
      1.38305387e+01 8.89001942e+00 -1.48140163e+01</_>
    <_>
      1.87049043e+00 3.92483044e+00 7.75856638e+00 7.41441154e+00
      1.50140781e+01 9.38827038e+00 -1.56159210e+01</_>
    <_>
      1.93270946e+00 4.04871273e+00 6.91814184e+00 6.86801052e+00
      1.37614050e+01 8.89431000e+00 -1.51780396e+01</_>
    <_>
      1.94717324e+00 4.10333824e+00 7.11187458e+00 6.96089554e+00
      1.39975100e+01 9.01427174e+00 -1.54857483e+01</_>
    <_>
      1.94207227e+00 4.07438278e+00 6.92903042e+00 6.82080412e+00
      1.36961460e+01 8.86080933e+00 -1.50501022e+01</_>
    <_>
      1.93463111e+00 4.04313421e+00 7.50816774e+00 7.59377432e+00
      1.51459045e+01 9.61983967e+00 -1.62816029e+01</_>
    <_>
      1.87742460e+00 3.92254639e+00 7.26703405e+00 7.11215830e+00
      1.43045759e+01 9.08317184e+00 -1.52463083e+01</_>
    <_>
      1.91040611e+00 3.99342608e+00 7.42341185e+00 7.45397806e+00
      1.49018240e+01 9.51707840e+00 -1.55848837e+01</_>
    <_>
      1.85493064e+00 3.86424708e+00 7.41795635e+00 7.85510635e+00
      1.56827660e+01 1.00675220e+01 -1.56079512e+01</_>
    <_>
      1.71085608e+00 3.56190324e+00 7.19448471e+00 6.86811590e+00
      1.38996305e+01 8.67212677e+00 1.54022417e+01</_>
    <_>
      1.66910100e+00 3.52804589e+00 7.40056944e+00 8.12257290e+00
      -1.60039577e+01 -1.00958872e+01 -1.60704288e+01</_>
    <_>
      1.75958991e+00 3.71283078e+00 7.62757683e+00 7.53225899e+00
      1.51431580e+01 9.41407967e+00 -1.55503092e+01</_>
    <_>
      1.78099990e+00 3.72361064e+00 8.01220036e+00 8.18433475e+00
      1.63385334e+01 1.01047411e+01 -1.66045170e+01</_>
    <_>
      1.93926775e+00 4.04912663e+00 7.36078119e+00 7.45870304e+00
      1.48690109e+01 9.48511124e+00 -1.61608124e+01</_>
    <_>
      1.79076493e+00 3.76097250e+00 8.67508698e+00 9.11698532e+00
      -1.84405289e+01 -1.10142879e+01 -1.80456791e+01</_>
    <_>
      1.78787756e+00 3.76043248e+00 7.84055233e+00 7.82131815e+00
      1.56933107e+01 9.77974224e+00 -1.60341415e+01</_>
    <_>
      1.77179873e+00 3.73876643e+00 7.23333216e+00 7.10593891e+00
      1.42861137e+01 9.01866436e+00 -1.49377899e+01</_>
    <_>
      1.67313230e+00 3.57896376e+00 7.67345333e+00 7.52937031e+00
      1.51630468e+01 9.40878773e+00 -1.55607290e+01</_>
    <_>
      1.58661640e+00 3.37512612e+00 6.96488619e+00 6.50172472e+00
      1.32435961e+01 8.18943214e+00 1.39413004e+01</_>
    <_>
      1.59655428e+00 3.43652487e+00 6.56558657e+00 6.34693480e+00
      1.28134403e+01 8.06628036e+00 1.34714098e+01</_>
    <_>
      1.84541285e+00 3.88442278e+00 7.13851452e+00 7.09453917e+00
      1.42123327e+01 9.03962231e+00 -1.53286762e+01</_>
    <_>
      1.73319852e+00 3.64957595e+00 8.11039257e+00 8.41497898e+00
      -1.68810787e+01 -1.02609682e+01 1.67856770e+01</_>
    <_>
      1.84205902e+00 3.86371732e+00 6.81982517e+00 6.70081806e+00
      1.34614687e+01 8.63751030e+00 -1.48709049e+01</_>
    <_>
      1.78494787e+00 4.06497097e+00 6.16595697e+00 7.22208214e+00
      -1.45305290e+01 -9.36015224e+00 1.39293165e+01</_>
    <_>
      1.77481401e+00 3.96992040e+00 6.11136293e+00 7.22596455e+00
      -1.39858837e+01 -9.21777153e+00 1.41269083e+01</_>
    <_>
      1.84482944e+00 4.18983841e+00 6.32661724e+00 7.22401428e+00
      1.40342999e+01 1.00242634e+01 1.44131117e+01</_>
    <_>
      1.82967174e+00 4.19658852e+00 6.47314930e+00 7.23016024e+00
      1.43284550e+01 9.63280582e+00 -1.41659317e+01</_>
    <_>
      1.94635844e+00 4.19937086e+00 7.07103395e+00 7.38205814e+00
      1.46441631e+01 9.57281399e+00 -1.50190401e+01</_>
    <_>
      1.96709764e+00 4.23721409e+00 7.26569033e+00 7.50614023e+00
      1.48920584e+01 9.63402939e+00 -1.73645687e+01</_>
    <_>
      1.93383920e+00 4.12085485e+00 7.11617899e+00 7.51724100e+00
      1.48356199e+01 9.59700394e+00 -1.58918648e+01</_>
    <_>
      1.94270551e+00 4.16254997e+00 7.06186199e+00 7.37305975e+00
      1.45909939e+01 9.46411896e+00 -1.59217463e+01</_>
    <_>
      1.91202009e+00 4.10201263e+00 7.15680456e+00 7.82923174e+00
      1.53988342e+01 1.00798559e+01 -1.55857258e+01</_>
    <_>
      1.90968633e+00 4.17976999e+00 6.85797930e+00 7.57808208e+00
      1.48913822e+01 1.00538359e+01 -1.50209084e+01</_>
    <_>
      1.85979235e+00 4.25420713e+00 6.26241827e+00 6.93623018e+00
      1.36933622e+01 9.79116917e+00 1.36790133e+01</_>
    <_>
      1.79433322e+00 3.98994398e+00 6.15639162e+00 7.05657864e+00
      1.37565432e+01 9.63860416e+00 1.38911486e+01</_>
    <_>
      1.78911197e+00 3.99202275e+00 6.14984894e+00 6.85422993e+00
      1.33590775e+01 9.08213043e+00 1.43018084e+01</_>
    <_>
      1.80442441e+00 4.09789085e+00 6.12562847e+00 7.12420034e+00
      1.38698025e+01 9.94689083e+00 1.39342165e+01</_>
    <_>
      1.82546484e+00 4.17308092e+00 6.17796516e+00 6.98219013e+00
      1.36149149e+01 9.57206249e+00 1.38957481e+01</_>
    <_>
      1.78819025e+00 4.02323198e+00 6.20439005e+00 7.14285374e+00
      1.40342121e+01 -1.01105614e+01 1.39157343e+01</_>
    <_>
      1.77776015e+00 3.91346288e+00 6.39525032e+00 7.29612923e+00
      -1.50511150e+01 -9.44154263e+00 1.41451416e+01</_>
    <_>
      1.87009120e+00 4.06976461e+00 6.71382189e+00 7.53865910e+00
      1.49251995e+01 -1.03157158e+01 1.47428408e+01</_>
    <_>
      1.88220644e+00 4.07686949e+00 6.97100115e+00 7.95557785e+00
      -1.67155190e+01 -1.01848392e+01 1.54194221e+01</_>
    <_>
      1.88014758e+00 4.04508877e+00 7.03387070e+00 7.51739645e+00
      1.47969666e+01 9.61795712e+00 -1.56657848e+01</_>
    <_>
      1.88693690e+00 4.03943682e+00 7.27300072e+00 7.94449234e+00
      1.55721397e+01 1.00777683e+01 -1.60927582e+01</_>
    <_>
      1.78624272e+00 4.06828022e+00 6.09133530e+00 7.33286142e+00
      -1.41545420e+01 -9.40076351e+00 1.42459583e+01</_>
    <_>
      1.89384413e+00 4.06255293e+00 7.02337170e+00 7.49860525e+00
      1.47690582e+01 9.60439110e+00 -1.54446373e+01</_>
    <_>
      1.91732073e+00 4.11861277e+00 7.24186373e+00 7.45825911e+00
      1.48083553e+01 9.55555630e+00 -1.67068729e+01</_>
    <_>
      1.90523088e+00 4.11825562e+00 6.93150282e+00 7.50118637e+00
      1.47883987e+01 1.01256514e+01 1.49951553e+01</_>
    <_>
      1.86361885e+00 4.08485937e+00 6.41494751e+00 7.48698902e+00
      -1.47622929e+01 -9.63757992e+00 1.44931831e+01</_>
    <_>
      1.83811462e+00 4.13186836e+00 6.23707771e+00 7.30374432e+00
      1.48259583e+01 -9.86773014e+00 1.40810747e+01</_>
    <_>
      1.84536862e+00 4.20579720e+00 6.54360199e+00 7.51418018e+00
      1.45489111e+01 1.00026398e+01 -1.53311768e+01</_>
    <_>
      1.83551097e+00 4.29603291e+00 6.50900793e+00 7.79587889e+00
      -1.50717478e+01 -1.01027679e+01 -1.51297951e+01</_>
    <_>
      1.84222591e+00 4.16085148e+00 6.46812391e+00 7.54923153e+00
      1.47526484e+01 9.90715218e+00 -1.46717005e+01</_>
    <_>
      1.86431611e+00 4.15208864e+00 6.58924198e+00 7.64704084e+00
      1.59619751e+01 1.09976044e+01 -1.47660618e+01</_>
    <_>
      1.88991356e+00 4.26203394e+00 6.61717415e+00 7.60354328e+00
      -1.63858662e+01 -1.08755674e+01 -1.47140007e+01</_>
    <_>
      1.83250141e+00 4.15390491e+00 6.20234776e+00 7.34852982e+00
      1.46069574e+01 -9.87553310e+00 1.41488218e+01</_>
    <_>
      1.82804406e+00 4.01946306e+00 6.54585981e+00 7.72874069e+00
      1.49291382e+01 -1.04280710e+01 1.51651983e+01</_>
    <_>
      1.76532340e+00 3.77482510e+00 6.62396860e+00 8.62487984e+00
      -1.76269760e+01 -1.05544014e+01 1.62496853e+01</_>
    <_>
      1.83929098e+00 4.01882219e+00 6.56051874e+00 7.04804802e+00
      1.39175425e+01 9.17707062e+00 -1.41453381e+01</_>
    <_>
      1.82946575e+00 4.00519228e+00 6.61781788e+00 7.47625494e+00
      1.45271797e+01 9.75053692e+00 -1.53987122e+01</_>
    <_>
      1.86895657e+00 4.26753807e+00 6.46910763e+00 7.52211380e+00
      1.46990557e+01 1.11956892e+01 1.46412582e+01</_>
    <_>
      1.80854869e+00 4.06262493e+00 6.33774328e+00 7.70370197e+00
      -1.58319159e+01 -1.04180622e+01 -1.47257519e+01</_>
    <_>
      1.86828327e+00 4.27313137e+00 6.55553198e+00 7.95640707e+00
      -1.52521763e+01 -1.01523428e+01 -1.56004086e+01</_>
    <_>
      1.83120751e+00 4.10722256e+00 6.49255657e+00 7.63385248e+00
      -1.55119019e+01 -1.02682810e+01 -1.47022114e+01</_>
    <_>
      1.86701655e+00 4.42168236e+00 6.31735992e+00 7.74515486e+00
      -1.51839361e+01 -1.00787592e+01 1.48124943e+01</_>
    <_>
      1.86695862e+00 4.45240784e+00 6.35983276e+00 7.73247862e+00
      -1.47824793e+01 -9.96544552e+00 1.56564789e+01</_>
    <_>
      1.89255309e+00 4.40805626e+00 6.52536726e+00 7.43759489e+00
      1.50684853e+01 1.06186247e+01 1.44302731e+01</_>
    <_>
      1.87821877e+00 4.27218294e+00 6.72897148e+00 7.43629313e+00
      1.45451679e+01 9.73342705e+00 1.49907875e+01</_>
    <_>
      1.81034446e+00 3.99251962e+00 7.03284168e+00 8.15677261e+00
      1.63864212e+01 -1.15084248e+01 1.57635756e+01</_>
    <_>
      1.82053101e+00 4.03706217e+00 6.98260498e+00 8.19322872e+00
      1.71592884e+01 -1.10382147e+01 1.57815256e+01</_>
    <_>
      1.84000158e+00 4.09767914e+00 6.82914066e+00 7.86081791e+00
      1.63639660e+01 -1.04409781e+01 1.52068481e+01</_>
    <_>
      1.82693148e+00 4.11708164e+00 6.69126415e+00 7.68519020e+00
      1.53818293e+01 -1.04083853e+01 1.48953819e+01</_>
    <_>
      1.80086982e+00 4.12345028e+00 6.38338232e+00 7.29275751e+00
      1.44139175e+01 1.02974243e+01 -1.41996222e+01</_>
    <_>
      1.81767547e+00 4.21740150e+00 6.29788446e+00 7.37757063e+00
      -1.43565426e+01 -9.60956955e+00 -1.43754969e+01</_>
    <_>
      1.81873417e+00 4.23180723e+00 6.33206224e+00 7.26993370e+00
      1.45430956e+01 -1.05459280e+01 -1.40971355e+01</_>
    <_>
      1.82721317e+00 4.17049313e+00 6.20597601e+00 7.43550777e+00
      -1.44685392e+01 -9.55822563e+00 1.43587275e+01</_>
    <_>
      1.83296788e+00 4.16220379e+00 6.66631699e+00 7.44462395e+00
      1.45531607e+01 9.69212627e+00 1.48320551e+01</_>
    <_>
      1.83119678e+00 4.24141121e+00 6.48834753e+00 7.67116070e+00
      1.55406895e+01 -1.02747478e+01 1.47567091e+01</_>
    <_>
      1.83427346e+00 4.25691319e+00 6.47643805e+00 7.83850718e+00
      -1.49963732e+01 -9.96712780e+00 -1.63672905e+01</_>
    <_>
      1.82933366e+00 4.26446056e+00 6.33354521e+00 7.49410629e+00
      -1.45672865e+01 -9.74964905e+00 -1.45499544e+01</_>
    <_>
      1.85333169e+00 4.28390026e+00 6.46684980e+00 7.63098860e+00
      -1.48849001e+01 -9.81067848e+00 1.47869081e+01</_>
    <_>
      1.83452117e+00 4.25702477e+00 6.31851959e+00 7.41645575e+00
      -1.42971249e+01 -9.58410168e+00 -1.48988991e+01</_>
    <_>
      1.89736748e+00 4.38551235e+00 6.70542908e+00 7.98485422e+00
      1.56507015e+01 -1.09018240e+01 1.53862839e+01</_>
    <_>
      1.88730466e+00 4.26902723e+00 6.78459740e+00 7.33712578e+00
      1.44235630e+01 9.54584408e+00 -1.48751183e+01</_>
    <_>
      1.82182264e+00 4.21139574e+00 6.34525347e+00 7.59292650e+00
      -1.48620758e+01 -9.77116299e+00 1.46248102e+01</_>
    <_>
      1.82358432e+00 4.20148134e+00 6.42025995e+00 7.54535389e+00
      -1.49268684e+01 -1.00253162e+01 -1.45658751e+01</_>
    <_>
      1.81296492e+00 4.06527758e+00 6.25702381e+00 7.40465355e+00
      1.49683895e+01 -9.58444977e+00 1.42430515e+01</_>
    <_>
      1.83426082e+00 4.18534708e+00 6.49385881e+00 7.44154072e+00
      -1.46650476e+01 -9.82485580e+00 -1.44891510e+01</_>
    <_>
      1.84464443e+00 4.20151281e+00 6.59758806e+00 7.52327681e+00
      -1.51410847e+01 -1.01725502e+01 -1.46010571e+01</_>
    <_>
      1.78979838e+00 4.05366230e+00 6.67152500e+00 7.40966511e+00
      -1.55231886e+01 -9.53205872e+00 1.44518175e+01</_>
    <_>
      1.85580027e+00 4.11416340e+00 6.86613321e+00 7.82024956e+00
      -1.52387247e+01 -9.87736416e+00 1.54300232e+01</_>
    <_>
      1.85367894e+00 4.11122894e+00 7.16334772e+00 7.77709007e+00
      1.60335255e+01 -1.00060787e+01 1.52532005e+01</_>
    <_>
      1.84437990e+00 4.08473873e+00 6.99067926e+00 7.79654646e+00
      -1.56719275e+01 -9.87733459e+00 1.52151613e+01</_>
    <_>
      1.82228208e+00 4.08019590e+00 6.60135412e+00 7.38509512e+00
      -1.51319971e+01 -1.02049904e+01 -1.43851786e+01</_>
    <_>
      1.79379165e+00 4.07132530e+00 6.38084030e+00 7.33510542e+00
      -1.47113991e+01 -9.98572159e+00 -1.42140131e+01</_>
    <_>
      1.81426537e+00 4.15335321e+00 6.27545834e+00 7.39119911e+00
      -1.42630901e+01 -9.53662109e+00 -1.46188173e+01</_>
    <_>
      1.89709437e+00 4.13484621e+00 6.61275721e+00 7.98370743e+00
      -1.53813753e+01 -1.03084221e+01 -1.54993706e+01</_>
    <_>
      1.79611194e+00 4.11484432e+00 6.19853973e+00 7.08041000e+00
      1.37243528e+01 9.38207245e+00 1.45654449e+01</_>
    <_>
      1.80088198e+00 4.10993147e+00 6.06938744e+00 6.86157227e+00
      1.33328075e+01 8.98726749e+00 -1.41182480e+01</_>
    <_>
      1.82022214e+00 4.18689585e+00 6.18539095e+00 7.02322102e+00
      1.36413813e+01 9.15122414e+00 -1.42320004e+01</_>
    <_>
      1.85182655e+00 4.24748230e+00 6.49752760e+00 7.67446089e+00
      1.48777618e+01 1.05468903e+01 1.49501905e+01</_>
    <_>
      1.85929430e+00 4.30425787e+00 6.64874268e+00 7.86141396e+00
      -1.52608042e+01 -1.00213537e+01 1.52733927e+01</_>
    <_>
      1.89771247e+00 4.44051313e+00 6.67696428e+00 7.30233765e+00
      1.44909325e+01 9.68915653e+00 -1.44029312e+01</_>
    <_>
      1.91284251e+00 4.41275358e+00 6.68935013e+00 7.24718904e+00
      1.45044556e+01 9.68719769e+00 -1.42820911e+01</_>
    <_>
      1.85536826e+00 4.23662376e+00 6.56539345e+00 7.12790012e+00
      1.43139992e+01 9.67518616e+00 -1.40255842e+01</_>
    <_>
      1.90296471e+00 4.29821539e+00 6.70306540e+00 7.48862123e+00
      1.55895948e+01 1.03099861e+01 -1.45865955e+01</_>
    <_>
      1.93767428e+00 4.40990496e+00 6.94192648e+00 8.09157181e+00
      -1.56221571e+01 -1.04600868e+01 -1.62130775e+01</_>
    <_>
      1.90176177e+00 4.34937906e+00 6.68768787e+00 7.64400911e+00
      -1.50486498e+01 -1.02450180e+01 -1.48977880e+01</_>
    <_>
      1.97933042e+00 4.57778168e+00 7.09357738e+00 8.22121906e+00
      1.63177643e+01 -1.07150049e+01 1.59094439e+01</_>
    <_>
      1.97299123e+00 4.58315563e+00 7.28987980e+00 8.02488327e+00
      1.58216543e+01 -1.08580036e+01 1.58445063e+01</_>
    <_>
      1.99535561e+00 4.55064344e+00 7.30182600e+00 8.53781128e+00
      1.65082664e+01 -1.13410978e+01 1.67986012e+01</_>
    <_>
      1.92388177e+00 4.37206221e+00 6.98001337e+00 8.25672054e+00
      -1.58770809e+01 -1.05155449e+01 -1.68946209e+01</_>
    <_>
      1.90411365e+00 4.30244207e+00 7.05960321e+00 7.98796797e+00
      1.57515841e+01 -1.05170288e+01 1.55991678e+01</_>
    <_>
      1.85090327e+00 4.15587473e+00 6.62966442e+00 7.49178505e+00
      1.50657196e+01 1.02899790e+01 -1.45739698e+01</_>
    <_>
      1.86876070e+00 4.24539566e+00 6.78987551e+00 8.08481789e+00
      1.75060596e+01 1.10819416e+01 -1.55221882e+01</_>
    <_>
      1.83583820e+00 4.22746086e+00 6.50321484e+00 7.43444586e+00
      1.49776735e+01 1.01525059e+01 -1.44192667e+01</_>
    <_>
      1.83180785e+00 4.15670824e+00 6.52255678e+00 7.39511967e+00
      1.44960413e+01 9.66867638e+00 -1.45132456e+01</_>
    <_>
      1.84098125e+00 3.84630680e+00 6.91049671e+00 7.45159006e+00
      1.46326571e+01 9.50198555e+00 1.66142483e+01</_>
    <_>
      1.86810100e+00 3.89853621e+00 7.15992785e+00 7.40289259e+00
      1.47204447e+01 9.36773300e+00 1.50914927e+01</_>
    <_>
      1.84065986e+00 3.87762976e+00 6.61476755e+00 7.10054684e+00
      1.39583845e+01 9.16479397e+00 1.54988070e+01</_>
    <_>
      1.91978264e+00 4.07577848e+00 6.54075098e+00 7.31757212e+00
      1.44190111e+01 1.01039877e+01 -1.43774710e+01</_>
    <_>
      1.81629288e+00 3.83066750e+00 6.44790649e+00 6.85609388e+00
      1.35103607e+01 8.85151005e+00 1.44999571e+01</_>
    <_>
      1.87668848e+00 3.95204377e+00 6.66625786e+00 7.25553799e+00
      1.42281456e+01 9.43587589e+00 -1.48563585e+01</_>
    <_>
      1.91478670e+00 4.04707718e+00 6.96986580e+00 7.70893764e+00
      1.50655823e+01 9.97164631e+00 -1.56069679e+01</_>
    <_>
      1.92638588e+00 4.10193062e+00 7.23367119e+00 7.81034803e+00
      1.53382969e+01 9.92642212e+00 1.61168194e+01</_>
    <_>
      1.96364188e+00 4.13659954e+00 7.67109919e+00 7.85534191e+00
      1.57155933e+01 9.93389702e+00 1.58401966e+01</_>
    <_>
      1.85533237e+00 3.87856841e+00 6.99392557e+00 7.15037298e+00
      1.42368317e+01 9.10029888e+00 1.48202076e+01</_>
    <_>
      1.90698934e+00 4.01208258e+00 7.09825373e+00 7.61090517e+00
      1.49655638e+01 9.78235340e+00 -1.66825657e+01</_>
    <_>
      1.92207503e+00 4.02647829e+00 6.88079166e+00 7.79942274e+00
      1.55360117e+01 -1.06496067e+01 -1.51776695e+01</_>
    <_>
      1.85443807e+00 3.87512231e+00 6.81257248e+00 7.44706869e+00
      1.45931511e+01 9.64439201e+00 -1.51477718e+01</_>
    <_>
      1.90043199e+00 3.99525094e+00 6.82867908e+00 7.89249611e+00
      1.62136097e+01 -1.03568354e+01 -1.52557039e+01</_>
    <_>
      1.96222866e+00 4.14872026e+00 7.15832138e+00 8.17261887e+00
      1.59882679e+01 1.08216610e+01 -1.59889412e+01</_>
    <_>
      1.88093114e+00 3.93925428e+00 7.39657879e+00 7.22018242e+00
      1.45581303e+01 9.19469929e+00 1.49761486e+01</_>
    <_>
      1.90002334e+00 3.98559880e+00 7.26484966e+00 7.53418970e+00
      1.49711952e+01 9.55316925e+00 1.53336287e+01</_>
    <_>
      1.85927892e+00 3.90779614e+00 6.76501465e+00 7.98002052e+00
      -1.54859381e+01 -9.97972488e+00 -1.55216341e+01</_>
    <_>
      1.89219880e+00 3.99687362e+00 6.57468510e+00 7.65936041e+00
      -1.50889082e+01 -9.83938313e+00 1.48351517e+01</_>
    <_>
      1.87264657e+00 3.92164493e+00 6.70189095e+00 7.81853867e+00
      1.67722359e+01 -1.00868502e+01 -1.50788431e+01</_>
    <_>
      1.88927412e+00 3.98096943e+00 6.72417641e+00 8.01298428e+00
      -1.55067205e+01 -1.00742846e+01 1.55607967e+01</_>
    <_>
      1.86915600e+00 3.91017532e+00 6.83082676e+00 7.96962309e+00
      1.57061806e+01 -1.06418600e+01 -1.54217196e+01</_>
    <_>
      1.89049006e+00 3.98486781e+00 6.72317410e+00 7.93707848e+00
      -1.54713020e+01 -1.00308733e+01 -1.53747778e+01</_>
    <_>
      1.77017248e+00 3.70982814e+00 6.53542566e+00 7.40278721e+00
      1.45345526e+01 1.01424561e+01 -1.45109072e+01</_>
    <_>
      1.79854095e+00 3.76471639e+00 6.58191109e+00 7.69086647e+00
      -1.54092178e+01 -9.77835846e+00 -1.48426781e+01</_>
    <_>
      1.94996905e+00 4.10783577e+00 7.34717607e+00 8.37282658e+00
      1.62956562e+01 1.07952843e+01 -1.65327892e+01</_>
    <_>
      1.91957366e+00 4.02687025e+00 8.23636818e+00 9.71336365e+00
      -1.88921223e+01 1.17345390e+01 1.87959328e+01</_>
    <_>
      1.94320798e+00 4.08381224e+00 7.93289614e+00 8.05513668e+00
      1.61271172e+01 1.01943388e+01 1.63094006e+01</_>
    <_>
      1.76432681e+00 3.69474339e+00 6.31059122e+00 6.47573614e+00
      1.28775854e+01 8.32696533e+00 1.35722046e+01</_>
    <_>
      1.74395192e+00 3.66958976e+00 6.31376457e+00 6.55396032e+00
      1.29972410e+01 8.39437008e+00 1.36739073e+01</_>
    <_>
      1.79037476e+00 3.74959087e+00 6.41621065e+00 6.84299088e+00
      1.34728928e+01 8.78571796e+00 -1.49013891e+01</_>
    <_>
      1.86952841e+00 3.91605520e+00 6.73542213e+00 7.07884836e+00
      1.39925508e+01 9.09459782e+00 1.47489233e+01</_>
    <_>
      1.83779776e+00 3.89007735e+00 6.41380215e+00 7.51304913e+00
      -1.47850609e+01 -9.63432121e+00 1.45364828e+01</_>
    <_>
      1.84058785e+00 3.84648895e+00 7.06513453e+00 7.30884504e+00
      1.45163717e+01 9.26756001e+00 1.50181341e+01</_>
    <_>
      1.90243125e+00 3.99286962e+00 6.75722265e+00 7.89201498e+00
      -1.56157408e+01 -1.01175756e+01 1.52542725e+01</_>
    <_>
      1.87423122e+00 3.94848013e+00 6.80241346e+00 7.82999325e+00
      1.53246622e+01 -1.11557083e+01 -1.52719526e+01</_>
    <_>
      1.96646976e+00 4.16825962e+00 6.98313713e+00 7.71523190e+00
      1.50842934e+01 1.00062189e+01 1.55934801e+01</_>
    <_>
      1.89791000e+00 4.03597355e+00 7.00540066e+00 8.04435825e+00
      1.56446991e+01 1.06020832e+01 -1.58353949e+01</_>
    <_>
      1.85118461e+00 3.90519214e+00 7.08043623e+00 7.43204117e+00
      1.47673140e+01 9.41443539e+00 1.49460716e+01</_>
    <_>
      1.90079403e+00 4.01672983e+00 7.17328787e+00 7.66917896e+00
      1.51339188e+01 9.72203350e+00 1.54609013e+01</_>
    <_>
      1.93869781e+00 4.07759571e+00 7.14664412e+00 8.06965923e+00
      1.57160511e+01 1.05084724e+01 -1.60737648e+01</_>
    <_>
      1.87454057e+00 3.93556523e+00 6.76057768e+00 7.67877102e+00
      1.51250305e+01 -1.15665636e+01 -1.49927359e+01</_>
    <_>
      1.86885107e+00 3.92662215e+00 6.71652937e+00 7.68397856e+00
      1.52458200e+01 -1.06436796e+01 -1.49297647e+01</_>
    <_>
      1.94345319e+00 4.09794760e+00 6.97668743e+00 8.10069370e+00
      1.67258091e+01 -1.06452007e+01 -1.56408482e+01</_>
    <_>
      1.92148077e+00 4.04458714e+00 7.53772163e+00 8.40182781e+00
      1.63752003e+01 1.06148949e+01 -1.72637253e+01</_>
    <_>
      1.88458812e+00 3.95220089e+00 6.85898304e+00 7.56629086e+00
      1.48109989e+01 9.84341812e+00 -1.52100868e+01</_>
    <_>
      1.86695266e+00 3.90473008e+00 6.99780941e+00 7.76813269e+00
      1.51921015e+01 1.01491852e+01 -1.55332756e+01</_>
    <_>
      1.88935947e+00 3.95807838e+00 7.11701012e+00 8.34353256e+00
      1.77143211e+01 -1.06473455e+01 -1.60739174e+01</_>
    <_>
      1.85326314e+00 3.90201545e+00 7.16307545e+00 8.00842667e+00
      1.56028337e+01 1.00799017e+01 1.62982082e+01</_>
    <_>
      1.83971739e+00 3.88535094e+00 7.03666067e+00 8.45201015e+00
      1.70134239e+01 -1.09172726e+01 -1.62014465e+01</_>
    <_>
      1.79769969e+00 3.78911686e+00 6.40378571e+00 6.77862263e+00
      1.33721027e+01 8.73618317e+00 1.43607531e+01</_>
    <_>
      1.80941510e+00 3.79062772e+00 6.47072983e+00 6.86151218e+00
      1.35277719e+01 8.84792900e+00 1.51245804e+01</_>
    <_>
      1.84475529e+00 3.87160897e+00 6.64338589e+00 7.15686417e+00
      1.40595236e+01 9.24710655e+00 -1.50247049e+01</_>
    <_>
      1.83503711e+00 3.86855364e+00 6.96970749e+00 7.43959188e+00
      1.46639662e+01 9.41964722e+00 1.51749048e+01</_>
    <_>
      1.92171288e+00 4.15753078e+00 7.12843800e+00 7.45269299e+00
      1.49086647e+01 9.56212234e+00 -1.48798380e+01</_>
    <_>
      1.91093051e+00 4.01476383e+00 7.55380583e+00 9.14393425e+00
      -1.75030384e+01 -1.11562529e+01 1.81612473e+01</_>
    <_>
      1.91692901e+00 3.99090123e+00 6.97867489e+00 8.11046982e+00
      -1.57879066e+01 -1.01451187e+01 -1.58247709e+01</_>
    <_>
      1.93351245e+00 4.04086113e+00 6.82059479e+00 7.55789518e+00
      1.48140850e+01 1.01164865e+01 -1.50352736e+01</_>
    <_>
      1.92013085e+00 4.00310850e+00 6.81762266e+00 7.58177137e+00
      1.48834362e+01 1.02406721e+01 -1.49946070e+01</_>
    <_>
      1.90489829e+00 3.97821546e+00 6.87352228e+00 7.49510002e+00
      1.46989365e+01 9.75194168e+00 -1.52121773e+01</_>
    <_>
      1.90912664e+00 3.99846721e+00 6.94903564e+00 7.40380764e+00
      1.45817175e+01 9.53008556e+00 -1.56631088e+01</_>
    <_>
      1.96735859e+00 4.12305021e+00 7.20958185e+00 7.83678198e+00
      1.53604221e+01 1.00377808e+01 -1.66978397e+01</_>
    <_>
      1.93369830e+00 4.11961603e+00 7.35529566e+00 8.86857796e+00
      -1.73182945e+01 -1.10705738e+01 -1.70319977e+01</_>
    <_>
      1.91693330e+00 4.04420328e+00 7.30012751e+00 8.69649315e+00
      -1.68933735e+01 -1.08492584e+01 1.68059959e+01</_>
    <_>
      1.94363880e+00 4.11175108e+00 7.21056414e+00 8.41117859e+00
      1.64513016e+01 -1.14171610e+01 -1.63149052e+01</_>
    <_>
      1.88332987e+00 3.97903848e+00 6.83147860e+00 7.32954121e+00
      1.44100857e+01 9.42496204e+00 1.63092098e+01</_>
    <_>
      1.88325870e+00 3.95830154e+00 6.85854721e+00 7.48766708e+00
      1.46674252e+01 9.68408585e+00 -1.54210253e+01</_>
    <_>
      1.76814353e+00 3.75862026e+00 6.40062189e+00 7.72038031e+00
      -1.49353743e+01 -9.66676998e+00 1.49274902e+01</_>
    <_>
      1.70146620e+00 3.60858321e+00 6.25105000e+00 7.59020472e+00
      -1.45152102e+01 -9.40123558e+00 1.53607559e+01</_>
    <_>
      1.65759921e+00 3.52759957e+00 6.26378489e+00 7.14118195e+00
      1.38505487e+01 9.13993073e+00 -1.45965767e+01</_>
    <_>
      1.63602269e+00 3.51508498e+00 6.10067749e+00 7.48735619e+00
      1.51808929e+01 -9.76002216e+00 -1.42848492e+01</_>
    <_>
      1.66221058e+00 3.57991433e+00 6.14122915e+00 7.18680048e+00
      1.38697205e+01 9.23030758e+00 -1.43902826e+01</_>
    <_>
      1.63574088e+00 3.55338931e+00 6.21776485e+00 7.29932356e+00
      1.40611210e+01 9.42605114e+00 -1.49717274e+01</_>
    <_>
      1.69000304e+00 3.67226505e+00 6.54939508e+00 7.83396339e+00
      1.50719738e+01 9.85486603e+00 -1.53838358e+01</_>
    <_>
      1.72784793e+00 3.72828293e+00 6.89528465e+00 8.41555977e+00
      1.61335411e+01 1.03119650e+01 1.63717422e+01</_>
    <_>
      1.72882819e+00 3.72015667e+00 6.97255993e+00 8.35352898e+00
      1.61009903e+01 1.03645496e+01 -1.62625771e+01</_>
    <_>
      1.74095666e+00 3.71935678e+00 6.59171867e+00 7.81641579e+00
      1.52314215e+01 1.04203863e+01 -1.51237803e+01</_>
    <_>
      1.89560866e+00 3.99269819e+00 6.67111921e+00 7.67635393e+00
      1.55492077e+01 -1.02450914e+01 -1.48589487e+01</_>
    <_>
      1.72727084e+00 3.68605042e+00 6.44390965e+00 7.74531460e+00
      1.58725338e+01 -1.01430721e+01 -1.48418036e+01</_>
    <_>
      1.69389391e+00 3.61180902e+00 6.44294977e+00 7.86870623e+00
      -1.73901749e+01 -1.01999159e+01 -1.50245390e+01</_>
    <_>
      1.71295261e+00 3.63873863e+00 6.30814791e+00 6.93065023e+00
      1.35501747e+01 8.84480858e+00 1.51681356e+01</_>
    <_>
      1.71318293e+00 3.62707996e+00 6.33202410e+00 6.92803764e+00
      1.35585318e+01 8.85452366e+00 1.48939114e+01</_>
    <_>
      1.70395863e+00 3.63208985e+00 6.38715315e+00 7.75087833e+00
      -1.49438705e+01 -9.59663105e+00 1.50006485e+01</_>
    <_>
      1.71513939e+00 3.64512873e+00 6.33954287e+00 7.38111115e+00
      1.43495922e+01 9.72973442e+00 -1.44446316e+01</_>
    <_>
      1.80549049e+00 3.82096696e+00 6.53860426e+00 7.57786322e+00
      1.58926725e+01 -9.97964191e+00 -1.46367636e+01</_>
    <_>
      1.88029289e+00 3.94205952e+00 7.06811810e+00 8.38886452e+00
      -1.64632664e+01 -1.04923458e+01 -1.61667137e+01</_>
    <_>
      1.86652386e+00 3.94450355e+00 7.04452848e+00 7.58186436e+00
      1.49234867e+01 9.61051178e+00 1.53506403e+01</_>
    <_>
      1.89689851e+00 4.02592039e+00 7.28495741e+00 8.71842766e+00
      1.71261387e+01 -1.16434422e+01 -1.67564754e+01</_>
    <_>
      1.90200937e+00 4.04565430e+00 6.57509089e+00 7.78504276e+00
      -1.50040998e+01 -9.81864071e+00 1.53572130e+01</_>
    <_>
      1.87429106e+00 3.99137521e+00 7.34041309e+00 8.77984619e+00
      -1.70807304e+01 -1.08604231e+01 -1.69269314e+01</_>
    <_>
      1.85032225e+00 3.92960930e+00 7.19822359e+00 7.76894569e+00
      1.53607731e+01 9.74015331e+00 1.54555845e+01</_>
    <_>
      1.76148558e+00 3.70852923e+00 6.30515575e+00 7.32346010e+00
      1.49899197e+01 -9.74061012e+00 1.41421013e+01</_>
    <_>
      1.81147873e+00 3.85732770e+00 6.37038374e+00 7.57652092e+00
      -1.45950441e+01 -9.52613640e+00 1.49135456e+01</_>
    <_>
      1.80133045e+00 3.82420373e+00 6.29332733e+00 7.44368267e+00
      -1.45688391e+01 -9.51132488e+00 1.43917236e+01</_>
    <_>
      1.88140845e+00 3.97083402e+00 6.80242586e+00 7.74952936e+00
      1.52423887e+01 1.08217316e+01 -1.51252613e+01</_>
    <_>
      1.93869531e+00 4.09953356e+00 7.28651810e+00 8.83668995e+00
      -1.73812618e+01 -1.10791254e+01 -1.69231510e+01</_>
    <_>
      1.92162406e+00 4.07326269e+00 7.22697878e+00 8.05183792e+00
      1.56912937e+01 1.02633104e+01 1.75184708e+01</_>
    <_>
      1.88635123e+00 4.00134706e+00 6.94227648e+00 8.07862186e+00
      1.59630146e+01 -1.12604227e+01 -1.56318188e+01</_>
    <_>
      1.86007845e+00 3.93976235e+00 6.87350750e+00 8.23335171e+00
      -1.58181381e+01 -1.02226257e+01 -1.62224865e+01</_>
    <_>
      2.03221393e+00 4.22418070e+00 7.48617125e+00 8.44177628e+00
      1.67064495e+01 1.08799276e+01 1.64683285e+01</_>
    <_>
      2.08561707e+00 4.34790611e+00 7.16767788e+00 7.46770000e+00
      1.47867832e+01 9.65198517e+00 1.58823452e+01</_>
    <_>
      1.93036044e+00 4.10005713e+00 6.45128775e+00 6.69413280e+00
      1.32690277e+01 8.74421787e+00 -1.42666063e+01</_>
    <_>
      1.93086576e+00 4.19972467e+00 6.65933275e+00 6.85145092e+00
      1.36215000e+01 8.95897484e+00 -1.41994886e+01</_>
    <_>
      1.95424843e+00 4.09668684e+00 6.99897861e+00 7.51944399e+00
      1.47947130e+01 9.57184601e+00 -1.53521719e+01</_>
    <_>
      1.95011747e+00 4.15872812e+00 6.59080648e+00 6.86660671e+00
      1.36019926e+01 8.94606590e+00 -1.43546581e+01</_>
    <_>
      2.04485393e+00 4.31323576e+00 6.99616480e+00 7.32084990e+00
      1.44793653e+01 9.48155308e+00 1.66990814e+01</_>
    <_>
      2.04696631e+00 4.29190731e+00 6.85180330e+00 7.02622318e+00
      1.39661236e+01 9.17219257e+00 -1.51599588e+01</_>
    <_>
      2.09249473e+00 4.43611193e+00 6.80571079e+00 6.92191553e+00
      1.37857513e+01 9.14135551e+00 -1.57752953e+01</_>
    <_>
      2.09265280e+00 4.38078070e+00 6.97672844e+00 7.17111301e+00
      1.42454519e+01 9.36154747e+00 -1.56031313e+01</_>
    <_>
      2.10155869e+00 4.41381025e+00 7.17483425e+00 7.47958851e+00
      1.48072815e+01 9.69237900e+00 1.61342831e+01</_>
    <_>
      2.00087929e+00 4.14551353e+00 6.81611538e+00 7.13619137e+00
      1.41124830e+01 9.21373558e+00 1.57112713e+01</_>
    <_>
      2.07515550e+00 4.36985826e+00 7.12872314e+00 7.45248699e+00
      1.47462606e+01 9.63784599e+00 -1.56625681e+01</_>
    <_>
      2.10540509e+00 4.39119339e+00 7.42360115e+00 7.76777172e+00
      1.53644247e+01 9.96941948e+00 1.65397491e+01</_>
    <_>
      1.95391309e+00 4.12650824e+00 6.87854004e+00 7.27592182e+00
      1.43560925e+01 9.33959579e+00 -1.52888298e+01</_>
    <_>
      1.92176473e+00 4.11553001e+00 6.36287260e+00 6.51073837e+00
      1.29512501e+01 8.56850338e+00 -1.38332844e+01</_>
    <_>
      2.08519387e+00 4.43388414e+00 7.01993895e+00 7.09945297e+00
      1.41602316e+01 9.31652355e+00 -1.53108253e+01</_>
    <_>
      2.10299587e+00 4.49547291e+00 7.10098553e+00 7.14191532e+00
      1.42670507e+01 9.39065361e+00 -1.51503782e+01</_>
    <_>
      2.01517916e+00 4.29883909e+00 6.99120188e+00 7.27826500e+00
      1.44143848e+01 9.43574619e+00 -1.55110970e+01</_>
    <_>
      1.98983145e+00 4.22751760e+00 6.86207294e+00 7.14202118e+00
      1.41441040e+01 9.26651764e+00 -1.60358086e+01</_>
    <_>
      1.98121834e+00 4.18040609e+00 6.63849258e+00 6.86332941e+00
      1.36142693e+01 8.95690441e+00 -1.55474634e+01</_>
    <_>
      1.93515992e+00 4.10757780e+00 6.59963989e+00 6.85315180e+00
      1.35798721e+01 8.91123486e+00 -1.49924507e+01</_>
    <_>
      1.92647517e+00 4.08344698e+00 6.88448143e+00 7.25899315e+00
      1.43606548e+01 9.30629826e+00 -1.47758865e+01</_>
    <_>
      1.95160043e+00 4.14588070e+00 6.89160299e+00 7.34572458e+00
      1.44646826e+01 9.42834377e+00 1.58985853e+01</_>
    <_>
      2.12158012e+00 4.45621967e+00 7.07149029e+00 7.22362661e+00
      1.43717289e+01 9.45186329e+00 -1.56721468e+01</_>
    <_>
      1.92544591e+00 4.04308414e+00 7.62427330e+00 8.70684338e+00
      1.74673367e+01 1.08544569e+01 1.68868999e+01</_>
    <_>
      1.91656828e+00 4.05139875e+00 7.08425713e+00 7.73560286e+00
      1.51456137e+01 9.77008438e+00 1.68605556e+01</_>
    <_>
      1.91316497e+00 4.07560492e+00 6.60177803e+00 6.92539930e+00
      1.36924887e+01 8.96329212e+00 -1.45870314e+01</_>
    <_>
      1.99361598e+00 4.25034761e+00 6.76050138e+00 7.07244825e+00
      1.39898300e+01 9.20894337e+00 1.51789808e+01</_>
    <_>
      1.90414572e+00 4.07840776e+00 6.62166643e+00 6.86604929e+00
      1.36158905e+01 8.90545368e+00 -1.43928242e+01</_>
    <_>
      1.98394406e+00 4.20273924e+00 6.69188690e+00 6.84796095e+00
      1.36184816e+01 8.95271778e+00 -1.48986139e+01</_>
    <_>
      2.01878762e+00 4.32785988e+00 6.88729239e+00 7.10365915e+00
      1.40999107e+01 9.27185631e+00 -1.53231373e+01</_>
    <_>
      1.87451720e+00 4.05678797e+00 6.46876478e+00 6.75691795e+00
      1.33699074e+01 8.79388523e+00 -1.49522858e+01</_>
    <_>
      1.88082838e+00 3.95768785e+00 7.05518341e+00 8.18735218e+00
      1.59341230e+01 1.03377619e+01 1.59874058e+01</_>
    <_>
      2.15232992e+00 4.56802130e+00 7.15375090e+00 7.25775337e+00
      1.44641285e+01 9.54181767e+00 -1.57348433e+01</_>
    <_>
      1.94557333e+00 4.11575890e+00 6.42391109e+00 6.63076639e+00
      1.31581564e+01 8.69109535e+00 -1.49725170e+01</_>
    <_>
      2.03520584e+00 4.28941059e+00 6.85323620e+00 7.10290718e+00
      1.40815573e+01 9.25492668e+00 1.53683739e+01</_>
    <_>
      2.03677893e+00 4.30152369e+00 6.80251551e+00 6.93509674e+00
      1.38039150e+01 9.08782005e+00 -1.59288559e+01</_>
    <_>
      2.03208756e+00 4.26064634e+00 6.64298439e+00 6.76052856e+00
      1.34629612e+01 8.89111137e+00 -1.47158928e+01</_>
    <_>
      2.06087136e+00 4.36474133e+00 6.95239449e+00 7.02683640e+00
      1.40194035e+01 9.21385479e+00 -1.49512806e+01</_>
    <_>
      2.10574055e+00 4.50796938e+00 6.86473608e+00 7.01769924e+00
      1.39607935e+01 9.27962303e+00 -1.49915667e+01</_>
    <_>
      2.07315898e+00 4.45395041e+00 7.00885630e+00 7.14339066e+00
      1.42308302e+01 9.37685871e+00 -1.48666639e+01</_>
    <_>
      2.11077619e+00 4.59336758e+00 7.24171209e+00 7.13496113e+00
      1.43233557e+01 9.43324852e+00 -1.61093140e+01</_>
    <_>
      2.12033677e+00 4.59975338e+00 7.29064989e+00 7.22615242e+00
      1.44847994e+01 9.52880478e+00 -1.59575815e+01</_>
    <_>
      2.16093326e+00 4.67465925e+00 7.40569353e+00 7.53965425e+00
      1.50156136e+01 9.88346767e+00 1.59240761e+01</_>
    <_>
      2.16526842e+00 4.62572718e+00 7.20871973e+00 7.28837395e+00
      1.45382471e+01 9.60523891e+00 -1.56446056e+01</_>
    <_>
      2.02848077e+00 4.50242662e+00 7.12896681e+00 7.18181038e+00
      1.43429680e+01 9.43303585e+00 -1.51279125e+01</_>
    <_>
      2.03445888e+00 4.48687506e+00 6.95257902e+00 6.95353031e+00
      1.39208746e+01 9.19803619e+00 -1.45045528e+01</_>
    <_>
      2.02296543e+00 4.42090178e+00 7.42424726e+00 7.49812841e+00
      1.50119247e+01 9.72775555e+00 -1.52929392e+01</_>
    <_>
      2.09026480e+00 4.54797745e+00 7.40387726e+00 7.28716660e+00
      1.46431656e+01 9.57848454e+00 -1.52961674e+01</_>
    <_>
      2.00803971e+00 4.42362452e+00 7.24664831e+00 7.48527431e+00
      1.48758917e+01 9.72819233e+00 -1.53358603e+01</_>
    <_>
      1.96157026e+00 4.31470490e+00 7.21230745e+00 7.49421072e+00
      1.48637438e+01 9.65560150e+00 -1.54181871e+01</_>
    <_>
      1.97235000e+00 4.32325745e+00 7.10406876e+00 7.39593792e+00
      1.46702986e+01 9.56038666e+00 -1.51330662e+01</_>
    <_>
      2.00421524e+00 4.37723160e+00 7.25315428e+00 7.36715031e+00
      1.47014799e+01 9.55593109e+00 -1.51659565e+01</_>
    <_>
      2.04324555e+00 4.45268488e+00 7.24928093e+00 7.27593851e+00
      1.45449104e+01 9.50434303e+00 -1.53083115e+01</_>
    <_>
      2.13366079e+00 4.53661919e+00 7.27737617e+00 7.34676266e+00
      1.46595402e+01 9.62358665e+00 -1.59027071e+01</_>
    <_>
      2.00605369e+00 4.36964989e+00 7.06027317e+00 7.21158361e+00
      1.43542690e+01 9.39642906e+00 -1.51043892e+01</_>
    <_>
      1.77174497e+00 3.99204683e+00 7.12654781e+00 8.12312031e+00
      -1.59975128e+01 -1.01515722e+01 1.58307037e+01</_>
    <_>
      1.80104208e+00 4.02875614e+00 6.95872355e+00 7.42033339e+00
      1.50103502e+01 9.56936741e+00 -1.46472406e+01</_>
    <_>
      1.80495691e+00 4.09946108e+00 7.01346111e+00 8.15331745e+00
      -1.57808771e+01 -1.16741743e+01 -1.61042290e+01</_>
    <_>
      1.85807407e+00 4.09744930e+00 7.13301611e+00 7.84605503e+00
      -1.61967564e+01 1.01131525e+01 -1.53397455e+01</_>
    <_>
      1.82664239e+00 3.97501993e+00 6.74054193e+00 7.04891539e+00
      1.39558735e+01 9.03697491e+00 -1.45744057e+01</_>
    <_>
      2.02453732e+00 4.38844585e+00 7.07284451e+00 7.20297289e+00
      1.43416080e+01 9.39750195e+00 -1.55791082e+01</_>
    <_>
      2.00412178e+00 4.33729267e+00 6.89537716e+00 7.02601767e+00
      1.39867163e+01 9.19608212e+00 1.65538788e+01</_>
    <_>
      2.07018948e+00 4.38221741e+00 6.99009466e+00 7.15273476e+00
      1.42246819e+01 9.34392548e+00 -1.55297632e+01</_>
    <_>
      2.03949523e+00 4.42269516e+00 7.15644169e+00 7.35967636e+00
      1.46217508e+01 9.57190800e+00 -1.54862547e+01</_>
    <_>
      1.90935969e+00 4.16883755e+00 6.49046564e+00 6.62970591e+00
      1.31948490e+01 8.71500683e+00 -1.40087337e+01</_>
    <_>
      1.91782534e+00 4.15164614e+00 6.62547255e+00 6.77677536e+00
      1.34778986e+01 8.85451889e+00 1.66970329e+01</_>
    <_>
      1.93628752e+00 4.17915154e+00 6.52676964e+00 6.56331968e+00
      1.31083717e+01 8.65425396e+00 -1.53412151e+01</_>
    <_>
      2.04480386e+00 4.42361641e+00 7.08588076e+00 7.24645472e+00
      1.44126892e+01 9.46169662e+00 -1.61699696e+01</_>
    <_>
      2.00581837e+00 4.34905243e+00 6.97958612e+00 7.07579088e+00
      1.41041870e+01 9.25039864e+00 -1.53475628e+01</_>
    <_>
      2.01887655e+00 4.36826515e+00 6.94749260e+00 7.03426504e+00
      1.40276728e+01 9.21860504e+00 -1.49933691e+01</_>
    <_>
      1.92735207e+00 4.04332542e+00 6.61851263e+00 6.98050594e+00
      1.37816420e+01 9.00216866e+00 -1.48435946e+01</_>
    <_>
      1.85785639e+00 4.03024149e+00 6.61286879e+00 6.83250856e+00
      1.35651903e+01 8.84782887e+00 -1.42287045e+01</_>
    <_>
      1.83553672e+00 3.99021840e+00 6.61044359e+00 6.88621187e+00
      1.36723661e+01 8.89286900e+00 -1.40326586e+01</_>
    <_>
      1.84287536e+00 4.01384354e+00 6.79583740e+00 7.25392628e+00
      1.43453159e+01 9.28486443e+00 -1.45681543e+01</_>
    <_>
      1.91425002e+00 4.13467979e+00 6.65651989e+00 6.75543499e+00
      1.34825602e+01 8.83601952e+00 -1.39776468e+01</_>
    <_>
      2.04331613e+00 4.39762402e+00 7.01340342e+00 7.16046000e+00
      1.42525864e+01 9.35947514e+00 -1.50605803e+01</_>
    <_>
      2.03040838e+00 4.37550020e+00 6.94894075e+00 7.06576967e+00
      1.40817080e+01 9.25785637e+00 -1.47789612e+01</_>
    <_>
      2.05677009e+00 4.40933800e+00 6.79315519e+00 6.87699699e+00
      1.37124834e+01 9.08185863e+00 -1.50739679e+01</_>
    <_>
      2.05076766e+00 4.41120768e+00 7.12091541e+00 7.32135868e+00
      1.45556641e+01 9.53269196e+00 -1.51576633e+01</_>
    <_>
      1.96709573e+00 4.29193068e+00 6.59427357e+00 6.71327686e+00
      1.33854942e+01 8.86722088e+00 -1.39116831e+01</_>
    <_>
      2.04521060e+00 4.42671108e+00 6.87621737e+00 6.98537254e+00
      1.39440012e+01 9.20769882e+00 -1.43760262e+01</_>
    <_>
      1.97067046e+00 4.19571781e+00 6.58454657e+00 6.78308201e+00
      1.34704847e+01 8.88167000e+00 -1.43595810e+01</_>
    <_>
      1.99942946e+00 4.29816294e+00 7.15359974e+00 7.32804823e+00
      1.46093912e+01 9.50497055e+00 -1.49533653e+01</_>
    <_>
      1.94066715e+00 4.21718979e+00 6.70988560e+00 6.83112907e+00
      1.36229725e+01 8.94940472e+00 -1.41160450e+01</_>
    <_>
      1.91239369e+00 4.15796518e+00 6.31668139e+00 6.45774603e+00
      1.28503332e+01 8.53920650e+00 -1.36508999e+01</_>
    <_>
      1.96953547e+00 4.28182507e+00 6.83645010e+00 7.03043461e+00
      1.39912958e+01 9.18681049e+00 -1.44267950e+01</_>
    <_>
      1.93957758e+00 4.19914627e+00 6.80693007e+00 7.02036858e+00
      1.39835320e+01 9.14466572e+00 -1.42793169e+01</_>
    <_>
      1.97645330e+00 4.26532221e+00 6.95308113e+00 7.19504213e+00
      1.42957115e+01 9.33529472e+00 -1.47381430e+01</_>
    <_>
      2.00225997e+00 4.31126165e+00 7.38392735e+00 7.33221912e+00
      1.46913385e+01 9.49124908e+00 -1.58494120e+01</_>
    <_>
      2.02553082e+00 4.40382099e+00 7.22943544e+00 7.67333603e+00
      1.51739845e+01 1.01072206e+01 -1.54710035e+01</_>
    <_>
      2.03653479e+00 4.41670322e+00 7.37272072e+00 7.58954334e+00
      1.50776091e+01 9.90313435e+00 -1.58220320e+01</_>
    <_>
      2.01939082e+00 4.42357111e+00 7.24143410e+00 7.27505589e+00
      1.45334539e+01 9.51246643e+00 -1.61088181e+01</_>
    <_>
      2.03896856e+00 4.49027824e+00 7.12122393e+00 7.32260704e+00
      1.45451899e+01 9.60726452e+00 -1.58011770e+01</_>
    <_>
      1.99120259e+00 4.26591396e+00 7.09865713e+00 7.30613184e+00
      1.45118284e+01 9.44007206e+00 -1.54191618e+01</_>
    <_>
      1.94161713e+00 4.09197998e+00 6.95923662e+00 7.14933920e+00
      1.42052860e+01 9.19539356e+00 -1.52629700e+01</_>
    <_>
      1.98444223e+00 4.22326517e+00 7.35446453e+00 7.46663904e+00
      1.48809252e+01 9.58126354e+00 -1.57613630e+01</_>
    <_>
      1.95203459e+00 4.10151243e+00 7.57541752e+00 7.73081875e+00
      1.53879080e+01 9.85497284e+00 -1.62548790e+01</_>
    <_>
      1.87029099e+00 3.92948198e+00 7.31473351e+00 7.33719778e+00
      1.46632986e+01 9.31058979e+00 1.62670841e+01</_>
    <_>
      1.93878961e+00 4.04329300e+00 7.22832489e+00 7.39817429e+00
      1.47131453e+01 9.46339607e+00 -1.57627201e+01</_>
    <_>
      2.04155111e+00 4.40128994e+00 7.53945827e+00 7.47544146e+00
      1.49890623e+01 9.68348122e+00 -1.57591896e+01</_>
    <_>
      1.97228312e+00 4.15370989e+00 7.52537346e+00 7.60698557e+00
      1.51758299e+01 9.74042320e+00 1.61300964e+01</_>
    <_>
      1.93716919e+00 4.07006264e+00 7.37023830e+00 7.38484287e+00
      1.47629395e+01 9.44493771e+00 1.60585651e+01</_>
    <_>
      1.89793503e+00 3.95339704e+00 7.04610920e+00 7.04187918e+00
      1.40858736e+01 9.02133369e+00 1.74024258e+01</_>
    <_>
      1.90305042e+00 3.99062228e+00 7.42123985e+00 7.31466627e+00
      1.46849012e+01 9.31691074e+00 1.56729546e+01</_>
    <_>
      1.89837885e+00 3.96726847e+00 7.01145220e+00 7.00646496e+00
      1.40157547e+01 8.99411297e+00 1.54239283e+01</_>
    <_>
      1.92823589e+00 4.01469707e+00 7.20511675e+00 7.29294920e+00
      1.45428820e+01 9.31753349e+00 -1.57337723e+01</_>
    <_>
      1.96415806e+00 4.13390493e+00 7.31142855e+00 7.23846912e+00
      1.45152445e+01 9.31136703e+00 1.55518427e+01</_>
    <_>
      1.99653149e+00 4.22050762e+00 7.10066652e+00 7.16334295e+00
      1.42953997e+01 9.27819538e+00 -1.61052208e+01</_>
    <_>
      2.01380062e+00 4.30050850e+00 7.46137905e+00 7.38381290e+00
      1.48064976e+01 9.54241467e+00 -1.65003643e+01</_>
    <_>
      2.07014036e+00 4.48738623e+00 7.53401661e+00 7.56846237e+00
      1.51253738e+01 9.83833694e+00 -1.59140701e+01</_>
    <_>
      2.04710221e+00 4.38875675e+00 7.25222349e+00 7.32692528e+00
      1.46165247e+01 9.53647137e+00 1.65800819e+01</_>
    <_>
      2.02889037e+00 4.31335974e+00 7.15217543e+00 7.12981224e+00
      1.42708187e+01 9.29267597e+00 -1.63828163e+01</_>
    <_>
      2.02686143e+00 4.33850050e+00 7.11882925e+00 7.12555265e+00
      1.42478304e+01 9.29823017e+00 1.59463539e+01</_>
    <_>
      2.02040672e+00 4.39634180e+00 7.23402357e+00 7.45268536e+00
      1.48041010e+01 9.74487972e+00 -1.55152426e+01</_>
    <_>
      1.97217429e+00 4.29418564e+00 6.79948997e+00 7.28322315e+00
      1.43544502e+01 9.60741711e+00 -1.47700977e+01</_>
    <_>
      1.98759985e+00 4.32661629e+00 7.12093687e+00 7.56129313e+00
      1.49303837e+01 9.90501213e+00 -1.53612385e+01</_>
    <_>
      2.01004362e+00 4.39877510e+00 7.25541782e+00 7.36625719e+00
      1.46773233e+01 9.60936260e+00 -1.61656094e+01</_>
    <_>
      1.95307636e+00 4.20145559e+00 7.06948519e+00 7.30237627e+00
      1.44893818e+01 9.42813110e+00 -1.56415253e+01</_>
    <_>
      1.95539665e+00 4.15581417e+00 7.11245823e+00 7.26978207e+00
      1.44612913e+01 9.34981441e+00 -1.58345461e+01</_>
    <_>
      2.05184245e+00 4.43611765e+00 7.62618876e+00 7.61555719e+00
      1.52424307e+01 9.84857845e+00 -1.60187111e+01</_>
    <_>
      1.96610129e+00 4.25051212e+00 6.98807573e+00 7.22147655e+00
      1.43266039e+01 9.37664986e+00 -1.57221642e+01</_>
    <_>
      2.00404286e+00 4.41723442e+00 7.08333063e+00 7.26881742e+00
      1.44458971e+01 9.55833054e+00 -1.56126966e+01</_>
    <_>
      2.00600386e+00 4.52271080e+00 7.02829838e+00 7.31545782e+00
      1.44878778e+01 9.74274158e+00 -1.57891855e+01</_>
    <_>
      1.95699382e+00 4.35371017e+00 6.75494576e+00 7.01129246e+00
      1.38971682e+01 9.25932503e+00 1.48439512e+01</_>
    <_>
      1.94225740e+00 4.26681376e+00 6.74353838e+00 7.10767078e+00
      1.40371771e+01 9.37913513e+00 -1.49079790e+01</_>
    <_>
      1.92487431e+00 4.24449253e+00 6.98678780e+00 7.07877111e+00
      1.41142530e+01 9.23073387e+00 1.50654020e+01</_>
    <_>
      1.94866097e+00 4.34449148e+00 7.44432211e+00 7.51087809e+00
      1.49949617e+01 9.74636936e+00 1.57541723e+01</_>
    <_>
      1.90886641e+00 4.31649637e+00 6.92419815e+00 7.19869709e+00
      1.42601500e+01 9.51378059e+00 1.65717697e+01</_>
    <_>
      1.85851467e+00 4.13859510e+00 6.65123892e+00 7.14631462e+00
      1.40530357e+01 9.36924648e+00 -1.47673893e+01</_>
    <_>
      1.87048328e+00 4.18559265e+00 6.61614370e+00 7.14633989e+00
      1.40451965e+01 9.46737194e+00 -1.45817623e+01</_>
    <_>
      2.03922582e+00 4.38139772e+00 7.72939205e+00 7.73158598e+00
      1.54761562e+01 9.92232227e+00 -1.60631409e+01</_>
    <_>
      1.88466632e+00 4.25797701e+00 6.93908167e+00 7.19906855e+00
      1.42684164e+01 9.44096279e+00 -1.57187796e+01</_>
    <_>
      1.89843655e+00 4.21538877e+00 6.86928940e+00 7.01912308e+00
      1.39633551e+01 9.17987728e+00 -1.59277487e+01</_>
    <_>
      1.89469862e+00 4.11007833e+00 6.80843067e+00 6.70377874e+00
      1.34598846e+01 8.75956631e+00 1.61498470e+01</_>
    <_>
      1.87681305e+00 4.05065441e+00 6.75615072e+00 6.67651558e+00
      1.33932915e+01 8.70404053e+00 -1.47382050e+01</_>
    <_>
      1.88531756e+00 4.00471306e+00 6.65584326e+00 6.48635483e+00
      1.30576572e+01 8.48880672e+00 1.45723715e+01</_>
    <_>
      1.89046717e+00 4.03197050e+00 6.70052958e+00 6.52053213e+00
      1.31310987e+01 8.53658867e+00 -1.50215883e+01</_>
    <_>
      1.89327788e+00 4.06110382e+00 6.72207832e+00 6.55196428e+00
      1.31904078e+01 8.58376217e+00 -1.42816572e+01</_>
    <_>
      1.89020240e+00 4.03335953e+00 6.88978148e+00 6.73223066e+00
      1.35443487e+01 8.74906635e+00 -1.46891479e+01</_>
    <_>
      1.88124490e+00 4.06357670e+00 6.78802776e+00 6.62088013e+00
      1.33254795e+01 8.65381241e+00 1.49134750e+01</_>
    <_>
      1.90028107e+00 4.09238291e+00 7.21115494e+00 7.16993189e+00
      1.43614235e+01 9.23075104e+00 -1.55408354e+01</_>
    <_>
      2.03216147e+00 4.36288643e+00 7.39207840e+00 7.29697561e+00
      1.46415319e+01 9.47842026e+00 -1.65790119e+01</_>
    <_>
      1.90418959e+00 4.14450598e+00 7.11967421e+00 6.95712614e+00
      1.39998360e+01 9.03128910e+00 -1.48488407e+01</_>
    <_>
      1.86052215e+00 3.99329376e+00 6.83854532e+00 6.66468668e+00
      1.34166756e+01 8.66158581e+00 -1.47994032e+01</_>
    <_>
      1.82012820e+00 3.84541750e+00 6.64190197e+00 6.53282452e+00
      1.31213951e+01 8.45674896e+00 1.42482815e+01</_>
    <_>
      1.79730558e+00 3.81714272e+00 6.44590139e+00 6.32538128e+00
      1.27134943e+01 8.24025917e+00 1.36841335e+01</_>
    <_>
      1.79988170e+00 3.83032727e+00 6.46900988e+00 6.38714027e+00
      1.28194342e+01 8.31538105e+00 1.36731071e+01</_>
    <_>
      1.83893645e+00 3.89846373e+00 7.11210299e+00 7.22445345e+00
      1.43964605e+01 9.24573708e+00 1.52771864e+01</_>
    <_>
      1.84501529e+00 3.91254449e+00 6.91411066e+00 7.77421665e+00
      1.55384283e+01 -1.05797005e+01 -1.51522741e+01</_>
    <_>
      1.90350389e+00 4.04990244e+00 7.05389452e+00 7.11132526e+00
      1.42002668e+01 9.18258762e+00 1.49647169e+01</_>
    <_>
      1.91450727e+00 4.10554409e+00 7.19455671e+00 7.10433102e+00
      1.42555895e+01 9.17544842e+00 1.52936230e+01</_>
    <_>
      1.88784170e+00 4.09975433e+00 7.12767744e+00 7.06454706e+00
      1.41622601e+01 9.15755558e+00 -1.52276630e+01</_>
    <_>
      2.01182151e+00 4.30902672e+00 7.26210928e+00 7.32791662e+00
      1.46232920e+01 9.49433231e+00 -1.60119591e+01</_>
    <_>
      1.86086333e+00 4.03314114e+00 6.86896515e+00 6.86440611e+00
      1.37311544e+01 8.91232204e+00 -1.55005178e+01</_>
    <_>
      1.90532792e+00 4.14376736e+00 6.83064079e+00 6.77785873e+00
      1.35833807e+01 8.87073326e+00 1.46988115e+01</_>
    <_>
      1.89757729e+00 4.05012369e+00 7.09033871e+00 7.21088266e+00
      1.43633251e+01 9.24377441e+00 -1.53994017e+01</_>
    <_>
      1.85950601e+00 4.01699352e+00 6.64555264e+00 6.53563690e+00
      1.31263227e+01 8.54760551e+00 -1.48155375e+01</_>
    <_>
      1.90086329e+00 4.06526899e+00 7.22372675e+00 7.25767612e+00
      1.45021620e+01 9.29091167e+00 -1.53796625e+01</_>
    <_>
      2.02671742e+00 4.77980471e+00 7.24457455e+00 7.15107012e+00
      1.44400873e+01 9.59281158e+00 1.45812864e+01</_>
    <_>
      1.99632144e+00 4.55589867e+00 8.37907219e+00 7.22926331e+00
      1.58019352e+01 9.50916100e+00 1.50398302e+01</_>
    <_>
      2.02359533e+00 4.67412567e+00 7.94815779e+00 7.66652441e+00
      1.60683060e+01 1.00467920e+01 1.54883976e+01</_>
    <_>
      2.00790119e+00 4.64684391e+00 7.72153139e+00 7.61450958e+00
      1.59189186e+01 1.00507898e+01 1.52944384e+01</_>
    <_>
      2.00937390e+00 4.32531834e+00 7.03590202e+00 7.20988560e+00
      1.43363676e+01 9.42294407e+00 -1.52255430e+01</_>
    <_>
      1.99698234e+00 4.57765341e+00 7.65983343e+00 7.39547348e+00
      1.55786495e+01 9.73971272e+00 1.49340048e+01</_>
    <_>
      1.96961987e+00 4.50157976e+00 7.27910805e+00 7.41913843e+00
      1.49730110e+01 9.81097412e+00 1.48754168e+01</_>
    <_>
      1.92342508e+00 4.41451931e+00 7.48260546e+00 7.59854364e+00
      1.54198341e+01 9.95650864e+00 1.52088041e+01</_>
    <_>
      1.99012291e+00 4.55832958e+00 8.06012344e+00 7.71709394e+00
      1.58945932e+01 1.01701145e+01 1.56723738e+01</_>
    <_>
      1.99365807e+00 4.50739384e+00 8.47033882e+00 7.46025419e+00
      1.54327402e+01 9.71503353e+00 1.61691551e+01</_>
    <_>
      2.00631213e+00 4.51028728e+00 8.68803692e+00 7.63630629e+00
      1.58030157e+01 9.89333344e+00 -1.66407185e+01</_>
    <_>
      1.98561847e+00 4.42812824e+00 7.73056984e+00 7.03274488e+00
      1.44145632e+01 9.24680996e+00 1.59795113e+01</_>
    <_>
      1.98565269e+00 4.36713457e+00 7.79604912e+00 7.10470057e+00
      1.45575275e+01 9.28829575e+00 -1.55298796e+01</_>
    <_>
      1.97580111e+00 4.29305840e+00 7.64119387e+00 7.01142168e+00
      1.43381433e+01 9.15797234e+00 1.56981964e+01</_>
    <_>
      1.99748254e+00 4.34003925e+00 7.17535114e+00 7.43508244e+00
      1.47479811e+01 9.70466137e+00 -1.54697618e+01</_>
    <_>
      1.96018243e+00 4.20754433e+00 7.31328583e+00 6.85373259e+00
      1.39430618e+01 8.96457386e+00 1.47260714e+01</_>
    <_>
      2.00583673e+00 4.28301239e+00 7.54463720e+00 7.23553276e+00
      1.46386986e+01 9.39289665e+00 1.52421894e+01</_>
    <_>
      1.97809529e+00 4.34500408e+00 7.69861746e+00 7.32709503e+00
      1.48843279e+01 9.54041767e+00 1.52065630e+01</_>
    <_>
      1.98873758e+00 4.35593367e+00 7.82305050e+00 7.54709721e+00
      1.52691269e+01 9.81475925e+00 1.56349230e+01</_>
    <_>
      1.94814825e+00 4.47073460e+00 6.97424412e+00 7.33899307e+00
      1.46229992e+01 9.57626438e+00 1.46720142e+01</_>
    <_>
      2.11962652e+00 4.77504444e+00 7.27212238e+00 7.75498199e+00
      1.52763491e+01 1.01536407e+01 1.59943333e+01</_>
    <_>
      1.98672450e+00 4.58934307e+00 7.10912275e+00 8.08683014e+00
      1.63604794e+01 1.03815870e+01 -1.56946983e+01</_>
    <_>
      1.96845698e+00 4.26333857e+00 7.30280256e+00 8.86838150e+00
      1.70867596e+01 -1.26220789e+01 -1.71237926e+01</_>
    <_>
      1.93651354e+00 4.49230242e+00 6.75239801e+00 7.72450209e+00
      1.49707680e+01 1.01137304e+01 -1.56887274e+01</_>
    <_>
      2.02565074e+00 4.72450399e+00 7.46615410e+00 7.85146141e+00
      -1.65020733e+01 1.02225990e+01 -1.55125360e+01</_>
    <_>
      1.99012196e+00 4.77290344e+00 7.34910011e+00 7.46144676e+00
      1.57141886e+01 9.84792423e+00 -1.48711481e+01</_>
    <_>
      2.02090669e+00 4.77614021e+00 7.24312878e+00 8.11402512e+00
      -1.58868847e+01 1.06201143e+01 -1.60192013e+01</_>
    <_>
      2.04173064e+00 4.74551821e+00 7.33899260e+00 8.09352970e+00
      -1.58647680e+01 1.06091061e+01 1.61349869e+01</_>
    <_>
      2.00850749e+00 4.82734632e+00 7.29275703e+00 8.40890217e+00
      1.69221210e+01 -1.11466312e+01 -1.62702637e+01</_>
    <_>
      2.06360435e+00 4.82070780e+00 7.34860706e+00 8.35369778e+00
      -1.62076225e+01 1.10118113e+01 -1.71531372e+01</_>
    <_>
      2.11172819e+00 4.82704973e+00 7.78344011e+00 8.03934574e+00
      -1.59950409e+01 1.06249552e+01 -1.63176746e+01</_>
    <_>
      2.07461429e+00 4.82119513e+00 7.58666563e+00 7.83608913e+00
      -1.56445475e+01 1.03003025e+01 1.57690105e+01</_>
    <_>
      1.97559118e+00 4.45153284e+00 7.12181711e+00 7.59567976e+00
      1.51300983e+01 9.82218838e+00 1.50824022e+01</_>
    <_>
      2.06478071e+00 5.02317381e+00 7.22891140e+00 8.35694599e+00
      -1.65396595e+01 -1.20128250e+01 -1.61893234e+01</_>
    <_>
      2.01698184e+00 4.67346859e+00 7.07661438e+00 9.12330341e+00
      -1.73014698e+01 1.16730862e+01 -1.74829464e+01</_>
    <_>
      2.07682300e+00 4.59880161e+00 7.38911581e+00 8.25786972e+00
      1.60813789e+01 1.06975031e+01 -1.81462860e+01</_>
    <_>
      1.86323190e+00 4.42138481e+00 6.44499731e+00 7.19936466e+00
      1.40237408e+01 9.42280102e+00 1.50202999e+01</_>
    <_>
      1.97178698e+00 4.60232067e+00 6.78679371e+00 8.51745987e+00
      1.61695862e+01 -1.19784203e+01 1.92681389e+01</_>
    <_>
      2.09681630e+00 5.01795387e+00 7.54513121e+00 8.78126526e+00
      1.78176098e+01 -1.17139473e+01 -1.69483948e+01</_>
    <_>
      2.01064897e+00 4.93276644e+00 7.21067429e+00 8.04903793e+00
      -1.57261648e+01 1.10388641e+01 1.60331821e+01</_>
    <_>
      2.06285357e+00 4.85102892e+00 7.53603268e+00 8.44706631e+00
      -1.64414730e+01 1.25650530e+01 -1.73804779e+01</_>
    <_>
      2.05750871e+00 4.63492966e+00 7.32402420e+00 7.35115576e+00
      1.48862324e+01 9.67057610e+00 1.48006649e+01</_>
    <_>
      2.08919787e+00 4.89324856e+00 7.41495562e+00 7.73461342e+00
      1.57102232e+01 1.01976719e+01 1.53467131e+01</_>
    <_>
      2.04313731e+00 4.67965603e+00 7.15132570e+00 7.61101294e+00
      1.54599619e+01 9.95202637e+00 1.50189543e+01</_>
    <_>
      2.01955605e+00 4.81497478e+00 7.44518042e+00 7.44846725e+00
      -1.67575130e+01 9.86579132e+00 -1.48953323e+01</_>
    <_>
      2.07338667e+00 4.84310532e+00 7.75352097e+00 1.07124310e+01
      2.04133797e+01 1.31440125e+01 -1.99721546e+01</_>
    <_>
      2.07685018e+00 4.89507580e+00 7.46833086e+00 8.36111069e+00
      1.64666901e+01 1.08192329e+01 -1.63923378e+01</_>
    <_>
      2.08801746e+00 4.89447451e+00 7.73385859e+00 9.57332706e+00
      -1.82325630e+01 1.22471724e+01 -1.90223751e+01</_>
    <_>
      2.05988312e+00 4.74531651e+00 7.22625971e+00 8.26574993e+00
      -1.68441391e+01 1.06397858e+01 1.60165062e+01</_>
    <_>
      2.11102152e+00 4.82101631e+00 7.64830160e+00 7.82358360e+00
      -1.56867599e+01 1.02722588e+01 1.57361231e+01</_>
    <_>
      2.03566432e+00 4.68316412e+00 6.91128016e+00 7.64298201e+00
      1.53302050e+01 1.00087690e+01 1.49557343e+01</_>
    <_>
      2.05594516e+00 4.58636332e+00 7.01845789e+00 7.28120518e+00
      1.44773111e+01 9.62848568e+00 1.47894726e+01</_>
    <_>
      2.05328321e+00 4.83830261e+00 7.54534101e+00 8.21872616e+00
      -1.61007900e+01 1.09035740e+01 1.80335560e+01</_>
    <_>
      2.11240101e+00 5.08319664e+00 7.16681099e+00 7.96774864e+00
      -1.55375214e+01 1.06196241e+01 1.65063286e+01</_>
    <_>
      2.10071826e+00 4.76127052e+00 7.92696953e+00 7.84085512e+00
      1.63603783e+01 1.02354536e+01 1.57367191e+01</_>
    <_>
      2.10677242e+00 4.65944576e+00 7.65104008e+00 7.82312155e+00
      1.57891407e+01 1.01676474e+01 1.56532240e+01</_>
    <_>
      1.98765934e+00 4.50607920e+00 7.17909622e+00 8.32946682e+00
      -1.62889194e+01 1.07145624e+01 -1.61906338e+01</_>
    <_>
      2.02069521e+00 4.54648495e+00 7.08492804e+00 7.58148909e+00
      1.52216063e+01 9.86358643e+00 -1.49752426e+01</_>
    <_>
      2.00072551e+00 4.41139793e+00 7.26810312e+00 8.16304302e+00
      1.60141525e+01 1.03690844e+01 -1.60452175e+01</_>
    <_>
      1.99908543e+00 4.33000994e+00 7.55723047e+00 9.06023502e+00
      1.78314266e+01 1.13128510e+01 1.73964500e+01</_>
    <_>
      1.82923532e+00 3.98597479e+00 6.37558746e+00 7.04088116e+00
      1.37523289e+01 9.09580421e+00 -1.46656265e+01</_>
    <_>
      1.87924528e+00 4.05320263e+00 6.57193565e+00 7.06501245e+00
      1.39085770e+01 9.09863472e+00 -1.43645296e+01</_>
    <_>
      1.98396945e+00 4.37845135e+00 6.90968418e+00 7.30588341e+00
      1.44277706e+01 9.62761307e+00 1.50143929e+01</_>
    <_>
      1.90338719e+00 4.11456680e+00 6.44815302e+00 6.87628365e+00
      1.35397682e+01 8.97796535e+00 -1.46562233e+01</_>
    <_>
      1.78413355e+00 3.84021664e+00 6.33742046e+00 7.19127226e+00
      1.39732246e+01 9.27631664e+00 1.45099068e+01</_>
    <_>
      1.79334223e+00 3.91221833e+00 6.50008678e+00 7.81414175e+00
      1.50270147e+01 1.00540619e+01 1.52937622e+01</_>
    <_>
      1.89119649e+00 4.27463055e+00 6.62926483e+00 7.87105989e+00
      1.51416588e+01 1.04446573e+01 -1.56445370e+01</_>
    <_>
      2.03077483e+00 4.77135611e+00 7.22807407e+00 8.17403221e+00
      -1.66499557e+01 1.05934782e+01 1.58812962e+01</_>
    <_>
      1.96493804e+00 4.58669806e+00 6.77271748e+00 9.07247353e+00
      -1.81721001e+01 -1.16398325e+01 1.69960327e+01</_>
    <_>
      1.94652343e+00 4.51658440e+00 7.01619768e+00 7.76573086e+00
      -1.55588570e+01 1.00776348e+01 -1.51937609e+01</_>
    <_>
      1.96617472e+00 4.40944290e+00 7.02339458e+00 8.20270824e+00
      1.58229570e+01 1.06554022e+01 1.65591679e+01</_>
    <_>
      2.02019787e+00 4.51339817e+00 7.06677771e+00 7.63855028e+00
      1.50682926e+01 1.00009918e+01 1.52535257e+01</_>
    <_>
      2.10421419e+00 4.69412136e+00 7.24840689e+00 7.30380201e+00
      1.46870060e+01 9.66535378e+00 1.47847443e+01</_>
    <_>
      1.99804413e+00 4.59205389e+00 6.50353527e+00 7.35702658e+00
      1.43068047e+01 1.00608244e+01 -1.48203726e+01</_>
    <_>
      2.06699252e+00 4.63253498e+00 7.16829157e+00 7.30727720e+00
      1.46099586e+01 9.64609623e+00 1.48389673e+01</_>
    <_>
      1.97164524e+00 4.72785616e+00 6.35519743e+00 6.85349083e+00
      1.34896517e+01 9.24126530e+00 -1.38905964e+01</_>
    <_>
      2.00290084e+00 4.80281210e+00 6.35467339e+00 6.91388369e+00
      1.35520353e+01 9.42074299e+00 1.44244328e+01</_>
    <_>
      1.88131154e+00 4.49632597e+00 6.09909058e+00 6.71135283e+00
      1.31187458e+01 8.98949432e+00 1.41177473e+01</_>
    <_>
      1.88960862e+00 4.39148664e+00 6.32386351e+00 6.63678408e+00
      1.31207657e+01 8.83473206e+00 -1.40056658e+01</_>
    <_>
      1.93671262e+00 4.39818048e+00 6.34883308e+00 6.48001671e+00
      1.28945875e+01 8.68570042e+00 1.44817104e+01</_>
    <_>
      1.92375171e+00 4.24937916e+00 7.11685896e+00 7.13429928e+00
      1.43053665e+01 9.33350182e+00 1.46216555e+01</_>
    <_>
      1.95457780e+00 4.33975458e+00 7.06742954e+00 7.03908730e+00
      1.40923891e+01 9.22373581e+00 -1.59405317e+01</_>
    <_>
      2.10295796e+00 4.68356609e+00 7.26730633e+00 7.30533886e+00
      1.45918016e+01 9.65250206e+00 1.61867504e+01</_>
    <_>
      1.97773170e+00 4.35602808e+00 6.93832779e+00 6.92891359e+00
      1.39539108e+01 9.11339855e+00 1.40945816e+01</_>
    <_>
      1.98221028e+00 4.43381357e+00 7.71513128e+00 8.31563473e+00
      1.65604134e+01 1.05351124e+01 1.64237957e+01</_>
    <_>
      1.89866781e+00 4.30537653e+00 6.67164660e+00 7.65744209e+00
      1.49421959e+01 9.84053612e+00 -1.50077343e+01</_>
    <_>
      1.90397120e+00 4.28204203e+00 6.34462929e+00 7.71801996e+00
      1.51314497e+01 1.08602953e+01 1.47903566e+01</_>
    <_>
      1.96500099e+00 4.49139786e+00 6.53226805e+00 7.47870159e+00
      1.45008612e+01 9.78588486e+00 -1.50498171e+01</_>
    <_>
      1.91966760e+00 4.38021278e+00 6.33624458e+00 7.12327337e+00
      1.38577404e+01 9.40560818e+00 -1.46873188e+01</_>
    <_>
      1.90981960e+00 4.24090767e+00 6.22188759e+00 7.14587545e+00
      1.38647490e+01 9.43833160e+00 1.42434139e+01</_>
    <_>
      1.89351034e+00 4.15653086e+00 6.07863140e+00 6.86879396e+00
      1.35143213e+01 9.39691067e+00 1.34736261e+01</_>
    <_>
      1.92757475e+00 4.17585468e+00 6.34900951e+00 7.20699310e+00
      1.41448593e+01 9.72610950e+00 1.41265459e+01</_>
    <_>
      1.78221762e+00 3.86801696e+00 5.95845699e+00 6.79913807e+00
      1.33442039e+01 9.16943264e+00 1.33137636e+01</_>
    <_>
      1.93994927e+00 4.24877357e+00 6.74656534e+00 7.64843178e+00
      1.48610239e+01 1.01168938e+01 -1.54324112e+01</_>
    <_>
      1.85078347e+00 4.19036102e+00 6.71524858e+00 6.96332598e+00
      1.39114523e+01 9.05964279e+00 -1.40047503e+01</_>
    <_>
      1.95900249e+00 4.41405201e+00 6.86856699e+00 7.22527266e+00
      1.43742352e+01 9.49007797e+00 -1.44852057e+01</_>
    <_>
      2.08536100e+00 4.65676928e+00 8.09811401e+00 8.89160824e+00
      -1.74769115e+01 1.18111610e+01 -1.76203136e+01</_>
    <_>
      2.04919958e+00 4.45997381e+00 7.26202869e+00 9.00164604e+00
      1.77262993e+01 -1.14589319e+01 -1.71481285e+01</_>
    <_>
      1.98054516e+00 4.36765671e+00 7.19658375e+00 8.26671124e+00
      1.61443443e+01 1.11179171e+01 1.61534996e+01</_>
    <_>
      2.00212026e+00 4.42682171e+00 7.46511984e+00 7.63222933e+00
      1.53540955e+01 9.87328625e+00 1.53108883e+01</_>
    <_>
      1.98978913e+00 4.42932844e+00 7.44691944e+00 7.97481680e+00
      1.57277355e+01 1.02889147e+01 1.60628624e+01</_>
    <_>
      2.02781272e+00 4.49880934e+00 8.57464123e+00 7.73331738e+00
      1.59639235e+01 1.00062590e+01 1.61506710e+01</_>
    <_>
      2.09472871e+00 4.65998888e+00 7.39296770e+00 7.13426638e+00
      1.44182777e+01 9.47318840e+00 1.49216261e+01</_>
    <_>
      2.05669856e+00 4.58370972e+00 7.25195456e+00 7.26196766e+00
      1.46731129e+01 9.56303501e+00 1.46658344e+01</_>
    <_>
      2.01341295e+00 4.52756691e+00 6.81346464e+00 7.39773178e+00
      1.45196018e+01 9.78283691e+00 1.50740738e+01</_>
    <_>
      2.02300501e+00 4.53176928e+00 7.27711725e+00 7.68875742e+00
      1.53092861e+01 9.98642540e+00 1.53359518e+01</_>
    <_>
      2.11417842e+00 4.78718948e+00 7.21921778e+00 7.63462496e+00
      1.51949043e+01 1.00501308e+01 1.52306900e+01</_>
    <_>
      1.97715819e+00 4.45487738e+00 6.80656719e+00 8.54011250e+00
      -1.62414570e+01 -1.07891140e+01 1.66720638e+01</_>
    <_>
      1.98712254e+00 4.62243271e+00 6.67676926e+00 7.54927588e+00
      1.46648846e+01 9.95842648e+00 1.56256351e+01</_>
    <_>
      1.98939502e+00 4.47836733e+00 6.98491478e+00 7.48264503e+00
      1.48156166e+01 9.75923061e+00 1.49342747e+01</_>
    <_>
      2.08367682e+00 4.79839563e+00 7.07048845e+00 7.90622425e+00
      1.53958073e+01 1.04464607e+01 1.65191746e+01</_>
    <_>
      2.03707933e+00 4.64727736e+00 6.88711071e+00 8.55846882e+00
      1.65190964e+01 -1.13973360e+01 -1.63696671e+01</_>
    <_>
      2.03106785e+00 4.79505777e+00 6.87149525e+00 8.36613750e+00
      1.60478325e+01 1.14189758e+01 -1.62847576e+01</_>
    <_>
      1.97452056e+00 4.46297646e+00 6.74568319e+00 7.62035894e+00
      1.48670578e+01 9.98572254e+00 1.51008234e+01</_>
    <_>
      2.01246119e+00 4.48389959e+00 6.74655819e+00 7.04935789e+00
      1.39769516e+01 9.34320641e+00 1.43944340e+01</_>
    <_>
      1.96515083e+00 4.23875713e+00 7.11546469e+00 8.36783600e+00
      1.64514046e+01 1.12198648e+01 1.61598759e+01</_>
    <_>
      2.00633144e+00 4.67346144e+00 6.85098648e+00 6.94885302e+00
      1.39440880e+01 9.28898907e+00 1.40734854e+01</_>
    <_>
      1.82055593e+00 4.23004198e+00 6.10681486e+00 6.13230085e+00
      1.22899609e+01 8.25249290e+00 1.26485338e+01</_>
    <_>
      1.82793355e+00 4.31958866e+00 6.77488852e+00 7.19986963e+00
      -1.49869490e+01 9.39104557e+00 1.41927805e+01</_>
    <_>
      1.95857680e+00 4.47651148e+00 7.38498688e+00 6.89333153e+00
      1.40559893e+01 9.13270569e+00 -1.45269957e+01</_>
    <_>
      1.79424524e+00 4.20618248e+00 6.03304577e+00 6.15740585e+00
      1.24335432e+01 8.26743317e+00 1.23764868e+01</_>
    <_>
      1.70435655e+00 4.14240026e+00 5.82372713e+00 6.29510450e+00
      1.25718260e+01 8.36688232e+00 1.24540281e+01</_>
    <_>
      1.98317325e+00 4.72976112e+00 6.66641760e+00 7.09405184e+00
      1.41550617e+01 9.48715878e+00 1.40982466e+01</_>
    <_>
      1.64321101e+00 4.06120825e+00 5.75736761e+00 6.54377651e+00
      1.31859312e+01 8.59813404e+00 1.27181826e+01</_>
    <_>
      2.02768230e+00 4.72508764e+00 7.14010239e+00 6.85198021e+00
      1.38601151e+01 9.21452808e+00 1.44811459e+01</_>
    <_>
      1.96825051e+00 4.34920406e+00 6.76304626e+00 6.90117693e+00
      1.37982836e+01 9.09153175e+00 1.40269146e+01</_>
    <_>
      1.94563949e+00 4.38348961e+00 7.13579273e+00 7.40449095e+00
      1.48943110e+01 9.59838200e+00 1.47727737e+01</_>
    <_>
      1.90166271e+00 4.33212757e+00 6.36503029e+00 7.56829262e+00
      1.60983067e+01 -9.94744492e+00 -1.45351162e+01</_>
    <_>
      1.83563149e+00 4.18215466e+00 6.11994314e+00 7.77739477e+00
      -1.47693768e+01 -9.87842083e+00 -1.50974293e+01</_>
    <_>
      1.68397808e+00 3.73183537e+00 6.06508017e+00 6.86065626e+00
      1.36206064e+01 8.79808521e+00 1.33873262e+01</_>
    <_>
      1.89034104e+00 4.15562630e+00 6.56586456e+00 6.78222847e+00
      1.35268068e+01 8.90256310e+00 1.37347717e+01</_>
    <_>
      2.07494044e+00 4.69116068e+00 7.12455320e+00 7.18301535e+00
      1.43446827e+01 9.52955437e+00 1.50607538e+01</_>
    <_>
      1.94781327e+00 4.18900537e+00 6.95248318e+00 6.82464075e+00
      1.38784990e+01 8.92717457e+00 1.38498793e+01</_>
    <_>
      2.00243640e+00 4.30442715e+00 6.95365477e+00 7.81309795e+00
      1.52038403e+01 1.04106960e+01 -1.59349051e+01</_>
    <_>
      1.87317729e+00 4.09162331e+00 6.71478748e+00 8.16512299e+00
      1.56218262e+01 1.11506548e+01 -1.61697960e+01</_>
    <_>
      1.98730218e+00 4.33218002e+00 6.89584684e+00 7.67803669e+00
      1.49726954e+01 1.00173798e+01 1.56934729e+01</_>
    <_>
      2.11369586e+00 4.69163704e+00 7.33627748e+00 7.68452024e+00
      1.53392010e+01 1.00459967e+01 1.53518524e+01</_>
    <_>
      2.13674068e+00 4.83041477e+00 7.14393282e+00 7.71308374e+00
      1.51620340e+01 1.02176619e+01 1.56648521e+01</_>
    <_>
      2.02285218e+00 4.64938402e+00 6.74722433e+00 7.79362774e+00
      1.52550650e+01 -1.36818752e+01 -1.51804504e+01</_>
    <_>
      1.89035177e+00 4.40537357e+00 6.28335047e+00 7.75711632e+00
      -1.49865694e+01 -9.97415447e+00 -1.48816996e+01</_>
    <_>
      1.91584468e+00 4.40148354e+00 6.21897364e+00 7.19197464e+00
      1.39998636e+01 9.62884235e+00 1.41098423e+01</_>
    <_>
      2.00630236e+00 4.46715546e+00 7.06254864e+00 6.57713842e+00
      1.34314985e+01 8.81454849e+00 1.38133783e+01</_>
    <_>
      1.95199108e+00 4.53096485e+00 6.47410727e+00 7.81415510e+00
      -1.49583054e+01 -1.00816174e+01 1.69930325e+01</_>
    <_>
      1.81557870e+00 3.95301199e+00 6.22994804e+00 7.58765125e+00
      1.48466702e+01 1.02221823e+01 1.45447226e+01</_>
    <_>
      1.83257544e+00 3.88681316e+00 6.38974190e+00 7.50326872e+00
      1.47226372e+01 9.95087337e+00 1.45225077e+01</_>
    <_>
      1.80814111e+00 3.84965849e+00 6.07379198e+00 6.87011242e+00
      1.34196110e+01 8.98169327e+00 1.36032810e+01</_>
    <_>
      1.81575978e+00 3.95811582e+00 6.13275814e+00 7.32450533e+00
      1.43755341e+01 9.83554363e+00 1.41089277e+01</_>
    <_>
      1.93997109e+00 4.31202841e+00 6.16986799e+00 6.93703413e+00
      1.37683182e+01 9.59854317e+00 1.35612717e+01</_>
    <_>
      1.87953389e+00 4.24894905e+00 6.34032154e+00 7.78006935e+00
      1.49142914e+01 1.01485949e+01 1.51099110e+01</_>
    <_>
      1.90209365e+00 4.22728300e+00 6.32783794e+00 7.70683146e+00
      -1.47366400e+01 -9.82631493e+00 -1.53507614e+01</_>
    <_>
      1.95843184e+00 4.39524269e+00 6.63002348e+00 8.35082436e+00
      -1.59499512e+01 -1.05658312e+01 -1.60435944e+01</_>
    <_>
      1.91888690e+00 4.26290178e+00 6.32120943e+00 7.42646074e+00
      1.47361155e+01 1.08113251e+01 1.43316345e+01</_>
    <_>
      1.79137492e+00 4.05864429e+00 6.27750969e+00 6.19588184e+00
      1.24981079e+01 8.22949982e+00 1.27246761e+01</_>
    <_>
      1.97342479e+00 4.33505058e+00 6.78904009e+00 8.38410473e+00
      1.65040989e+01 1.24200163e+01 1.59901419e+01</_>
    <_>
      1.96106029e+00 4.31562042e+00 6.86053658e+00 7.97145414e+00
      1.56322041e+01 1.02374496e+01 1.54724627e+01</_>
    <_>
      1.93533242e+00 4.30539751e+00 6.62859678e+00 7.74357891e+00
      1.49299231e+01 1.04096489e+01 -1.63937969e+01</_>
    <_>
      1.99058580e+00 4.62352753e+00 6.62773275e+00 7.95860291e+00
      1.67941990e+01 -1.05683308e+01 -1.52519493e+01</_>
    <_>
      1.95806074e+00 4.56610966e+00 6.69353390e+00 7.22249889e+00
      1.42379808e+01 9.57046795e+00 1.44972858e+01</_>
    <_>
      2.01143527e+00 4.71078920e+00 7.02770615e+00 7.13727951e+00
      1.42403622e+01 9.49461460e+00 1.47415380e+01</_>
    <_>
      1.90993488e+00 4.32126093e+00 6.51505566e+00 7.20758581e+00
      1.42412949e+01 9.43775749e+00 1.41995506e+01</_>
    <_>
      1.99689758e+00 4.42476606e+00 7.31924295e+00 7.29032183e+00
      1.50779982e+01 9.50342083e+00 1.46199703e+01</_>
    <_>
      1.90979111e+00 4.20268059e+00 7.18859196e+00 7.44596338e+00
      -1.68158989e+01 9.54738712e+00 1.47632580e+01</_>
    <_>
      1.84521091e+00 4.17503309e+00 6.62210846e+00 9.01759720e+00
      1.69247322e+01 1.11620731e+01 -1.70775471e+01</_>
    <_>
      1.81494033e+00 4.14780760e+00 6.44965172e+00 7.81109810e+00
      1.50750618e+01 9.90672207e+00 -1.51103468e+01</_>
    <_>
      1.92082298e+00 4.33730364e+00 6.86696815e+00 7.72380638e+00
      1.58294439e+01 9.89979172e+00 1.50244598e+01</_>
    <_>
      1.97815382e+00 4.62472153e+00 6.89026308e+00 7.89247894e+00
      -1.53009148e+01 1.04008160e+01 -1.58446541e+01</_>
    <_>
      1.93152165e+00 4.88514757e+00 6.61650419e+00 7.61873007e+00
      -1.55196228e+01 1.01402693e+01 1.47423201e+01</_>
    <_>
      1.97117686e+00 4.45665598e+00 6.81260681e+00 7.02698135e+00
      1.44038696e+01 9.25710583e+00 1.39749899e+01</_>
    <_>
      1.76246023e+00 4.16165876e+00 5.92267227e+00 6.32204676e+00
      1.25228119e+01 8.41998005e+00 1.27036352e+01</_>
    <_>
      1.86488736e+00 4.17980194e+00 6.76921511e+00 7.37113476e+00
      1.52078571e+01 9.46281624e+00 1.44477673e+01</_>
    <_>
      2.00394368e+00 4.44855118e+00 6.99716377e+00 6.90538597e+00
      1.41527014e+01 9.12977219e+00 1.39208193e+01</_>
    <_>
      1.96530867e+00 4.36689091e+00 6.84777784e+00 7.34095001e+00
      1.44939070e+01 9.62517071e+00 1.47484045e+01</_>
    <_>
      1.90505886e+00 4.27770758e+00 6.54147768e+00 6.77153397e+00
      1.34965525e+01 8.91937351e+00 -1.37118893e+01</_>
    <_>
      1.55293941e+00 3.86934638e+00 5.30059528e+00 5.55620813e+00
      1.21055498e+01 7.56738567e+00 -1.09858580e+01</_>
    <_>
      1.56356645e+00 3.76208901e+00 7.29043102e+00 6.56315279e+00
      -1.35117464e+01 8.45045948e+00 1.39998865e+01</_>
    <_>
      1.75242209e+00 4.05073404e+00 6.70131302e+00 6.28412771e+00
      1.30047293e+01 8.30966949e+00 1.28704367e+01</_>
    <_>
      1.73776996e+00 4.25586987e+00 6.35955811e+00 6.80221224e+00
      -1.38539066e+01 8.94367981e+00 1.34094763e+01</_>
    <_>
      1.75696981e+00 4.11708307e+00 6.57934904e+00 6.36841488e+00
      1.37112646e+01 8.42701435e+00 1.28463039e+01</_>
    <_>
      1.67916453e+00 3.98289776e+00 6.11108446e+00 8.16383648e+00
      1.53933325e+01 -1.10392847e+01 -1.55320930e+01</_>
    <_>
      1.81058562e+00 4.16266680e+00 6.75427866e+00 6.42854929e+00
      1.39908762e+01 8.51021385e+00 1.30224600e+01</_>
    <_>
      1.74962783e+00 4.60175514e+00 6.26462269e+00 6.85766554e+00
      1.43905144e+01 9.16187668e+00 1.34212980e+01</_>
    <_>
      1.87143254e+00 4.48608398e+00 7.00862598e+00 8.88565350e+00
      1.84088936e+01 -1.26475410e+01 1.68329449e+01</_>
    <_>
      2.01154542e+00 4.89126301e+00 7.53767920e+00 8.03589249e+00
      -1.58333349e+01 -1.09635639e+01 1.64825497e+01</_>
    <_>
      1.91843557e+00 4.16455221e+00 7.19076014e+00 7.64802647e+00
      1.53327255e+01 9.76016235e+00 1.51432343e+01</_>
    <_>
      1.83081830e+00 4.02980232e+00 6.94670820e+00 7.24085760e+00
      -1.58490162e+01 9.25595665e+00 1.43348436e+01</_>
    <_>
      1.83006358e+00 4.07571220e+00 7.01095629e+00 7.29801416e+00
      -1.47407522e+01 9.35482693e+00 1.45194016e+01</_>
    <_>
      1.86212587e+00 4.53221703e+00 6.68703032e+00 6.84013128e+00
      1.36542130e+01 9.10626316e+00 1.39452019e+01</_>
    <_>
      1.84074283e+00 4.72858810e+00 6.41260242e+00 7.16893482e+00
      -1.41627769e+01 9.70874405e+00 1.40679340e+01</_>
    <_>
      1.85964954e+00 4.60727167e+00 6.72354841e+00 7.81185389e+00
      -1.51005945e+01 1.05457029e+01 1.55968580e+01</_>
    <_>
      1.83885670e+00 4.58971262e+00 6.52233076e+00 6.69236612e+00
      -1.43046818e+01 9.01394081e+00 1.33018475e+01</_>
    <_>
      2.20275760e+00 4.70360994e+00 7.64147139e+00 8.63125038e+00
      1.70551910e+01 1.12313280e+01 -1.68347569e+01</_>
    <_>
      1.99408448e+00 4.20762348e+00 6.47686052e+00 6.74904585e+00
      1.33682156e+01 8.87738609e+00 -1.41366997e+01</_>
    <_>
      1.81042397e+00 3.78107023e+00 6.66813660e+00 7.90002441e+00
      -1.51872673e+01 -9.82901573e+00 1.61039944e+01</_>
    <_>
      1.94880950e+00 4.21010065e+00 6.84712362e+00 7.87581730e+00
      -1.54295235e+01 -1.01290522e+01 -1.53528204e+01</_>
    <_>
      1.77646005e+00 3.71605587e+00 6.59723711e+00 7.74449301e+00
      1.65200195e+01 1.08745413e+01 -1.49154930e+01</_>
    <_>
      1.89176977e+00 3.94464660e+00 6.65376329e+00 7.14892530e+00
      1.40757446e+01 9.18927383e+00 -1.45282049e+01</_>
    <_>
      1.84843826e+00 3.85849571e+00 6.59855604e+00 7.19376755e+00
      1.41365585e+01 9.22425365e+00 -1.44468737e+01</_>
    <_>
      1.88613355e+00 3.90310311e+00 6.74660730e+00 7.34962273e+00
      1.44317226e+01 9.37896347e+00 -1.48172464e+01</_>
    <_>
      1.85683739e+00 3.84093690e+00 6.49576998e+00 6.72786760e+00
      1.33406267e+01 8.65704536e+00 -1.45219154e+01</_>
    <_>
      2.03995395e+00 4.27262545e+00 7.15192080e+00 7.86869192e+00
      1.54711332e+01 1.01543169e+01 -1.56096039e+01</_>
    <_>
      1.90586162e+00 3.94384766e+00 7.13813829e+00 8.07941914e+00
      1.59499102e+01 1.03441668e+01 -1.57655306e+01</_>
    <_>
      1.83041191e+00 3.83856463e+00 6.76241064e+00 7.78839827e+00
      1.55463104e+01 1.02981768e+01 -1.50887146e+01</_>
    <_>
      1.85517895e+00 3.90679216e+00 7.01508474e+00 7.93180370e+00
      1.54347334e+01 -1.13653059e+01 1.58533964e+01</_>
    <_>
      1.90810716e+00 4.03005219e+00 6.68320322e+00 7.27137804e+00
      1.42915993e+01 9.39932156e+00 -1.46217747e+01</_>
    <_>
      1.82024574e+00 3.80372596e+00 7.25233841e+00 7.13371277e+00
      1.44553108e+01 9.08754444e+00 -1.45016651e+01</_>
    <_>
      1.76804876e+00 3.74182057e+00 6.36735153e+00 7.31964540e+00
      1.42909603e+01 9.41432476e+00 -1.43390093e+01</_>
    <_>
      1.81259716e+00 3.76572490e+00 6.84918213e+00 6.84438992e+00
      1.37809267e+01 8.79326820e+00 -1.39263659e+01</_>
    <_>
      1.85793400e+00 3.90700316e+00 7.03929281e+00 6.97338963e+00
      1.41522741e+01 8.96560478e+00 -1.41102486e+01</_>
    <_>
      1.80288398e+00 3.77399778e+00 7.09801817e+00 6.88703632e+00
      1.40415421e+01 8.80764008e+00 -1.40191898e+01</_>
    <_>
      1.73855913e+00 3.66921663e+00 6.52305794e+00 7.85226393e+00
      -1.54056950e+01 -1.02178221e+01 -1.50844927e+01</_>
    <_>
      1.78114271e+00 3.70197105e+00 6.60521889e+00 7.41990662e+00
      1.45700083e+01 9.48953438e+00 -1.45967855e+01</_>
    <_>
      1.83056700e+00 3.85615110e+00 6.60693169e+00 7.50713062e+00
      1.49792500e+01 1.00321054e+01 -1.45989037e+01</_>
    <_>
      1.80590332e+00 3.74193668e+00 7.05535030e+00 8.13842869e+00
      -1.69723320e+01 1.14133329e+01 -1.57360477e+01</_>
    <_>
      1.85300791e+00 3.93368578e+00 6.50336361e+00 7.14294338e+00
      1.40483418e+01 9.30496979e+00 -1.42167454e+01</_>
    <_>
      1.95127010e+00 4.12034750e+00 6.81286335e+00 7.45789433e+00
      1.46754875e+01 9.71021080e+00 -1.48439884e+01</_>
    <_>
      1.88611889e+00 3.93210316e+00 6.90705490e+00 7.87771606e+00
      1.63116245e+01 1.07986279e+01 -1.52719021e+01</_>
    <_>
      1.93820977e+00 4.00090027e+00 7.01057243e+00 7.39853811e+00
      1.46039829e+01 9.40728855e+00 -1.57973309e+01</_>
    <_>
      2.04227328e+00 4.23836374e+00 7.29686594e+00 7.78572989e+00
      1.53484659e+01 9.96310043e+00 -1.58404436e+01</_>
    <_>
      1.92461121e+00 3.97343850e+00 6.50514555e+00 6.76238918e+00
      1.33969440e+01 8.75889874e+00 -1.46168127e+01</_>
    <_>
      1.92386520e+00 3.97649431e+00 6.55423927e+00 6.82617283e+00
      1.35173979e+01 8.82102108e+00 -1.46811047e+01</_>
    <_>
      1.96172202e+00 4.06271267e+00 6.56514120e+00 6.72466278e+00
      1.33701200e+01 8.75871181e+00 -1.46658363e+01</_>
    <_>
      1.93787014e+00 3.99657893e+00 6.52678680e+00 6.69077110e+00
      1.32996922e+01 8.69061852e+00 -1.48907909e+01</_>
    <_>
      1.92440021e+00 3.94721079e+00 6.58761168e+00 6.77776670e+00
      1.34604559e+01 8.75146580e+00 1.62788982e+01</_>
    <_>
      1.95191777e+00 3.99848390e+00 6.89058256e+00 7.13012600e+00
      1.41404886e+01 9.13052750e+00 -1.63587418e+01</_>
    <_>
      2.04107904e+00 4.22772169e+00 7.58238363e+00 8.48437881e+00
      1.66215515e+01 1.07348547e+01 -1.67278900e+01</_>
    <_>
      2.03783131e+00 4.37358236e+00 6.84319448e+00 7.32142258e+00
      1.44660645e+01 9.67326260e+00 -1.47051678e+01</_>
    <_>
      1.88423216e+00 3.88078618e+00 7.01335716e+00 7.58567953e+00
      1.49185352e+01 9.58296585e+00 -1.53085651e+01</_>
    <_>
      1.88619864e+00 3.89378834e+00 7.22546816e+00 8.19426823e+00
      1.61544514e+01 -1.04628639e+01 1.59865341e+01</_>
    <_>
      1.78547645e+00 3.74325466e+00 7.20234299e+00 6.86381245e+00
      1.39656725e+01 8.75976562e+00 -1.41800146e+01</_>
    <_>
      1.64679980e+00 3.48664570e+00 6.51864624e+00 7.80163670e+00
      -1.49749222e+01 -9.62428284e+00 -1.55773191e+01</_>
    <_>
      1.59551382e+00 3.37796950e+00 6.82233953e+00 8.65310192e+00
      -1.64966106e+01 -1.03532000e+01 1.65977325e+01</_>
    <_>
      1.63584578e+00 3.47432709e+00 6.60610247e+00 7.37102079e+00
      1.44032431e+01 9.41085529e+00 -1.47293777e+01</_>
    <_>
      1.63654149e+00 3.51157713e+00 6.69839001e+00 8.15540218e+00
      -1.56585026e+01 -1.01067047e+01 -1.58466759e+01</_>
    <_>
      1.63908434e+00 3.51801395e+00 6.44482660e+00 7.46420813e+00
      1.47242565e+01 9.71707726e+00 -1.44797153e+01</_>
    <_>
      1.65588474e+00 3.52878356e+00 6.76514482e+00 8.03304863e+00
      1.55022469e+01 -1.04407063e+01 1.57117710e+01</_>
    <_>
      1.63309121e+00 3.51149845e+00 6.66956711e+00 7.69367313e+00
      1.49795113e+01 9.66382313e+00 -1.50847282e+01</_>
    <_>
      1.95334601e+00 4.15071201e+00 6.62607861e+00 7.16732740e+00
      1.41180086e+01 9.39144135e+00 -1.43927279e+01</_>
    <_>
      1.67297685e+00 3.52611518e+00 7.01756477e+00 6.59099770e+00
      1.35143394e+01 8.36954498e+00 -1.35825891e+01</_>
    <_>
      1.64881551e+00 3.50426126e+00 6.79791594e+00 7.88694477e+00
      1.52469625e+01 -1.08554802e+01 1.57838869e+01</_>
    <_>
      1.65254724e+00 3.48110437e+00 7.13135910e+00 6.92723131e+00
      1.41946974e+01 8.69961452e+00 -1.40447674e+01</_>
    <_>
      2.01991034e+00 4.52908564e+00 6.83392191e+00 7.68409777e+00
      -1.59552441e+01 -1.04132776e+01 -1.49451704e+01</_>
    <_>
      2.09736919e+00 4.58852768e+00 7.29371881e+00 8.44993973e+00
      -1.64446583e+01 -1.07750902e+01 1.65039425e+01</_>
    <_>
