<?xml version="1.0"?>
<opencv_storage>
<opencv_ml_svm>
  <format>3</format>
  <svmType>C_SVC</svmType>
  <kernel>
    <type>RBF</type>
    <gamma>2.2500000000000003e-03</gamma></kernel>
  <C>1.0000000000000001e-01</C>
  <term_criteria><iterations>100</iterations></term_criteria>
  <var_count>30</var_count>
  <class_count>3</class_count>
  <class_labels type_id="opencv-matrix">
    <rows>3</rows>
    <cols>1</cols>
    <dt>i</dt>
    <data>
      1 7 12</data></class_labels>
  <sv_total>305</sv_total>
  <support_vectors>
    <_>
      122. 20. 83. 17. 22. 12. 71. 14. 52. 12. 125. 28. 60. 15. 105. 18.
      11. 10. 184. 25. 50. 21. 31. 18. 97. 11. 90. 6. 140. 18.</_>
    <_>
      47. 13. 157. 20. 132. 18. 117. 19. 116. 7. 57. 14. 26. 11. 18. 9.
      39. 5. 168. 7. 182. 24. 10. 9. 181. 6. 93. 7. 77. 15.</_>
    <_>
      116. 9. 17. 13. 114. 18. 174. 23. 185. 27. 132. 18. 67. 15. 189.
      34. 80. 15. 91. 6. 194. 16. 147. 21. 182. 10. 37. 10. 162. 22.</_>
    <_>
      134. 89. 160. 64. 139. 170. 176. 79. 122. 102. 183. 97. 168. 74.
      122. 93. 148. 78. 181. 110. 172. 129. 165. 89. 146. 159. 123. 111.
      155. 144.</_>
    <_>
      100. 25. 30. 12. 178. 10. 55. 18. 159. 16. 148. 35. 21. 11. 17.
      20. 187. 16. 10. 6. 141. 44. 44. 12. 191. 6. 106. 32. 89. 21.</_>
    <_>
      40. 16. 101. 28. 42. 8. 162. 18. 14. 12. 143. 28. 28. 11. 57. 17.
      139. 43. 88. 36. 173. 25. 137. 20. 125. 20. 191. 6. 174. 10.</_>
    <_>
      139. 194. 130. 110. 127. 99. 186. 87. 141. 178. 173. 84. 141. 115.
      149. 143. 151. 85. 128. 170. 156. 149. 141. 141. 168. 77. 121.
      162. 150. 164.</_>
    <_>
      100. 25. 21. 15. 175. 10. 153. 19. 49. 16. 167. 14. 128. 42. 107.
      20. 140. 42. 116. 37. 126. 21. 176. 18. 9. 16. 115. 15. 187. 8.</_>
    <_>
      35. 12. 116. 35. 12. 10. 43. 16. 71. 17. 157. 17. 98. 24. 27. 13.
      103. 33. 125. 21. 19. 20. 143. 42. 64. 9. 188. 6. 148. 32.</_>
    <_>
      164. 84. 171. 92. 146. 96. 121. 103. 183. 95. 145. 169. 125. 118.
      186. 104. 165. 152. 116. 157. 113. 123. 133. 176. 134. 150. 141.
      116. 106. 114.</_>
    <_>
      152. 90. 138. 111. 146. 171. 171. 81. 135. 102. 120. 102. 183. 68.
      125. 114. 184. 120. 171. 146. 180. 131. 156. 153. 181. 95. 136.
      161. 119. 165.</_>
    <_>
      164. 81. 163. 150. 110. 124. 151. 94. 136. 112. 184. 98. 175. 140.
      117. 120. 165. 89. 173. 122. 178. 129. 146. 174. 133. 100. 135.
      124. 120. 174.</_>
    <_>
      13. 10. 91. 8. 94. 19. 130. 18. 82. 15. 51. 12. 41. 10. 174. 23.
      107. 19. 100. 11. 191. 6. 181. 15. 190. 35. 77. 7. 157. 20.</_>
    <_>
      128. 104. 145. 145. 157. 90. 117. 128. 121. 194. 178. 123. 128.
      176. 117. 120. 166. 89. 157. 98. 152. 117. 138. 95. 143. 177. 151.
      158. 113. 137.</_>
    <_>
      124. 178. 135. 149. 122. 127. 129. 131. 150. 164. 180. 114. 133.
      101. 130. 192. 154. 87. 146. 176. 183. 96. 144. 149. 137. 129.
      149. 117. 145. 98.</_>
    <_>
      130. 121. 151. 194. 178. 105. 122. 115. 169. 102. 148. 112. 127.
      104. 127. 181. 144. 98. 131. 133. 148. 121. 154. 163. 145. 180.
      149. 91. 165. 91.</_>
    <_>
      54. 17. 28. 16. 159. 16. 99. 24. 174. 14. 154. 25. 7. 16. 105. 33.
      140. 42. 121. 40. 146. 34. 189. 8. 44. 8. 27. 8. 11. 6.</_>
    <_>
      12. 10. 97. 23. 23. 9. 158. 17. 174. 13. 114. 34. 141. 42. 151.
      29. 183. 11. 101. 30. 123. 39. 145. 15. 181. 22. 147. 36. 115. 20.</_>
    <_>
      130. 163. 165. 107. 126. 119. 150. 101. 119. 185. 145. 114. 182.
      113. 180. 98. 174. 145. 129. 108. 166. 96. 120. 130. 140. 179.
      181. 126. 159. 91.</_>
    <_>
      30. 14. 102. 27. 50. 16. 94. 22. 132. 43. 12. 8. 136. 22. 10. 22.
      107. 20. 110. 34. 38. 17. 20. 16. 124. 40. 128. 21. 86. 21.</_>
    <_>
      83. 20. 56. 16. 18. 11. 98. 24. 114. 35. 160. 16. 181. 9. 144. 42.
      156. 26. 83. 12. 6. 11. 190. 4. 130. 43. 138. 21. 148. 33.</_>
    <_>
      117. 37. 106. 21. 57. 17. 38. 18. 159. 17. 24. 13. 139. 42. 151.
      28. 17. 20. 12. 9. 190. 7. 131. 42. 149. 15. 178. 8. 31. 24.</_>
    <_>
      163. 17. 56. 17. 149. 30. 48. 8. 12. 9. 148. 14. 99. 23. 26. 15.
      103. 33. 171. 29. 115. 34. 141. 44. 19. 19. 187. 8. 40. 6.</_>
    <_>
      43. 13. 116. 7. 113. 19. 27. 12. 149. 20. 183. 26. 20. 16. 91. 6.
      34. 6. 195. 17. 132. 8. 137. 23. 169. 22. 141. 10. 158. 21.</_>
    <_>
      175. 12. 102. 26. 43. 14. 151. 30. 157. 19. 10. 19. 186. 19. 188.
      8. 140. 43. 115. 35. 140. 20. 78. 20. 107. 19. 27. 10. 167. 13.</_>
    <_>
      159. 16. 24. 19. 47. 15. 16. 13. 98. 25. 175. 12. 28. 8. 57. 7.
      185. 20. 115. 36. 143. 39. 185. 7. 16. 22. 39. 6. 103. 32.</_>
    <_>
      160. 15. 61. 17. 106. 31. 44. 13. 114. 34. 181. 12. 100. 24. 16.
      16. 24. 15. 9. 20. 150. 31. 122. 30. 36. 6. 140. 43. 148. 15.</_>
    <_>
      163. 19. 37. 16. 17. 9. 55. 16. 103. 26. 135. 43. 6. 4. 186. 25.
      152. 7. 186. 15. 143. 41. 120. 40. 154. 26. 145. 16. 147. 33.</_>
    <_>
      36. 16. 112. 34. 158. 17. 17. 9. 97. 23. 170. 15. 157. 25. 37. 7.
      75. 18. 123. 30. 5. 10. 187. 6. 45. 5. 179. 10. 146. 37.</_>
    <_>
      99. 24. 21. 13. 165. 15. 157. 18. 140. 43. 8. 16. 103. 32. 116.
      36. 150. 31. 177. 25. 187. 7. 157. 5. 130. 43. 141. 18. 20. 5.</_>
    <_>
      157. 19. 28. 14. 97. 25. 13. 16. 116. 38. 45. 14. 141. 42. 173.
      10. 146. 33. 27. 22. 187. 8. 36. 6. 146. 18. 132. 43. 103. 19.</_>
    <_>
      150. 29. 55. 17. 12. 8. 111. 34. 103. 26. 172. 12. 24. 18. 48. 8.
      7. 17. 159. 16. 122. 30. 182. 19. 40. 6. 190. 5. 140. 18.</_>
    <_>
      157. 19. 173. 10. 182. 11. 42. 16. 98. 23. 22. 17. 38. 8. 116. 35.
      146. 17. 130. 42. 148. 32. 19. 7. 141. 44. 130. 22. 74. 19.</_>
    <_>
      11. 7. 100. 25. 20. 15. 158. 16. 112. 34. 64. 18. 55. 16. 40. 9.
      140. 42. 27. 20. 119. 40. 123. 30. 78. 8. 190. 7. 154. 27.</_>
    <_>
      43. 14. 177. 17. 141. 18. 158. 20. 162. 8. 124. 18. 28. 14. 183.
      26. 194. 15. 18. 10. 190. 8. 94. 6. 152. 5. 74. 17. 113. 6.</_>
    <_>
      157. 138. 121. 132. 147. 161. 163. 125. 142. 108. 99. 144. 134.
      115. 148. 120. 120. 118. 105. 181. 125. 139. 84. 146. 163. 114.
      87. 135. 91. 126.</_>
    <_>
      21. 14. 97. 23. 152. 14. 115. 36. 147. 32. 181. 7. 139. 43. 12.
      11. 159. 21. 30. 24. 190. 6. 126. 42. 167. 18. 37. 14. 20. 23.</_>
    <_>
      172. 13. 42. 18. 161. 16. 103. 26. 45. 9. 151. 31. 76. 18. 35. 10.
      181. 20. 141. 44. 73. 10. 150. 7. 190. 5. 85. 21. 182. 7.</_>
    <_>
      100. 25. 27. 18. 145. 17. 156. 19. 177. 16. 15. 11. 144. 42. 114.
      34. 104. 33. 148. 32. 186. 8. 17. 22. 120. 40. 106. 18. 40. 18.</_>
    <_>
      96. 23. 60. 18. 151. 22. 165. 15. 130. 43. 176. 10. 172. 28. 181.
      32. 50. 26. 121. 39. 144. 39. 13. 8. 189. 6. 148. 32. 105. 33.</_>
    <_>
      18. 11. 180. 9. 33. 11. 55. 16. 101. 26. 160. 19. 11. 15. 134. 45.
      144. 41. 185. 19. 11. 6. 151. 31. 113. 34. 166. 13. 176. 27.</_>
    <_>
      97. 23. 57. 18. 142. 40. 127. 19. 36. 15. 162. 17. 102. 32. 117.
      22. 152. 27. 144. 18. 172. 24. 16. 11. 187. 8. 44. 6. 170. 10.</_>
    <_>
      37. 19. 150. 19. 173. 13. 48. 18. 97. 23. 20. 11. 8. 8. 73. 13.
      141. 44. 113. 37. 162. 26. 159. 5. 124. 22. 21. 24. 65. 10.</_>
    <_>
      37. 20. 25. 20. 23. 11. 157. 17. 99. 24. 117. 34. 171. 15. 72. 18.
      142. 41. 39. 12. 50. 6. 176. 24. 188. 8. 104. 31. 143. 19.</_>
    <_>
      31. 14. 98. 23. 157. 17. 19. 12. 117. 35. 153. 29. 24. 20. 141.
      42. 125. 42. 175. 11. 6. 13. 146. 18. 190. 5. 145. 35. 85. 21.</_>
    <_>
      78. 13. 88. 24. 45. 14. 125. 17. 97. 19. 67. 16. 13. 6. 184. 25.
      42. 22. 90. 6. 173. 22. 75. 24. 100. 6. 117. 20. 22. 10.</_>
    <_>
      182. 21. 99. 24. 178. 11. 82. 19. 57. 17. 139. 42. 45. 17. 160.
      15. 27. 16. 115. 34. 37. 7. 168. 13. 157. 25. 188. 8. 104. 32.</_>
    <_>
      101. 25. 70. 18. 151. 22. 79. 14. 24. 13. 140. 42. 52. 16. 43. 10.
      113. 34. 21. 22. 188. 7. 159. 17. 130. 43. 172. 10. 5. 5.</_>
    <_>
      30. 11. 45. 18. 100. 25. 54. 17. 157. 19. 17. 7. 173. 30. 56. 8.
      115. 35. 40. 11. 142. 41. 153. 28. 26. 23. 18. 18. 186. 7.</_>
    <_>
      178. 12. 32. 15. 8. 15. 98. 24. 154. 22. 108. 32. 6. 5. 189. 13.
      165. 13. 17. 22. 145. 38. 121. 39. 130. 43. 19. 11. 149. 30.</_>
    <_>
      48. 19. 25. 15. 98. 23. 48. 27. 10. 5. 158. 18. 140. 43. 56. 15.
      151. 29. 118. 22. 14. 17. 186. 10. 115. 35. 104. 33. 143. 18.</_>
    <_>
      28. 15. 102. 26. 161. 15. 185. 8. 154. 23. 31. 7. 114. 34. 144.
      37. 139. 19. 11. 15. 148. 12. 175. 13. 140. 44. 109. 20. 20. 15.</_>
    <_>
      13. 11. 100. 24. 114. 35. 139. 43. 105. 33. 160. 16. 182. 7. 34.
      10. 190. 6. 123. 41. 142. 19. 4. 11. 131. 22. 150. 29. 40. 21.</_>
    <_>
      157. 16. 168. 14. 96. 23. 8. 8. 44. 18. 24. 11. 145. 39. 179. 27.
      29. 19. 36. 13. 187. 8. 146. 17. 101. 30. 120. 40. 55. 16.</_>
    <_>
      31. 18. 99. 24. 180. 12. 50. 16. 167. 14. 124. 20. 175. 25. 152.
      21. 105. 31. 10. 15. 146. 35. 16. 7. 139. 44. 26. 10. 186. 23.</_>
    <_>
      101. 25. 148. 15. 165. 16. 157. 17. 22. 14. 112. 34. 108. 19. 151.
      30. 145. 40. 13. 10. 191. 6. 42. 16. 76. 18. 34. 16. 174. 25.</_>
    <_>
      144. 19. 180. 8. 170. 22. 19. 15. 50. 14. 131. 21. 186. 30. 76.
      17. 192. 7. 98. 6. 124. 5. 153. 20. 21. 7. 11. 9. 43. 10.</_>
    <_>
      27. 14. 158. 18. 55. 15. 149. 28. 98. 27. 104. 20. 141. 42. 58. 7.
      82. 20. 16. 21. 188. 8. 141. 22. 179. 10. 148. 13. 113. 34.</_>
    <_>
      104. 26. 161. 14. 140. 42. 114. 36. 28. 14. 12. 10. 149. 32. 148.
      12. 15. 22. 190. 6. 178. 9. 110. 19. 75. 18. 157. 25. 124. 21.</_>
    <_>
      157. 17. 150. 29. 105. 26. 50. 16. 15. 10. 141. 44. 145. 36. 123.
      20. 28. 11. 165. 15. 24. 22. 6. 8. 181. 9. 133. 45. 120. 40.</_>
    <_>
      99. 24. 82. 20. 45. 18. 172. 12. 55. 15. 157. 19. 185. 21. 140.
      42. 147. 30. 143. 17. 184. 7. 22. 21. 82. 9. 58. 7. 105. 32.</_>
    <_>
      75. 20. 27. 11. 98. 24. 44. 15. 162. 17. 16. 13. 36. 17. 148. 31.
      142. 39. 113. 34. 24. 24. 5. 11. 186. 8. 33. 5. 130. 43.</_>
    <_>
      171. 12. 103. 25. 33. 15. 160. 16. 61. 18. 141. 42. 113. 34. 56.
      7. 22. 22. 147. 16. 11. 8. 179. 18. 192. 11. 44. 6. 171. 4.</_>
    <_>
      103. 27. 85. 19. 59. 14. 155. 17. 183. 11. 28. 11. 170. 13. 114.
      36. 150. 28. 80. 10. 124. 19. 175. 23. 61. 6. 12. 5. 66. 19.</_>
    <_>
      98. 23. 114. 34. 157. 18. 30. 14. 153. 29. 141. 44. 25. 25. 187.
      8. 17. 18. 166. 14. 128. 41. 179. 10. 145. 37. 103. 31. 135. 22.</_>
    <_>
      166. 16. 90. 22. 107. 34. 44. 17. 20. 12. 31. 14. 52. 15. 151. 23.
      115. 35. 100. 23. 141. 43. 11. 11. 99. 39. 124. 30. 185. 27.</_>
    <_>
      17. 8. 156. 21. 98. 23. 151. 14. 180. 11. 30. 18. 116. 35. 29. 6.
      139. 43. 124. 30. 12. 21. 23. 14. 189. 6. 147. 31. 103. 31.</_>
    <_>
      17. 11. 115. 20. 77. 17. 33. 11. 68. 13. 118. 9. 52. 15. 156. 21.
      132. 17. 178. 23. 29. 18. 6. 13. 67. 23. 183. 13. 108. 5.</_>
    <_>
      159. 17. 176. 13. 112. 37. 22. 7. 98. 24. 31. 13. 41. 15. 105. 31.
      33. 23. 149. 33. 140. 19. 15. 11. 51. 18. 173. 25. 187. 16.</_>
    <_>
      36. 14. 115. 38. 98. 26. 40. 6. 161. 19. 139. 43. 60. 20. 152. 21.
      81. 20. 174. 29. 12. 6. 66. 9. 183. 8. 27. 12. 148. 29.</_>
    <_>
      62. 14. 114. 35. 77. 18. 30. 20. 182. 10. 157. 18. 44. 144. 65.
      155. 95. 24. 104. 86. 40. 135. 77. 10. 71. 133. 98. 104. 89. 46.</_>
    <_>
      111. 59. 67. 155. 106. 81. 72. 173. 103. 90. 75. 125. 68. 194. 59.
      149. 96. 100. 36. 139. 91. 108. 58. 196. 90. 187. 49. 134. 54.
      115.</_>
    <_>
      58. 122. 86. 46. 73. 168. 47. 16. 88. 182. 100. 81. 40. 136. 79.
      18. 90. 23. 61. 18. 7. 17. 106. 60. 116. 39. 109. 46. 158. 21.</_>
    <_>
      47. 56. 86. 53. 182. 13. 86. 23. 62. 59. 51. 45. 31. 71. 150. 13.
      169. 13. 45. 72. 88. 41. 114. 36. 63. 47. 27. 60. 157. 20.</_>
    <_>
      84. 28. 80. 104. 151. 24. 27. 16. 97. 83. 67. 19. 82. 43. 42. 18.
      103. 23. 99. 61. 161. 14. 107. 45. 113. 36. 176. 13. 63. 139.</_>
    <_>
      53. 36. 82. 71. 93. 81. 31. 16. 114. 36. 63. 20. 80. 47. 103. 18.
      88. 30. 55. 15. 65. 39. 102. 58. 86. 20. 107. 26. 82. 36.</_>
    <_>
      93. 195. 24. 56. 158. 17. 75. 16. 81. 95. 93. 184. 61. 54. 61.
      127. 171. 14. 51. 8. 71. 163. 22. 17. 96. 65. 56. 20. 25. 64.</_>
    <_>
      90. 195. 34. 121. 68. 113. 99. 60. 76. 98. 98. 72. 92. 183. 64.
      145. 38. 132. 76. 173. 71. 163. 69. 135. 95. 81. 83. 94. 94. 53.</_>
    <_>
      26. 11. 118. 20. 176. 22. 120. 7. 144. 19. 176. 6. 19. 6. 11. 11.
      93. 7. 194. 40. 90. 19. 71. 15. 53. 13. 133. 9. 165. 22.</_>
    <_>
      102. 42. 109. 34. 109. 19. 67. 116. 60. 133. 159. 17. 64. 97. 76.
      172. 166. 13. 71. 102. 95. 67. 67. 194. 83. 63. 84. 93. 140. 42.</_>
    <_>
      81. 175. 63. 133. 49. 101. 80. 98. 76. 143. 40. 107. 87. 91. 119.
      196. 93. 85. 71. 122. 39. 119. 72. 112. 48. 161. 79. 193. 112.
      191.</_>
    <_>
      66. 193. 78. 170. 72. 110. 69. 98. 114. 194. 62. 130. 88. 178. 91.
      87. 83. 99. 101. 196. 93. 196. 31. 114. 61. 107. 74. 157. 67. 141.</_>
    <_>
      66. 132. 107. 48. 72. 192. 74. 107. 36. 112. 107. 39. 106. 63.
      157. 17. 82. 173. 156. 27. 67. 102. 88. 94. 147. 32. 112. 19. 76.
      153.</_>
    <_>
      111. 45. 28. 15. 78. 166. 105. 22. 115. 31. 105. 60. 54. 41. 68.
      130. 20. 16. 74. 104. 91. 24. 39. 67. 40. 13. 71. 65. 29. 56.</_>
    <_>
      14. 20. 173. 8. 152. 14. 104. 185. 104. 77. 66. 30. 43. 19. 52.
      17. 84. 22. 115. 38. 45. 52. 67. 21. 104. 20. 30. 56. 71. 138.</_>
    <_>
      88. 42. 158. 17. 69. 120. 111. 55. 67. 45. 68. 29. 17. 18. 117.
      40. 76. 31. 84. 22. 67. 133. 8. 16. 113. 47. 50. 44. 25. 11.</_>
    <_>
      100. 75. 63. 59. 58. 44. 108. 29. 156. 19. 41. 52. 15. 18. 111.
      39. 84. 51. 49. 16. 109. 56. 69. 24. 99. 88. 49. 47. 144. 15.</_>
    <_>
      27. 12. 108. 31. 74. 22. 34. 16. 83. 27. 120. 18. 114. 59. 124.
      43. 79. 50. 168. 14. 152. 21. 68. 61. 6. 20. 137. 45. 117. 72.</_>
    <_>
      119. 41. 113. 33. 16. 5. 88. 194. 55. 121. 83. 53. 120. 49. 79.
      138. 85. 113. 38. 17. 118. 58. 128. 47. 89. 33. 107. 53. 78. 107.</_>
    <_>
      35. 10. 175. 22. 119. 21. 24. 10. 122. 9. 153. 20. 16. 8. 185. 9.
      80. 18. 94. 6. 108. 20. 186. 29. 104. 6. 145. 10. 146. 25.</_>
    <_>
      59. 49. 83. 140. 126. 22. 84. 131. 113. 39. 89. 34. 159. 21. 101.
      36. 98. 104. 59. 63. 71. 104. 10. 11. 24. 13. 65. 111. 126. 11.</_>
    <_>
      65. 68. 80. 63. 16. 12. 69. 43. 171. 15. 129. 48. 163. 15. 91. 28.
      102. 56. 129. 66. 96. 112. 29. 11. 66. 60. 83. 24. 118. 65.</_>
    <_>
      160. 16. 111. 73. 99. 172. 90. 141. 122. 37. 32. 15. 175. 14. 82.
      60. 45. 8. 89. 47. 50. 15. 125. 77. 65. 48. 142. 24. 95. 118.</_>
    <_>
      90. 47. 68. 46. 71. 17. 140. 29. 85. 19. 30. 13. 126. 82. 23. 9.
      151. 20. 144. 50. 127. 44. 98. 45. 132. 75. 108. 27. 54. 20.</_>
    <_>
      27. 10. 101. 32. 144. 69. 94. 47. 97. 138. 105. 114. 74. 112. 144.
      30. 154. 17. 51. 16. 16. 20. 111. 102. 145. 56. 78. 44. 101. 171.</_>
    <_>
      104. 32. 155. 18. 174. 13. 116. 100. 166. 13. 16. 15. 147. 61.
      104. 169. 139. 30. 53. 17. 41. 15. 131. 91. 77. 60. 96. 49. 78.
      19.</_>
    <_>
      106. 36. 143. 63. 106. 171. 111. 112. 97. 52. 144. 76. 84. 102.
      109. 120. 102. 44. 89. 57. 100. 100. 166. 15. 127. 95. 103. 133.
      139. 38.</_>
    <_>
      146. 29. 156. 17. 80. 43. 143. 46. 101. 60. 150. 57. 110. 57. 89.
      52. 28. 19. 144. 82. 24. 12. 108. 122. 42. 17. 105. 136. 110. 114.</_>
    <_>
      98. 24. 47. 14. 28. 16. 57. 17. 159. 17. 140. 18. 130. 43. 19. 13.
      41. 6. 190. 5. 150. 29. 102. 32. 105. 19. 157. 25. 116. 19.</_>
    <_>
      62. 104. 72. 103. 65. 147. 54. 125. 72. 126. 76. 92. 49. 113. 89.
      118. 56. 137. 86. 94. 52. 149. 43. 130. 72. 112. 80. 179. 65. 119.</_>
    <_>
      29. 15. 101. 27. 171. 14. 159. 16. 31. 7. 144. 40. 12. 9. 187. 8.
      147. 32. 94. 22. 178. 21. 146. 15. 137. 44. 124. 41. 155. 25.</_>
    <_>
      136. 133. 142. 181. 114. 174. 136. 149. 117. 165. 139. 157. 134.
      183. 123. 173. 118. 139. 115. 124. 124. 116. 115. 150. 117. 183.
      144. 106. 151. 187.</_>
    <_>
      53. 151. 39. 176. 71. 166. 25. 174. 23. 130. 30. 118. 42. 187.
      148. 187. 132. 179. 43. 147. 33. 145. 53. 136. 122. 177. 112. 175.
      103. 173.</_>
    <_>
      178. 163. 171. 131. 168. 140. 151. 158. 183. 187. 162. 129. 167.
      165. 145. 169. 184. 195. 159. 163. 185. 131. 174. 183. 150. 137.
      166. 196. 139. 161.</_>
    <_>
      155. 20. 82. 20. 38. 18. 14. 15. 96. 23. 22. 12. 163. 13. 139. 43.
      140. 19. 29. 21. 82. 11. 186. 8. 150. 30. 101. 31. 128. 42.</_>
    <_>
      152. 21. 17. 21. 63. 20. 100. 30. 79. 18. 33. 15. 21. 10. 58. 10.
      76. 8. 89. 37. 13. 10. 140. 43. 130. 44. 121. 41. 181. 9.</_>
    <_>
      108. 121. 99. 92. 57. 127. 105. 102. 112. 143. 49. 132. 119. 162.
      61. 138. 86. 136. 88. 155. 76. 131. 85. 87. 85. 106. 98. 107. 91.
      99.</_>
    <_>
      147. 32. 41. 17. 19. 10. 36. 8. 159. 18. 97. 24. 139. 43. 125. 21.
      7. 8. 146. 15. 190. 5. 61. 5. 131. 42. 113. 34. 136. 23.</_>
    <_>
      30. 11. 96. 23. 153. 25. 161. 16. 51. 17. 140. 42. 36. 17. 24. 20.
      149. 12. 128. 41. 120. 40. 17. 11. 185. 7. 108. 34. 77. 20.</_>
    <_>
      156. 19. 147. 16. 99. 24. 139. 43. 29. 14. 104. 33. 15. 21. 190.
      6. 164. 15. 114. 37. 139. 21. 181. 10. 11. 6. 146. 33. 48. 15.</_>
    <_>
      56. 16. 100. 24. 112. 35. 19. 11. 157. 17. 27. 12. 12. 15. 104.
      33. 139. 43. 152. 29. 145. 36. 37. 11. 28. 23. 10. 6. 191. 5.</_>
    <_>
      7. 9. 27. 16. 99. 25. 157. 19. 174. 12. 111. 34. 140. 19. 144. 41.
      153. 29. 19. 21. 184. 13. 189. 6. 103. 32. 119. 40. 106. 18.</_>
    <_>
      156. 20. 11. 7. 47. 18. 112. 34. 18. 11. 95. 23. 150. 29. 140. 43.
      99. 30. 120. 30. 36. 24. 188. 8. 152. 8. 143. 18. 177. 10.</_>
    <_>
      67. 165. 52. 150. 50. 142. 27. 185. 24. 177. 33. 120. 35. 188. 27.
      140. 22. 117. 46. 185. 32. 169. 61. 154. 139. 183. 15. 177. 128.
      178.</_>
    <_>
      151. 23. 160. 18. 49. 15. 8. 15. 100. 27. 50. 5. 108. 20. 115. 35.
      142. 42. 92. 22. 129. 20. 181. 10. 134. 43. 148. 8. 189. 6.</_>
    <_>
      66. 18. 98. 24. 155. 19. 146. 18. 111. 35. 56. 7. 140. 42. 105.
      19. 152. 29. 47. 8. 120. 30. 36. 21. 189. 6. 104. 31. 131. 44.</_>
    <_>
      23. 14. 185. 8. 165. 14. 103. 26. 156. 19. 152. 26. 15. 13. 112.
      36. 141. 21. 140. 42. 53. 18. 108. 19. 172. 6. 95. 23. 34. 17.</_>
    <_>
      149. 28. 158. 18. 23. 10. 98. 23. 113. 35. 143. 21. 139. 42. 167.
      14. 56. 16. 34. 7. 129. 22. 123. 31. 177. 22. 15. 18. 145. 36.</_>
    <_>
      32. 12. 20. 11. 46. 16. 11. 7. 98. 25. 158. 17. 46. 8. 102. 33.
      115. 36. 138. 45. 26. 18. 191. 6. 138. 20. 146. 15. 175. 12.</_>
    <_>
      22. 19. 100. 25. 36. 10. 146. 17. 53. 15. 157. 18. 140. 42. 106.
      31. 118. 40. 185. 7. 30. 23. 153. 26. 106. 19. 174. 11. 126. 42.</_>
    <_>
      97. 23. 37. 19. 158. 17. 139. 43. 56. 17. 152. 28. 186. 7. 119.
      38. 28. 21. 35. 6. 138. 20. 146. 34. 130. 43. 15. 14. 166. 12.</_>
    <_>
      22. 21. 51. 16. 42. 14. 77. 18. 13. 9. 100. 27. 9. 18. 158. 19.
      173. 13. 141. 44. 118. 38. 33. 14. 61. 9. 191. 6. 30. 6.</_>
    <_>
      9. 11. 157. 18. 100. 25. 51. 15. 88. 20. 188. 7. 36. 17. 56. 4.
      140. 43. 139. 20. 180. 9. 28. 20. 152. 28. 104. 33. 66. 18.</_>
    <_>
      52. 16. 169. 14. 100. 25. 159. 18. 152. 27. 140. 19. 140. 44. 57.
      8. 5. 7. 191. 6. 105. 32. 179. 15. 120. 40. 123. 21. 183. 8.</_>
    <_>
      46. 159. 56. 161. 37. 155. 24. 140. 34. 189. 22. 191. 11. 145. 15.
      130. 56. 129. 15. 179. 155. 192. 23. 182. 56. 146. 145. 185. 128.
      178.</_>
    <_>
      154. 18. 98. 23. 44. 16. 139. 42. 151. 26. 166. 14. 18. 20. 30. 6.
      101. 31. 116. 38. 130. 22. 187. 5. 145. 18. 146. 37. 124. 41.</_>
    <_>
      159. 16. 28. 8. 99. 25. 15. 12. 32. 19. 8. 8. 141. 44. 60. 18.
      103. 33. 44. 20. 168. 11. 123. 20. 49. 7. 147. 34. 122. 41.</_>
    <_>
      117. 37. 14. 10. 55. 17. 22. 18. 156. 17. 98. 24. 189. 6. 141. 44.
      148. 31. 46. 17. 29. 23. 105. 32. 80. 21. 14. 19. 142. 18.</_>
    <_>
      148. 31. 55. 19. 85. 19. 77. 19. 96. 23. 7. 14. 81. 12. 113. 35.
      156. 18. 140. 42. 103. 19. 123. 20. 32. 16. 53. 10. 187. 6.</_>
    <_>
      17. 10. 50. 19. 43. 12. 101. 25. 12. 19. 114. 35. 162. 19. 149.
      30. 108. 19. 123. 31. 35. 25. 26. 21. 190. 6. 60. 6. 142. 20.</_>
    <_>
      61. 9. 103. 30. 33. 11. 51. 19. 157. 18. 95. 23. 115. 35. 15. 16.
      72. 19. 188. 6. 151. 28. 110. 15. 50. 7. 128. 42. 144. 40.</_>
    <_>
      16. 10. 38. 14. 148. 24. 96. 25. 155. 20. 173. 11. 5. 14. 43. 24.
      61. 17. 186. 7. 17. 2. 102. 32. 140. 45. 131. 44. 153. 10.</_>
    <_>
      33. 16. 14. 12. 166. 13. 99. 23. 157. 18. 33. 8. 6. 12. 46. 15.
      189. 5. 141. 42. 172. 26. 104. 32. 175. 11. 150. 31. 145. 16.</_>
    <_>
      57. 18. 68. 19. 82. 19. 99. 24. 32. 20. 159. 16. 27. 13. 103. 33.
      79. 9. 140. 42. 53. 7. 186. 7. 8. 14. 139. 22. 125. 42.</_>
    <_>
      98. 24. 179. 7. 24. 17. 167. 13. 61. 15. 49. 15. 159. 16. 179. 15.
      149. 32. 16. 11. 15. 22. 59. 7. 37. 6. 124. 40. 113. 34.</_>
    <_>
      65. 163. 55. 152. 36. 187. 19. 182. 33. 155. 24. 189. 51. 138. 21.
      142. 20. 154. 22. 131. 19. 169. 71. 116. 141. 184. 48. 157. 74.
      166.</_>
    <_>
      23. 13. 31. 14. 97. 23. 59. 9. 161. 15. 150. 24. 73. 10. 77. 20.
      59. 22. 140. 42. 120. 39. 49. 13. 152. 9. 187. 6. 45. 23.</_>
    <_>
      43. 11. 66. 18. 13. 11. 34. 19. 99. 24. 75. 18. 164. 14. 141. 44.
      63. 9. 151. 23. 103. 33. 19. 19. 182. 10. 124. 40. 30. 11.</_>
    <_>
      99. 25. 54. 16. 66. 16. 20. 16. 153. 14. 170. 12. 36. 16. 62. 8.
      104. 33. 181. 9. 148. 33. 159. 21. 141. 21. 10. 20. 6. 6.</_>
    <_>
      15. 14. 39. 12. 23. 14. 96. 23. 71. 18. 158. 18. 140. 43. 46. 16.
      7. 6. 179. 8. 30. 24. 148. 33. 119. 40. 166. 14. 188. 5.</_>
    <_>
      19. 12. 113. 34. 100. 26. 69. 17. 49. 16. 157. 18. 141. 43. 104.
      33. 143. 20. 15. 19. 56. 5. 149. 33. 27. 17. 121. 30. 6. 13.</_>
    <_>
      57. 18. 100. 25. 8. 19. 17. 12. 158. 17. 44. 18. 105. 33. 34. 10.
      150. 31. 166. 13. 142. 42. 186. 6. 23. 22. 54. 10. 178. 11.</_>
    <_>
      103. 26. 23. 20. 25. 12. 67. 17. 157. 17. 41. 17. 140. 43. 115.
      35. 12. 9. 60. 10. 154. 27. 144. 16. 179. 9. 189. 6. 129. 43.</_>
    <_>
      30. 17. 122. 20. 98. 24. 56. 17. 163. 13. 113. 34. 157. 19. 102.
      33. 146. 35. 121. 30. 15. 21. 189. 6. 140. 43. 105. 19. 74. 18.</_>
    <_>
      30. 17. 113. 35. 183. 8. 100. 24. 42. 13. 142. 20. 20. 15. 156.
      20. 149. 29. 104. 33. 107. 19. 166. 12. 145. 39. 121. 30. 123. 21.</_>
    <_>
      163. 16. 24. 15. 101. 26. 145. 39. 114. 35. 134. 44. 15. 21. 187.
      7. 6. 6. 150. 32. 172. 24. 157. 24. 107. 19. 145. 15. 178. 9.</_>
    <_>
      57. 160. 56. 134. 18. 163. 32. 150. 16. 172. 29. 121. 33. 114. 30.
      189. 27. 180. 25. 146. 72. 163. 68. 122. 39. 176. 21. 120. 39.
      185.</_>
    <_>
      100. 25. 158. 16. 20. 11. 10. 15. 140. 43. 10. 7. 190. 6. 148. 33.
      131. 44. 155. 25. 173. 10. 142. 19. 52. 18. 124. 40. 75. 19.</_>
    <_>
      36. 17. 103. 26. 155. 19. 21. 14. 114. 35. 48. 6. 54. 14. 11. 18.
      141. 42. 130. 44. 141. 19. 40. 6. 152. 30. 176. 9. 12. 10.</_>
    <_>
      157. 19. 49. 16. 21. 10. 111. 27. 99. 25. 114. 35. 106. 34. 147.
      16. 148. 33. 11. 10. 141. 44. 13. 20. 189. 7. 138. 21. 105. 19.</_>
    <_>
      15. 8. 59. 16. 29. 9. 102. 26. 16. 16. 112. 34. 27. 19. 156. 19.
      46. 16. 144. 40. 153. 28. 143. 17. 135. 45. 191. 6. 59. 5.</_>
    <_>
      99. 25. 150. 16. 42. 19. 13. 10. 158. 19. 184. 9. 103. 33. 141.
      41. 22. 10. 28. 20. 147. 31. 36. 25. 120. 40. 125. 22. 131. 44.</_>
    <_>
      30. 15. 56. 15. 102. 28. 173. 14. 156. 17. 71. 18. 40. 17. 113.
      34. 183. 6. 119. 40. 139. 21. 126. 20. 47. 26. 16. 19. 21. 9.</_>
    <_>
      59. 18. 27. 15. 15. 7. 41. 18. 99. 24. 150. 23. 140. 43. 104. 33.
      54. 8. 148. 32. 14. 17. 191. 5. 131. 44. 119. 40. 163. 16.</_>
    <_>
      22. 19. 159. 16. 41. 15. 107. 20. 99. 24. 140. 42. 104. 33. 115.
      16. 26. 5. 156. 25. 146. 15. 147. 32. 186. 7. 176. 10. 124. 22.</_>
    <_>
      22. 13. 52. 16. 95. 23. 157. 17. 140. 44. 118. 39. 13. 11. 27. 20.
      187. 8. 147. 32. 143. 18. 38. 24. 11. 20. 117. 19. 46. 24.</_>
    <_>
      170. 18. 151. 19. 98. 23. 47. 20. 151. 28. 57. 7. 166. 6. 64. 17.
      40. 13. 140. 43. 180. 9. 36. 23. 157. 6. 146. 37. 125. 42.</_>
    <_>
      53. 151. 24. 169. 59. 162. 39. 142. 23. 128. 9. 142. 18. 163. 51.
      190. 49. 174. 53. 133. 15. 131. 21. 117. 23. 188. 136. 182. 33.
      170.</_>
    <_>
      14. 10. 118. 37. 48. 12. 99. 25. 30. 20. 61. 18. 157. 18. 128. 43.
      30. 11. 123. 21. 187. 8. 141. 42. 109. 41. 146. 18. 178. 11.</_>
    <_>
      28. 15. 36. 16. 113. 35. 48. 19. 98. 24. 142. 44. 56. 17. 22. 9.
      158. 19. 104. 33. 39. 24. 18. 17. 47. 7. 33. 6. 150. 31.</_>
    <_>
      121. 113. 174. 159. 124. 129. 119. 95. 132. 121. 139. 108. 145.
      136. 129. 144. 151. 103. 167. 137. 154. 90. 163. 101. 163. 111.
      154. 152. 138. 149.</_>
    <_>
      51. 15. 126. 21. 97. 23. 156. 20. 140. 42. 115. 35. 59. 8. 183. 7.
      38. 6. 145. 17. 8. 6. 74. 19. 174. 10. 153. 8. 147. 33.</_>
    <_>
      19. 13. 31. 8. 51. 18. 44. 10. 113. 34. 97. 23. 8. 8. 140. 42. 18.
      21. 159. 18. 38. 21. 152. 28. 191. 6. 19. 5. 100. 32.</_>
    <_>
      124. 89. 164. 86. 163. 145. 134. 96. 176. 146. 160. 130. 166. 117.
      155. 149. 142. 91. 133. 133. 168. 125. 153. 89. 116. 73. 104. 68.
      93. 59.</_>
    <_>
      59. 18. 96. 23. 26. 9. 39. 15. 132. 22. 180. 9. 100. 32. 151. 28.
      51. 25. 188. 7. 140. 43. 120. 19. 159. 19. 13. 9. 37. 5.</_>
    <_>
      24. 15. 43. 15. 11. 11. 98. 24. 157. 19. 140. 42. 51. 15. 165. 15.
      14. 21. 149. 32. 24. 7. 190. 6. 37. 9. 74. 18. 102. 31.</_>
    <_>
      99. 25. 157. 18. 44. 17. 52. 15. 145. 15. 115. 37. 106. 32. 39. 4.
      143. 42. 6. 19. 31. 10. 190. 6. 154. 28. 109. 20. 80. 20.</_>
    <_>
      97. 24. 103. 34. 41. 17. 158. 17. 146. 32. 139. 43. 144. 16. 28.
      22. 29. 10. 188. 8. 47. 7. 66. 18. 175. 11. 102. 42. 104. 19.</_>
    <_>
      26. 184. 58. 161. 52. 152. 15. 177. 39. 181. 24. 174. 35. 161. 51.
      143. 126. 176. 20. 150. 54. 132. 24. 123. 71. 166. 43. 160. 156.
      193.</_>
    <_>
      108. 35. 156. 19. 132. 119. 129. 69. 121. 20. 23. 11. 129. 109.
      133. 102. 131. 94. 128. 78. 96. 24. 136. 86. 152. 102. 34. 16.
      140. 43.</_>
    <_>
      100. 25. 39. 16. 108. 36. 160. 16. 23. 11. 98. 40. 153. 26. 189.
      6. 146. 14. 118. 51. 141. 44. 32. 24. 147. 35. 125. 20. 109. 18.</_>
    <_>
      156. 19. 131. 102. 114. 36. 103. 26. 61. 16. 32. 14. 133. 83. 56.
      9. 164. 13. 115. 49. 140. 43. 151. 114. 137. 114. 122. 58. 27. 6.</_>
    <_>
      157. 18. 100. 27. 33. 10. 11. 11. 185. 8. 107. 35. 116. 18. 129.
      21. 22. 15. 42. 13. 59. 19. 149. 32. 56. 10. 32. 22. 25. 5.</_>
    <_>
      98. 24. 134. 87. 18. 14. 60. 16. 105. 35. 142. 95. 10. 15. 38. 16.
      79. 12. 150. 83. 172. 12. 164. 77. 172. 75. 133. 95. 86. 21.</_>
    <_>
      132. 85. 151. 100. 120. 44. 33. 21. 7. 17. 127. 100. 112. 34. 124.
      62. 47. 12. 20. 20. 124. 54. 103. 26. 157. 18. 148. 33. 131. 112.</_>
    <_>
      111. 36. 120. 42. 156. 19. 99. 23. 62. 17. 32. 19. 47. 13. 19. 10.
      141. 44. 69. 8. 116. 49. 190. 6. 30. 6. 139. 21. 148. 32.</_>
    <_>
      173. 123. 131. 85. 166. 106. 144. 43. 131. 77. 18. 12. 129. 44.
      112. 36. 58. 15. 134. 111. 156. 20. 137. 91. 102. 24. 154. 80. 42.
      8.</_>
    <_>
      16. 10. 52. 15. 102. 33. 100. 21. 160. 16. 32. 16. 150. 30. 142.
      41. 42. 14. 188. 8. 6. 6. 33. 5. 56. 6. 146. 15. 111. 37.</_>
    <_>
      126. 82. 187. 136. 162. 57. 128. 68. 170. 112. 155. 50. 49. 20.
      151. 29. 43. 9. 148. 44. 121. 42. 122. 89. 99. 25. 163. 68. 174.
      9.</_>
    <_>
      31. 182. 54. 161. 33. 154. 45. 146. 52. 134. 23. 161. 26. 117. 73.
      118. 19. 176. 20. 129. 42. 175. 78. 168. 104. 173. 19. 186. 136.
      183.</_>
    <_>
      45. 16. 147. 69. 162. 106. 9. 11. 47. 26. 165. 86. 139. 94. 171.
      106. 132. 66. 109. 28. 126. 44. 127. 76. 55. 18. 137. 83. 140. 57.</_>
    <_>
      113. 28. 172. 102. 36. 9. 141. 56. 70. 17. 27. 15. 153. 24. 169.
      80. 54. 16. 14. 12. 132. 57. 142. 25. 150. 60. 163. 52. 146. 98.</_>
    <_>
      150. 26. 128. 25. 63. 20. 155. 19. 137. 60. 128. 41. 46. 17. 169.
      14. 26. 7. 82. 21. 29. 16. 120. 30. 50. 7. 133. 32. 15. 16.</_>
    <_>
      17. 12. 123. 35. 167. 32. 29. 17. 170. 95. 56. 18. 138. 89. 133.
      25. 178. 82. 143. 47. 176. 70. 155. 49. 178. 95. 162. 16. 135. 63.</_>
    <_>
      136. 52. 176. 75. 165. 29. 135. 67. 148. 24. 155. 17. 180. 96.
      152. 50. 171. 38. 162. 45. 20. 9. 125. 31. 163. 20. 96. 24. 145.
      55.</_>
    <_>
      173. 37. 135. 45. 147. 54. 27. 13. 136. 56. 156. 16. 132. 68. 143.
      38. 135. 24. 115. 30. 167. 13. 184. 15. 152. 47. 97. 28. 143. 19.</_>
    <_>
      125. 36. 180. 92. 138. 54. 155. 53. 155. 45. 135. 39. 39. 7. 143.
      86. 109. 31. 19. 10. 132. 74. 177. 44. 61. 16. 37. 19. 47. 18.</_>
    <_>
      54. 18. 139. 65. 146. 24. 141. 43. 158. 43. 166. 37. 177. 34. 132.
      71. 66. 18. 153. 16. 111. 29. 24. 9. 132. 40. 181. 52. 169. 14.</_>
    <_>
      172. 32. 182. 82. 141. 54. 192. 89. 128. 30. 170. 75. 14. 13. 168.
      19. 184. 90. 180. 11. 175. 23. 132. 40. 139. 46. 142. 67. 180. 34.</_>
    <_>
      15. 15. 188. 47. 187. 99. 44. 17. 144. 55. 162. 52. 139. 46. 185.
      85. 38. 11. 89. 21. 185. 68. 144. 67. 130. 24. 185. 9. 114. 34.</_>
    <_>
      45. 158. 49. 138. 26. 126. 57. 162. 36. 124. 53. 153. 29. 171. 15.
      132. 33. 190. 17. 168. 60. 123. 18. 121. 38. 116. 86. 170. 133.
      182.</_>
    <_>
      186. 91. 140. 22. 36. 10. 175. 58. 168. 43. 139. 61. 181. 32. 127.
      24. 185. 75. 142. 47. 145. 70. 169. 14. 188. 43. 109. 28. 50. 15.</_>
    <_>
      183. 32. 40. 17. 152. 63. 166. 39. 41. 7. 67. 18. 142. 43. 154.
      55. 176. 37. 58. 8. 108. 27. 174. 13. 151. 17. 170. 48. 32. 15.</_>
    <_>
      33. 14. 150. 50. 14. 15. 145. 37. 51. 17. 109. 27. 183. 79. 73.
      18. 185. 64. 21. 19. 149. 66. 162. 54. 60. 9. 158. 77. 164. 66.</_>
    <_>
      151. 50. 147. 60. 53. 18. 16. 18. 158. 68. 145. 42. 147. 34. 171.
      78. 109. 27. 78. 19. 157. 11. 176. 12. 188. 83. 141. 26. 156. 76.</_>
    <_>
      158. 15. 174. 39. 176. 13. 154. 61. 180. 27. 176. 73. 176. 50. 28.
      17. 154. 69. 147. 17. 152. 52. 164. 73. 112. 27. 144. 26. 162. 23.</_>
    <_>
      181. 12. 154. 55. 187. 85. 154. 16. 188. 29. 148. 43. 180. 54. 58.
      16. 186. 73. 16. 16. 156. 64. 136. 26. 109. 28. 180. 45. 144. 24.</_>
    <_>
      11. 13. 176. 12. 59. 17. 156. 54. 187. 26. 195. 29. 36. 11. 154.
      72. 157. 63. 139. 35. 108. 28. 148. 38. 179. 35. 167. 67. 144. 18.</_>
    <_>
      152. 61. 179. 84. 13. 14. 115. 28. 138. 39. 177. 42. 152. 15. 20.
      8. 147. 74. 160. 24. 172. 15. 161. 68. 187. 84. 179. 24. 33. 18.</_>
    <_>
      151. 69. 153. 39. 173. 43. 145. 44. 168. 17. 171. 53. 151. 58.
      168. 88. 181. 76. 134. 32. 54. 17. 187. 97. 157. 84. 46. 5. 183.
      37.</_>
    <_>
      161. 64. 188. 41. 151. 67. 171. 46. 141. 43. 169. 19. 39. 11. 178.
      42. 133. 32. 172. 59. 148. 54. 62. 17. 148. 28. 156. 87. 150. 20.</_>
    <_>
      132. 151. 148. 130. 165. 181. 145. 172. 149. 155. 165. 146. 129.
      165. 134. 132. 155. 195. 157. 181. 167. 160. 164. 137. 127. 123.
      181. 196. 118. 113.</_>
    <_>
      26. 15. 35. 19. 122. 21. 94. 22. 140. 42. 156. 18. 97. 30. 19. 19.
      113. 35. 12. 13. 190. 6. 152. 27. 171. 11. 59. 18. 28. 23.</_>
    <_>
      157. 174. 185. 182. 180. 157. 189. 190. 172. 189. 175. 177. 149.
      177. 131. 144. 172. 140. 185. 169. 171. 164. 159. 148. 142. 146.
      173. 150. 183. 145.</_>
    <_>
      72. 128. 81. 184. 91. 121. 73. 177. 38. 151. 80. 123. 33. 123. 46.
      181. 48. 152. 48. 127. 138. 93. 71. 164. 61. 159. 42. 169. 21.
      116.</_>
    <_>
      128. 167. 178. 134. 101. 122. 116. 121. 179. 161. 110. 128. 118.
      143. 114. 81. 94. 180. 171. 172. 83. 190. 85. 122. 186. 135. 181.
      150. 157. 175.</_>
    <_>
      51. 167. 94. 119. 91. 110. 49. 175. 20. 169. 89. 126. 159. 123.
      116. 154. 150. 142. 7. 178. 175. 123. 7. 193. 25. 190. 13. 187.
      158. 148.</_>
    <_>
      176. 154. 130. 143. 135. 172. 155. 145. 161. 134. 120. 187. 151.
      124. 141. 125. 111. 191. 155. 113. 185. 149. 138. 196. 151. 177.
      164. 164. 113. 132.</_>
    <_>
      148. 134. 171. 161. 142. 122. 187. 145. 180. 155. 161. 140. 161.
      118. 151. 163. 149. 117. 128. 161. 121. 183. 125. 125. 155. 111.
      160. 156. 111. 190.</_>
    <_>
      160. 131. 145. 162. 131. 131. 155. 112. 155. 141. 135. 117. 124.
      168. 115. 187. 174. 156. 125. 139. 157. 95. 158. 123. 119. 120.
      151. 129. 160. 163.</_>
    <_>
      122. 166. 173. 151. 129. 152. 147. 132. 159. 140. 130. 126. 131.
      162. 140. 124. 151. 142. 110. 137. 159. 155. 184. 140. 110. 152.
      103. 193. 119. 175.</_>
    <_>
      110. 186. 133. 156. 149. 111. 136. 120. 133. 164. 129. 126. 117.
      171. 137. 139. 110. 137. 104. 151. 102. 190. 126. 196. 141. 164.
      149. 150. 121. 149.</_>
    <_>
      123. 171. 120. 158. 132. 154. 104. 189. 149. 147. 130. 140. 130.
      125. 129. 184. 105. 138. 169. 151. 150. 139. 157. 162. 166. 159.
      111. 130. 151. 117.</_>
    <_>
      121. 151. 142. 138. 125. 136. 113. 175. 177. 146. 164. 153. 109.
      183. 153. 160. 143. 153. 125. 196. 153. 142. 98. 136. 150. 134.
      145. 117. 95. 192.</_>
    <_>
      161. 153. 144. 147. 139. 114. 104. 186. 113. 171. 103. 145. 144.
      137. 128. 126. 168. 148. 159. 163. 141. 105. 146. 120. 176. 146.
      106. 130. 121. 196.</_>
    <_>
      144. 149. 105. 177. 138. 126. 156. 162. 111. 156. 112. 138. 139.
      113. 128. 126. 114. 171. 140. 105. 96. 194. 164. 154. 92. 150.
      108. 196. 164. 145.</_>
    <_>
      186. 183. 149. 161. 182. 167. 71. 176. 93. 180. 78. 189. 144. 150.
      185. 148. 165. 148. 124. 171. 188. 139. 178. 183. 158. 165. 171.
      164. 157. 145.</_>
    <_>
      51. 21. 107. 26. 58. 9. 40. 19. 161. 15. 84. 20. 139. 41. 125. 23.
      77. 11. 179. 8. 130. 42. 33. 14. 150. 25. 17. 12. 168. 11.</_>
    <_>
      91. 153. 114. 164. 104. 154. 150. 154. 101. 141. 160. 155. 151.
      164. 106. 176. 140. 142. 126. 151. 116. 125. 107. 130. 92. 190.
      135. 118. 138. 166.</_>
    <_>
      139. 104. 100. 177. 134. 158. 133. 117. 115. 162. 170. 148. 124.
      129. 111. 149. 136. 139. 102. 167. 85. 191. 95. 137. 155. 161. 93.
      185. 106. 196.</_>
    <_>
      124. 130. 111. 155. 87. 148. 114. 171. 99. 152. 155. 161. 128.
      147. 96. 180. 136. 114. 148. 168. 84. 162. 105. 174. 133. 158.
      132. 130. 139. 101.</_>
    <_>
      86. 191. 175. 153. 152. 163. 110. 150. 130. 165. 100. 172. 162.
      159. 134. 119. 110. 196. 78. 196. 111. 187. 146. 175. 127. 129.
      94. 127. 140. 93.</_>
    <_>
      115. 158. 90. 153. 138. 172. 99. 175. 152. 166. 123. 154. 116.
      130. 90. 141. 128. 141. 104. 161. 80. 159. 136. 116. 170. 153.
      137. 105. 156. 156.</_>
    <_>
      110. 150. 134. 116. 90. 146. 115. 131. 162. 156. 131. 148. 81.
      144. 133. 131. 108. 126. 120. 141. 98. 171. 125. 120. 78. 154. 91.
      163. 91. 134.</_>
    <_>
      103. 166. 127. 114. 119. 164. 135. 165. 112. 129. 89. 149. 120.
      144. 91. 176. 144. 155. 170. 150. 73. 196. 96. 144. 77. 138. 84.
      133. 134. 125.</_>
    <_>
      96. 166. 97. 129. 161. 150. 88. 139. 129. 168. 124. 118. 110. 128.
      78. 135. 133. 99. 85. 182. 120. 149. 112. 150. 121. 136. 151. 161.
      77. 154.</_>
    <_>
      87. 181. 119. 170. 183. 149. 181. 163. 188. 182. 173. 177. 146.
      153. 78. 188. 154. 150. 165. 178. 75. 174. 82. 170. 161. 166. 130.
      149. 132. 165.</_>
    <_>
      87. 168. 111. 129. 84. 181. 143. 164. 109. 164. 158. 149. 144.
      149. 128. 107. 66. 196. 135. 159. 168. 148. 84. 132. 152. 155.
      117. 154. 80. 139.</_>
    <_>
      127. 85. 82. 181. 87. 166. 76. 149. 112. 163. 95. 127. 111. 118.
      113. 145. 124. 99. 150. 149. 105. 135. 120. 124. 82. 140. 65. 196.
      74. 181.</_>
    <_>
      78. 169. 110. 136. 99. 164. 109. 119. 73. 150. 69. 141. 150. 151.
      157. 147. 130. 160. 98. 125. 103. 152. 84. 147. 80. 133. 59. 196.
      118. 123.</_>
    <_>
      104. 151. 71. 131. 114. 109. 96. 164. 101. 132. 73. 169. 137. 153.
      106. 140. 115. 160. 125. 166. 131. 159. 113. 100. 147. 147. 56.
      145. 114. 142.</_>
    <_>
      137. 153. 126. 160. 66. 183. 106. 108. 72. 169. 98. 164. 103. 143.
      90. 127. 106. 118. 59. 154. 113. 81. 147. 144. 65. 131. 93. 119.
      136. 161.</_>
    <_>
      57. 138. 132. 149. 56. 151. 47. 167. 91. 152. 93. 126. 97. 144.
      72. 173. 141. 150. 66. 131. 55. 186. 98. 118. 64. 180. 71. 165.
      108. 165.</_>
    <_>
      89. 167. 85. 125. 57. 183. 57. 159. 57. 149. 45. 145. 65. 129. 72.
      157. 106. 163. 68. 181. 76. 175. 129. 154. 100. 111. 72. 147. 41.
      161.</_>
    <_>
      56. 182. 60. 162. 93. 118. 75. 133. 83. 146. 81. 122. 100. 165.
      128. 150. 73. 177. 73. 155. 68. 148. 80. 168. 39. 145. 42. 169.
      97. 128.</_>
    <_>
      61. 177. 122. 156. 49. 177. 79. 126. 97. 166. 49. 136. 82. 165.
      56. 158. 48. 188. 90. 116. 70. 196. 38. 144. 108. 156. 67. 170.
      61. 196.</_>
    <_>
      94. 162. 79. 121. 52. 172. 82. 170. 63. 169. 34. 155. 43. 143. 84.
      147. 68. 127. 115. 156. 72. 155. 57. 132. 66. 189. 48. 133. 88.
      128.</_>
    <_>
      182. 168. 181. 149. 140. 159. 158. 166. 122. 155. 126. 164. 171.
      174. 85. 181. 79. 191. 163. 174. 116. 173. 187. 182. 145. 152.
      190. 137. 71. 193.</_>
    <_>
      41. 131. 59. 141. 77. 124. 44. 175. 101. 160. 39. 139. 54. 159.
      74. 138. 59. 181. 109. 159. 74. 154. 39. 188. 41. 151. 86. 118.
      30. 137.</_>
    <_>
      83. 147. 85. 123. 61. 129. 74. 119. 79. 135. 67. 157. 36. 156. 84.
      110. 49. 179. 47. 132. 48. 166. 26. 154. 25. 170. 24. 145. 39.
      147.</_>
    <_>
      56. 161. 37. 140. 38. 184. 39. 129. 71. 140. 83. 104. 33. 163. 76.
      153. 62. 125. 41. 164. 58. 153. 76. 173. 72. 115. 79. 161. 88.
      168.</_>
    <_>
      87. 165. 44. 175. 65. 154. 35. 132. 43. 156. 57. 175. 57. 129. 46.
      131. 112. 148. 34. 147. 121. 146. 84. 155. 69. 135. 56. 158. 76.
      117.</_>
    <_>
      42. 127. 44. 170. 57. 124. 72. 111. 77. 162. 78. 102. 26. 139. 68.
      134. 98. 159. 44. 141. 79. 130. 63. 162. 44. 178. 122. 142. 74.
      141.</_>
    <_>
      40. 167. 53. 126. 53. 118. 67. 133. 43. 130. 77. 126. 73. 150. 91.
      158. 40. 178. 103. 154. 115. 140. 65. 157. 78. 114. 41. 113. 107.
      144.</_>
    <_>
      71. 109. 53. 129. 51. 165. 46. 136. 87. 155. 38. 178. 45. 149. 22.
      154. 73. 152. 117. 139. 30. 147. 108. 143. 35. 155. 78. 121. 47.
      174.</_>
    <_>
      70. 120. 37. 177. 47. 134. 20. 140. 114. 131. 58. 111. 21. 161.
      95. 146. 25. 122. 53. 152. 69. 128. 72. 81. 48. 115. 43. 163. 30.
      114.</_>
    <_>
      23. 128. 37. 176. 47. 145. 47. 194. 52. 152. 66. 99. 92. 143. 70.
      92. 45. 117. 67. 120. 29. 112. 37. 117. 59. 111. 20. 146. 82. 141.</_>
    <_>
      29. 131. 59. 103. 42. 147. 63. 137. 42. 103. 61. 113. 68. 99. 37.
      164. 85. 146. 73. 106. 19. 131. 65. 128. 35. 182. 41. 176. 34.
      113.</_>
    <_>
      83. 181. 180. 151. 139. 154. 95. 181. 174. 167. 182. 167. 133.
      164. 113. 171. 120. 150. 173. 177. 72. 175. 90. 173. 154. 161.
      108. 179. 185. 144.</_>
    <_>
      68. 111. 72. 90. 68. 130. 74. 147. 92. 136. 48. 102. 60. 97. 40.
      133. 33. 114. 69. 120. 30. 151. 41. 163. 56. 104. 102. 131. 110.
      123.</_>
    <_>
      48. 102. 24. 132. 69. 109. 42. 174. 46. 146. 80. 136. 40. 160. 98.
      129. 27. 124. 31. 108. 17. 121. 97. 120. 73. 95. 55. 194. 45. 196.</_>
    <_>
      61. 100. 61. 129. 42. 127. 49. 109. 104. 117. 56. 192. 78. 126.
      114. 115. 87. 136. 95. 126. 68. 144. 43. 118. 43. 178. 56. 145.
      77. 140.</_>
    <_>
      29. 121. 36. 127. 40. 182. 39. 156. 73. 130. 22. 106. 29. 110. 41.
      101. 55. 95. 67. 78. 63. 121. 18. 129. 82. 134. 65. 132. 16. 120.</_>
    <_>
      68. 68. 40. 107. 71. 84. 40. 177. 51. 114. 52. 125. 40. 154. 47.
      92. 54. 87. 28. 195. 105. 110. 56. 191. 93. 119. 18. 133. 20. 118.</_>
    <_>
      39. 99. 27. 88. 62. 118. 44. 182. 37. 90. 66. 82. 48. 130. 66.
      104. 39. 154. 94. 117. 46. 85. 23. 101. 104. 113. 27. 195. 70.
      117.</_>
    <_>
      39. 104. 52. 84. 43. 90. 38. 135. 100. 108. 51. 125. 63. 125. 55.
      195. 27. 97. 39. 175. 68. 104. 17. 105. 71. 75. 45. 131. 95. 116.</_>
    <_>
      23. 14. 54. 84. 62. 20. 39. 11. 97. 34. 54. 19. 135. 34. 97. 25.
      41. 180. 85. 122. 65. 108. 39. 143. 54. 10. 160. 12. 95. 114.</_>
    <_>
      37. 135. 104. 97. 84. 119. 44. 130. 45. 196. 11. 115. 56. 193. 92.
      113. 101. 106. 38. 147. 46. 181. 39. 176. 29. 129. 78. 125. 21.
      125.</_>
    <_>
      50. 83. 63. 96. 70. 111. 35. 132. 21. 120. 36. 188. 56. 193. 39.
      176. 43. 120. 57. 76. 22. 97. 25. 84. 84. 115. 48. 196. 25. 196.</_>
    <_>
      77. 185. 183. 162. 85. 182. 183. 146. 128. 162. 149. 149. 131.
      150. 176. 169. 173. 178. 137. 158. 67. 181. 75. 173. 141. 145.
      108. 176. 99. 181.</_>
    <_>
      73. 22. 38. 139. 33. 131. 47. 17. 66. 109. 19. 18. 97. 22. 80.
      120. 67. 95. 64. 24. 57. 16. 35. 90. 22. 95. 41. 11. 45. 108.</_>
    <_>
      49. 81. 45. 121. 56. 75. 66. 83. 88. 108. 39. 134. 62. 98. 22. 94.
      50. 89. 32. 79. 107. 92. 49. 102. 41. 175. 42. 111. 20. 105.</_>
    <_>
      52. 100. 32. 123. 30. 80. 40. 134. 48. 77. 31. 90. 73. 114. 105.
      91. 84. 108. 40. 76. 65. 91. 58. 65. 34. 108. 43. 177. 67. 105.</_>
    <_>
      54. 73. 50. 91. 62. 117. 27. 103. 55. 18. 24. 11. 41. 131. 68. 19.
      89. 105. 163. 14. 150. 22. 29. 83. 54. 98. 67. 90. 44. 178.</_>
    <_>
      101. 94. 77. 107. 68. 95. 52. 73. 42. 122. 55. 81. 38. 75. 24. 87.
      42. 175. 55. 188. 30. 101. 19. 96. 61. 102. 44. 95. 92. 100.</_>
    <_>
      66. 108. 36. 98. 49. 111. 61. 71. 41. 174. 55. 82. 50. 71. 38.
      129. 34. 75. 28. 194. 97. 98. 89. 103. 31. 85. 44. 121. 29. 123.</_>
    <_>
      55. 70. 21. 120. 58. 106. 37. 136. 30. 85. 36. 74. 31. 95. 44.
      112. 38. 83. 26. 110. 44. 179. 57. 188. 51. 85. 58. 98. 62. 83.</_>
    <_>
      42. 173. 40. 120. 23. 108. 45. 105. 47. 115. 31. 95. 83. 106. 108.
      84. 49. 91. 96. 95. 67. 90. 50. 194. 65. 196. 68. 115. 66. 104.</_>
    <_>
      53. 69. 54. 78. 64. 82. 41. 131. 28. 78. 61. 94. 45. 121. 41. 103.
      84. 106. 27. 89. 21. 107. 40. 83. 50. 178. 74. 99. 114. 81.</_>
    <_>
      54. 183. 39. 80. 43. 72. 43. 115. 63. 60. 71. 72. 41. 60. 68. 38.
      62. 75. 45. 174. 65. 103. 71. 86. 100. 91. 62. 196. 22. 90.</_>
    <_>
      134. 154. 165. 152. 184. 177. 116. 166. 74. 184. 178. 153. 143.
      152. 92. 182. 126. 163. 70. 195. 189. 189. 66. 175. 112. 159. 125.
      149. 187. 139.</_>
    <_>
      46. 128. 54. 104. 64. 70. 49. 79. 47. 174. 63. 62. 90. 101. 104.
      89. 47. 58. 32. 195. 28. 103. 25. 95. 78. 90. 72. 105. 40. 81.</_>
    <_>
      64. 68. 64. 101. 57. 106. 66. 58. 40. 187. 33. 102. 106. 88. 67.
      196. 66. 188. 51. 176. 69. 84. 37. 73. 73. 51. 53. 115. 59. 196.</_>
    <_>
      54. 176. 66. 67. 41. 91. 57. 109. 46. 98. 78. 97. 68. 81. 69. 194.
      40. 188. 121. 77. 69. 105. 43. 76. 112. 81. 47. 180. 101. 94.</_>
    <_>
      122. 78. 56. 173. 46. 86. 57. 121. 81. 74. 74. 98. 77. 60. 79. 43.
      52. 72. 36. 188. 40. 101. 99. 96. 116. 85. 85. 81. 48. 177.</_>
    <_>
      45. 16. 70. 108. 59. 123. 64. 93. 147. 26. 53. 182. 79. 62. 171.
      10. 86. 36. 49. 78. 92. 25. 82. 97. 115. 30. 53. 24. 64. 14.</_>
    <_>
      61. 68. 124. 38. 105. 28. 60. 91. 90. 22. 60. 175. 111. 34. 22.
      13. 77. 99. 92. 34. 102. 98. 46. 17. 68. 17. 69. 184. 71. 68.</_>
    <_>
      84. 67. 86. 78. 50. 189. 72. 66. 87. 99. 52. 83. 56. 73. 54. 95.
      66. 116. 129. 81. 66. 196. 70. 94. 62. 93. 69. 86. 61. 85.</_>
    <_>
      101. 28. 93. 98. 70. 69. 53. 83. 89. 22. 119. 20. 116. 33. 85. 65.
      65. 15. 63. 179. 72. 108. 58. 23. 45. 20. 110. 20. 63. 95.</_>
    <_>
      98. 27. 101. 81. 68. 71. 43. 16. 92. 98. 72. 20. 13. 18. 87. 62.
      74. 109. 48. 7. 58. 20. 53. 192. 66. 80. 172. 12. 20. 11.</_>
    <_>
      53. 13. 106. 30. 159. 10. 174. 16. 67. 15. 176. 8. 77. 113. 86.
      76. 160. 18. 69. 175. 56. 183. 137. 81. 156. 25. 73. 97. 127. 91.</_>
    <_>
      184. 170. 164. 151. 172. 175. 127. 148. 184. 147. 132. 155. 113.
      170. 187. 136. 186. 179. 142. 153. 62. 180. 162. 160. 126. 161.
      186. 162. 78. 182.</_>
    <_>
      77. 80. 106. 25. 101. 56. 74. 150. 53. 7. 67. 17. 58. 17. 14. 11.
      107. 34. 148. 25. 61. 186. 87. 85. 140. 43. 159. 19. 73. 174.</_>
    <_>
      102. 24. 113. 35. 19. 19. 151. 23. 100. 75. 106. 46. 74. 21. 183.
      8. 48. 12. 84. 109. 68. 12. 98. 64. 75. 75. 109. 98. 79. 82.</_>
    <_>
      63. 16. 163. 20. 109. 96. 73. 180. 22. 18. 41. 15. 66. 184. 99.
      68. 75. 27. 79. 18. 155. 14. 88. 21. 86. 111. 83. 70. 115. 31.</_>
    <_>
      47. 16. 69. 22. 86. 128. 110. 96. 106. 83. 80. 84. 104. 63. 165.
      13. 149. 23. 108. 28. 72. 14. 89. 22. 88. 117. 101. 102. 17. 15.</_>
    <_>
      52. 18. 83. 14. 69. 185. 119. 29. 81. 23. 98. 77. 173. 10. 53. 10.
      108. 98. 117. 39. 103. 27. 142. 89. 125. 39. 78. 174. 152. 25.</_>
    <_>
      79. 87. 77. 19. 165. 15. 65. 189. 104. 73. 123. 33. 88. 22. 106.
      83. 115. 28. 52. 13. 103. 23. 104. 92. 117. 98. 94. 68. 59. 17.</_>
    <_>
      79. 23. 125. 33. 14. 13. 98. 69. 90. 91. 99. 30. 33. 17. 56. 16.
      90. 25. 83. 80. 151. 21. 93. 62. 113. 79. 113. 59. 115. 93.</_>
    <_>
      103. 81. 58. 9. 120. 23. 97. 24. 110. 90. 77. 21. 142. 95. 124.
      41. 147. 26. 82. 179. 42. 11. 56. 21. 91. 62. 118. 32. 143. 42.</_>
    <_>
      124. 40. 144. 33. 110. 68. 115. 90. 51. 17. 139. 42. 85. 176. 33.
      14. 86. 80. 84. 21. 116. 58. 71. 189. 72. 22. 179. 7. 108. 26.</_>
    <_>
      105. 96. 97. 135. 103. 68. 91. 73. 127. 71. 109. 26. 56. 18. 117.
      59. 128. 79. 125. 33. 119. 92. 101. 89. 120. 50. 110. 49. 109. 58.</_>
    <_>
      68. 189. 149. 148. 65. 178. 171. 152. 133. 153. 183. 172. 175.
      167. 77. 183. 160. 168. 140. 163. 182. 147. 180. 183. 121. 160.
      105. 175. 168. 178.</_>
    <_>
      84. 179. 135. 91. 115. 85. 141. 29. 56. 19. 121. 33. 179. 9. 26.
      17. 57. 8. 139. 20. 149. 25. 160. 80. 113. 61. 96. 192. 68. 187.</_>
    <_>
      91. 173. 83. 180. 118. 57. 96. 158. 130. 71. 128. 90. 28. 14. 53.
      17. 90. 195. 122. 35. 153. 25. 160. 15. 145. 16. 109. 104. 115.
      31.</_>
    <_>
      45. 10. 136. 26. 51. 22. 119. 94. 118. 86. 96. 89. 68. 11. 31. 9.
      83. 17. 119. 65. 102. 22. 162. 80. 112. 32. 136. 34. 125. 41.</_>
    <_>
      132. 90. 97. 28. 107. 79. 48. 13. 102. 19. 73. 24. 133. 66. 83.
      14. 56. 23. 5. 8. 114. 96. 120. 32. 107. 89. 94. 176. 126. 54.</_>
    <_>
      78. 190. 127. 58. 51. 11. 127. 31. 65. 19. 95. 171. 184. 8. 129.
      85. 128. 22. 148. 24. 109. 77. 174. 80. 106. 141. 61. 26. 75. 174.</_>
    <_>
      34. 18. 110. 28. 116. 71. 131. 48. 151. 92. 138. 85. 141. 60. 62.
      17. 18. 17. 129. 23. 120. 29. 98. 175. 119. 55. 33. 6. 113. 192.</_>
    <_>
      159. 89. 98. 26. 127. 83. 137. 32. 116. 125. 123. 74. 79. 22. 169.
      84. 119. 29. 137. 50. 180. 76. 147. 28. 155. 19. 182. 7. 97. 178.</_>
    <_>
      133. 89. 122. 96. 144. 89. 120. 75. 144. 69. 95. 180. 110. 138.
      98. 192. 81. 187. 109. 84. 109. 151. 158. 82. 130. 66. 140. 76.
      103. 169.</_>
    <_>
      140. 23. 146. 29. 170. 81. 135. 44. 154. 22. 68. 19. 141. 83. 108.
      30. 148. 61. 50. 16. 145. 42. 93. 24. 120. 66. 114. 21. 161. 13.</_>
    <_>
      21. 13. 103. 26. 126. 22. 171. 11. 123. 36. 36. 14. 154. 16. 69.
      16. 132. 39. 150. 25. 37. 22. 56. 19. 162. 16. 143. 39. 86. 22.</_>
    <_>
      183. 170. 183. 152. 181. 161. 157. 165. 155. 174. 176. 147. 185.
      141. 172. 179. 185. 178. 141. 156. 161. 181. 170. 171. 149. 162.
      163. 159. 174. 157.</_>
    <_>
      169. 174. 181. 129. 156. 166. 173. 163. 181. 156. 128. 162. 154.
      183. 117. 126. 181. 182. 134. 190. 189. 169. 148. 161. 117. 117.
      180. 169. 122. 153.</_></support_vectors>
  <decision_functions>
    <_>
      <sv_count>200</sv_count>
      <rho>0.</rho>
      <alpha>
        1.0000000000000001e-01 1.0000000000000001e-01
        1.0000000000000001e-01 1.0000000000000001e-01
        1.0000000000000001e-01 1.0000000000000001e-01
        1.0000000000000001e-01 1.0000000000000001e-01
        1.0000000000000001e-01 1.0000000000000001e-01
        1.0000000000000001e-01 1.0000000000000001e-01
        1.0000000000000001e-01 1.0000000000000001e-01
        1.0000000000000001e-01 1.0000000000000001e-01
        1.0000000000000001e-01 1.0000000000000001e-01
        1.0000000000000001e-01 1.0000000000000001e-01
        1.0000000000000001e-01 1.0000000000000001e-01
        1.0000000000000001e-01 1.0000000000000001e-01
        1.0000000000000001e-01 1.0000000000000001e-01
        1.0000000000000001e-01 1.0000000000000001e-01
        1.0000000000000001e-01 1.0000000000000001e-01
        1.0000000000000001e-01 1.0000000000000001e-01
        1.0000000000000001e-01 1.0000000000000001e-01
        1.0000000000000001e-01 1.0000000000000001e-01
        1.0000000000000001e-01 1.0000000000000001e-01
        1.0000000000000001e-01 1.0000000000000001e-01
        1.0000000000000001e-01 1.0000000000000001e-01
        1.0000000000000001e-01 1.0000000000000001e-01
        1.0000000000000001e-01 1.0000000000000001e-01
        1.0000000000000001e-01 1.0000000000000001e-01
        1.0000000000000001e-01 1.0000000000000001e-01
        1.0000000000000001e-01 1.0000000000000001e-01
        1.0000000000000001e-01 1.0000000000000001e-01
        1.0000000000000001e-01 1.0000000000000001e-01
        1.0000000000000001e-01 1.0000000000000001e-01
        1.0000000000000001e-01 1.0000000000000001e-01
        1.0000000000000001e-01 1.0000000000000001e-01
        1.0000000000000001e-01 1.0000000000000001e-01
        1.0000000000000001e-01 1.0000000000000001e-01
        1.0000000000000001e-01 1.0000000000000001e-01
        1.0000000000000001e-01 1.0000000000000001e-01
        1.0000000000000001e-01 1.0000000000000001e-01
        1.0000000000000001e-01 1.0000000000000001e-01
        1.0000000000000001e-01 1.0000000000000001e-01
        1.0000000000000001e-01 1.0000000000000001e-01
        1.0000000000000001e-01 1.0000000000000001e-01
        1.0000000000000001e-01 1.0000000000000001e-01
        1.0000000000000001e-01 1.0000000000000001e-01
        1.0000000000000001e-01 1.0000000000000001e-01
        1.0000000000000001e-01 1.0000000000000001e-01
        1.0000000000000001e-01 1.0000000000000001e-01
        1.0000000000000001e-01 1.0000000000000001e-01
        1.0000000000000001e-01 1.0000000000000001e-01
        1.0000000000000001e-01 1.0000000000000001e-01
        1.0000000000000001e-01 1.0000000000000001e-01
        1.0000000000000001e-01 1.0000000000000001e-01
        -1.0000000000000001e-01 -1.0000000000000001e-01
        -1.0000000000000001e-01 -1.0000000000000001e-01
        -1.0000000000000001e-01 -1.0000000000000001e-01
        -1.0000000000000001e-01 -1.0000000000000001e-01
        -1.0000000000000001e-01 -1.0000000000000001e-01
        -1.0000000000000001e-01 -1.0000000000000001e-01
        -1.0000000000000001e-01 -1.0000000000000001e-01
        -1.0000000000000001e-01 -1.0000000000000001e-01
        -1.0000000000000001e-01 -1.0000000000000001e-01
        -1.0000000000000001e-01 -1.0000000000000001e-01
        -1.0000000000000001e-01 -1.0000000000000001e-01
        -1.0000000000000001e-01 -1.0000000000000001e-01
        -1.0000000000000001e-01 -1.0000000000000001e-01
        -1.0000000000000001e-01 -1.0000000000000001e-01
        -1.0000000000000001e-01 -1.0000000000000001e-01
        -1.0000000000000001e-01 -1.0000000000000001e-01
        -1.0000000000000001e-01 -1.0000000000000001e-01
        -1.0000000000000001e-01 -1.0000000000000001e-01
        -1.0000000000000001e-01 -1.0000000000000001e-01
        -1.0000000000000001e-01 -1.0000000000000001e-01
        -1.0000000000000001e-01 -1.0000000000000001e-01
        -1.0000000000000001e-01 -1.0000000000000001e-01
        -1.0000000000000001e-01 -1.0000000000000001e-01
        -1.0000000000000001e-01 -1.0000000000000001e-01
        -1.0000000000000001e-01 -1.0000000000000001e-01
        -1.0000000000000001e-01 -1.0000000000000001e-01
        -1.0000000000000001e-01 -1.0000000000000001e-01
        -1.0000000000000001e-01 -1.0000000000000001e-01
        -1.0000000000000001e-01 -1.0000000000000001e-01
        -1.0000000000000001e-01 -1.0000000000000001e-01
        -1.0000000000000001e-01 -1.0000000000000001e-01
        -1.0000000000000001e-01 -1.0000000000000001e-01
        -1.0000000000000001e-01 -1.0000000000000001e-01
        -1.0000000000000001e-01 -1.0000000000000001e-01
        -1.0000000000000001e-01 -1.0000000000000001e-01
        -1.0000000000000001e-01 -1.0000000000000001e-01
        -1.0000000000000001e-01 -1.0000000000000001e-01
        -1.0000000000000001e-01 -1.0000000000000001e-01
        -1.0000000000000001e-01 -1.0000000000000001e-01
        -1.0000000000000001e-01 -1.0000000000000001e-01
        -1.0000000000000001e-01 -1.0000000000000001e-01
        -1.0000000000000001e-01 -1.0000000000000001e-01
        -1.0000000000000001e-01 -1.0000000000000001e-01
        -1.0000000000000001e-01 -1.0000000000000001e-01
        -1.0000000000000001e-01 -1.0000000000000001e-01
        -1.0000000000000001e-01 -1.0000000000000001e-01
        -1.0000000000000001e-01 -1.0000000000000001e-01
        -1.0000000000000001e-01 -1.0000000000000001e-01
        -1.0000000000000001e-01 -1.0000000000000001e-01
        -1.0000000000000001e-01 -1.0000000000000001e-01</alpha>
      <index>
        0 1 2 3 4 5 6 7 8 9 10 11 12 13 14 15 16 17 18 19 20 21 22 23 24
        25 26 27 28 29 30 31 32 33 34 35 36 37 38 39 40 41 42 43 44 45
        46 47 48 49 50 51 52 53 54 55 56 57 58 59 60 61 62 63 64 65 66
        67 68 69 70 71 72 73 74 75 76 77 78 79 80 81 82 83 84 85 86 87
        88 89 90 91 92 93 94 95 96 97 98 100 102 103 104 105 106 107 108
        109 110 111 112 113 114 115 116 117 118 119 120 121 122 123 124
        125 126 127 128 129 130 131 132 133 134 135 136 137 138 139 140
        141 142 143 144 145 146 147 148 149 150 151 152 153 154 155 156
        157 158 159 160 161 162 163 164 165 166 167 168 169 170 171 172
        173 174 175 176 177 178 179 180 181 182 183 184 185 186 187 188
        189 190 191 192 193 194 195 196 197 198 199 200 202</index></_>
    <_>
      <sv_count>200</sv_count>
      <rho>0.</rho>
      <alpha>
        1.0000000000000001e-01 1.0000000000000001e-01
        1.0000000000000001e-01 1.0000000000000001e-01
        1.0000000000000001e-01 1.0000000000000001e-01
        1.0000000000000001e-01 1.0000000000000001e-01
        1.0000000000000001e-01 1.0000000000000001e-01
        1.0000000000000001e-01 1.0000000000000001e-01
        1.0000000000000001e-01 1.0000000000000001e-01
        1.0000000000000001e-01 1.0000000000000001e-01
        1.0000000000000001e-01 1.0000000000000001e-01
        1.0000000000000001e-01 1.0000000000000001e-01
        1.0000000000000001e-01 1.0000000000000001e-01
        1.0000000000000001e-01 1.0000000000000001e-01
        1.0000000000000001e-01 1.0000000000000001e-01
        1.0000000000000001e-01 1.0000000000000001e-01
        1.0000000000000001e-01 1.0000000000000001e-01
        1.0000000000000001e-01 1.0000000000000001e-01
        1.0000000000000001e-01 1.0000000000000001e-01
        1.0000000000000001e-01 1.0000000000000001e-01
        1.0000000000000001e-01 1.0000000000000001e-01
        1.0000000000000001e-01 1.0000000000000001e-01
        1.0000000000000001e-01 1.0000000000000001e-01
        1.0000000000000001e-01 1.0000000000000001e-01
        1.0000000000000001e-01 1.0000000000000001e-01
        1.0000000000000001e-01 1.0000000000000001e-01
        1.0000000000000001e-01 1.0000000000000001e-01
        1.0000000000000001e-01 1.0000000000000001e-01
        1.0000000000000001e-01 1.0000000000000001e-01
        1.0000000000000001e-01 1.0000000000000001e-01
        1.0000000000000001e-01 1.0000000000000001e-01
        1.0000000000000001e-01 1.0000000000000001e-01
        1.0000000000000001e-01 1.0000000000000001e-01
        1.0000000000000001e-01 1.0000000000000001e-01
        1.0000000000000001e-01 1.0000000000000001e-01
        1.0000000000000001e-01 1.0000000000000001e-01
        1.0000000000000001e-01 1.0000000000000001e-01
        1.0000000000000001e-01 1.0000000000000001e-01
        1.0000000000000001e-01 1.0000000000000001e-01
        1.0000000000000001e-01 1.0000000000000001e-01
        1.0000000000000001e-01 1.0000000000000001e-01
        1.0000000000000001e-01 1.0000000000000001e-01
        1.0000000000000001e-01 1.0000000000000001e-01
        1.0000000000000001e-01 1.0000000000000001e-01
        1.0000000000000001e-01 1.0000000000000001e-01
        1.0000000000000001e-01 1.0000000000000001e-01
        1.0000000000000001e-01 1.0000000000000001e-01
        1.0000000000000001e-01 1.0000000000000001e-01
        1.0000000000000001e-01 1.0000000000000001e-01
        1.0000000000000001e-01 1.0000000000000001e-01
        1.0000000000000001e-01 1.0000000000000001e-01
        1.0000000000000001e-01 1.0000000000000001e-01
        -1.0000000000000001e-01 -1.0000000000000001e-01
        -1.0000000000000001e-01 -1.0000000000000001e-01
        -1.0000000000000001e-01 -1.0000000000000001e-01
        -1.0000000000000001e-01 -1.0000000000000001e-01
        -1.0000000000000001e-01 -1.0000000000000001e-01
        -1.0000000000000001e-01 -1.0000000000000001e-01
        -1.0000000000000001e-01 -1.0000000000000001e-01
        -1.0000000000000001e-01 -1.0000000000000001e-01
        -1.0000000000000001e-01 -1.0000000000000001e-01
        -1.0000000000000001e-01 -1.0000000000000001e-01
        -1.0000000000000001e-01 -1.0000000000000001e-01
        -1.0000000000000001e-01 -1.0000000000000001e-01
        -1.0000000000000001e-01 -1.0000000000000001e-01
        -1.0000000000000001e-01 -1.0000000000000001e-01
        -1.0000000000000001e-01 -1.0000000000000001e-01
        -1.0000000000000001e-01 -1.0000000000000001e-01
        -1.0000000000000001e-01 -1.0000000000000001e-01
        -1.0000000000000001e-01 -1.0000000000000001e-01
        -1.0000000000000001e-01 -1.0000000000000001e-01
        -1.0000000000000001e-01 -1.0000000000000001e-01
        -1.0000000000000001e-01 -1.0000000000000001e-01
        -1.0000000000000001e-01 -1.0000000000000001e-01
        -1.0000000000000001e-01 -1.0000000000000001e-01
        -1.0000000000000001e-01 -1.0000000000000001e-01
        -1.0000000000000001e-01 -1.0000000000000001e-01
        -1.0000000000000001e-01 -1.0000000000000001e-01
        -1.0000000000000001e-01 -1.0000000000000001e-01
        -1.0000000000000001e-01 -1.0000000000000001e-01
        -1.0000000000000001e-01 -1.0000000000000001e-01
        -1.0000000000000001e-01 -1.0000000000000001e-01
        -1.0000000000000001e-01 -1.0000000000000001e-01
        -1.0000000000000001e-01 -1.0000000000000001e-01
        -1.0000000000000001e-01 -1.0000000000000001e-01
        -1.0000000000000001e-01 -1.0000000000000001e-01
        -1.0000000000000001e-01 -1.0000000000000001e-01
        -1.0000000000000001e-01 -1.0000000000000001e-01
        -1.0000000000000001e-01 -1.0000000000000001e-01
        -1.0000000000000001e-01 -1.0000000000000001e-01
        -1.0000000000000001e-01 -1.0000000000000001e-01
        -1.0000000000000001e-01 -1.0000000000000001e-01
        -1.0000000000000001e-01 -1.0000000000000001e-01
        -1.0000000000000001e-01 -1.0000000000000001e-01
        -1.0000000000000001e-01 -1.0000000000000001e-01
        -1.0000000000000001e-01 -1.0000000000000001e-01
        -1.0000000000000001e-01 -1.0000000000000001e-01
        -1.0000000000000001e-01 -1.0000000000000001e-01
        -1.0000000000000001e-01 -1.0000000000000001e-01
        -1.0000000000000001e-01 -1.0000000000000001e-01
        -1.0000000000000001e-01 -1.0000000000000001e-01
        -1.0000000000000001e-01 -1.0000000000000001e-01</alpha>
      <index>
        0 1 2 3 4 5 6 7 8 9 10 11 12 13 14 15 16 17 18 19 20 21 22 23 24
        25 26 27 28 29 30 31 32 33 34 35 36 37 38 39 40 41 42 43 44 45
        46 47 48 49 50 51 52 53 54 55 56 57 58 59 60 61 62 63 64 65 66
        67 68 69 70 71 72 73 74 75 76 77 78 79 80 81 82 83 84 85 86 87
        88 89 90 91 92 93 94 95 96 97 99 101 203 204 205 206 207 208 209
        210 211 212 213 214 215 216 217 218 219 220 221 222 223 224 225
        226 227 228 229 230 231 232 233 234 235 236 237 238 239 240 241
        242 243 244 245 246 247 248 249 250 251 252 253 254 255 256 257
        258 259 260 261 262 263 264 265 266 267 268 269 270 271 272 273
        274 275 276 277 278 279 280 281 282 283 284 285 286 287 288 289
        290 291 292 293 294 295 296 297 298 299 300 301 302</index></_>
    <_>
      <sv_count>200</sv_count>
      <rho>0.</rho>
      <alpha>
        1.0000000000000001e-01 1.0000000000000001e-01
        1.0000000000000001e-01 1.0000000000000001e-01
        1.0000000000000001e-01 1.0000000000000001e-01
        1.0000000000000001e-01 1.0000000000000001e-01
        1.0000000000000001e-01 1.0000000000000001e-01
        1.0000000000000001e-01 1.0000000000000001e-01
        1.0000000000000001e-01 1.0000000000000001e-01
        1.0000000000000001e-01 1.0000000000000001e-01
        1.0000000000000001e-01 1.0000000000000001e-01
        1.0000000000000001e-01 1.0000000000000001e-01
        1.0000000000000001e-01 1.0000000000000001e-01
        1.0000000000000001e-01 1.0000000000000001e-01
        1.0000000000000001e-01 1.0000000000000001e-01
        1.0000000000000001e-01 1.0000000000000001e-01
        1.0000000000000001e-01 1.0000000000000001e-01
        1.0000000000000001e-01 1.0000000000000001e-01
        1.0000000000000001e-01 1.0000000000000001e-01
        1.0000000000000001e-01 1.0000000000000001e-01
        1.0000000000000001e-01 1.0000000000000001e-01
        1.0000000000000001e-01 1.0000000000000001e-01
        1.0000000000000001e-01 1.0000000000000001e-01
        1.0000000000000001e-01 1.0000000000000001e-01
        1.0000000000000001e-01 1.0000000000000001e-01
        1.0000000000000001e-01 1.0000000000000001e-01
        1.0000000000000001e-01 1.0000000000000001e-01
        1.0000000000000001e-01 1.0000000000000001e-01
        1.0000000000000001e-01 1.0000000000000001e-01
        1.0000000000000001e-01 1.0000000000000001e-01
        1.0000000000000001e-01 1.0000000000000001e-01
        1.0000000000000001e-01 1.0000000000000001e-01
        1.0000000000000001e-01 1.0000000000000001e-01
        1.0000000000000001e-01 1.0000000000000001e-01
        1.0000000000000001e-01 1.0000000000000001e-01
        1.0000000000000001e-01 1.0000000000000001e-01
        1.0000000000000001e-01 1.0000000000000001e-01
        1.0000000000000001e-01 1.0000000000000001e-01
        1.0000000000000001e-01 1.0000000000000001e-01
        1.0000000000000001e-01 1.0000000000000001e-01
        1.0000000000000001e-01 1.0000000000000001e-01
        1.0000000000000001e-01 1.0000000000000001e-01
        1.0000000000000001e-01 1.0000000000000001e-01
        1.0000000000000001e-01 1.0000000000000001e-01
        1.0000000000000001e-01 1.0000000000000001e-01
        1.0000000000000001e-01 1.0000000000000001e-01
        1.0000000000000001e-01 1.0000000000000001e-01
        1.0000000000000001e-01 1.0000000000000001e-01
        1.0000000000000001e-01 1.0000000000000001e-01
        1.0000000000000001e-01 1.0000000000000001e-01
        1.0000000000000001e-01 1.0000000000000001e-01
        1.0000000000000001e-01 1.0000000000000001e-01
        -1.0000000000000001e-01 -1.0000000000000001e-01
        -1.0000000000000001e-01 -1.0000000000000001e-01
        -1.0000000000000001e-01 -1.0000000000000001e-01
        -1.0000000000000001e-01 -1.0000000000000001e-01
        -1.0000000000000001e-01 -1.0000000000000001e-01
        -1.0000000000000001e-01 -1.0000000000000001e-01
        -1.0000000000000001e-01 -1.0000000000000001e-01
        -1.0000000000000001e-01 -1.0000000000000001e-01
        -1.0000000000000001e-01 -1.0000000000000001e-01
        -1.0000000000000001e-01 -1.0000000000000001e-01
        -1.0000000000000001e-01 -1.0000000000000001e-01
        -1.0000000000000001e-01 -1.0000000000000001e-01
        -1.0000000000000001e-01 -1.0000000000000001e-01
        -1.0000000000000001e-01 -1.0000000000000001e-01
        -1.0000000000000001e-01 -1.0000000000000001e-01
        -1.0000000000000001e-01 -1.0000000000000001e-01
        -1.0000000000000001e-01 -1.0000000000000001e-01
        -1.0000000000000001e-01 -1.0000000000000001e-01
        -1.0000000000000001e-01 -1.0000000000000001e-01
        -1.0000000000000001e-01 -1.0000000000000001e-01
        -1.0000000000000001e-01 -1.0000000000000001e-01
        -1.0000000000000001e-01 -1.0000000000000001e-01
        -1.0000000000000001e-01 -1.0000000000000001e-01
        -1.0000000000000001e-01 -1.0000000000000001e-01
        -1.0000000000000001e-01 -1.0000000000000001e-01
        -1.0000000000000001e-01 -1.0000000000000001e-01
        -1.0000000000000001e-01 -1.0000000000000001e-01
        -1.0000000000000001e-01 -1.0000000000000001e-01
        -1.0000000000000001e-01 -1.0000000000000001e-01
        -1.0000000000000001e-01 -1.0000000000000001e-01
        -1.0000000000000001e-01 -1.0000000000000001e-01
        -1.0000000000000001e-01 -1.0000000000000001e-01
        -1.0000000000000001e-01 -1.0000000000000001e-01
        -1.0000000000000001e-01 -1.0000000000000001e-01
        -1.0000000000000001e-01 -1.0000000000000001e-01
        -1.0000000000000001e-01 -1.0000000000000001e-01
        -1.0000000000000001e-01 -1.0000000000000001e-01
        -1.0000000000000001e-01 -1.0000000000000001e-01
        -1.0000000000000001e-01 -1.0000000000000001e-01
        -1.0000000000000001e-01 -1.0000000000000001e-01
        -1.0000000000000001e-01 -1.0000000000000001e-01
        -1.0000000000000001e-01 -1.0000000000000001e-01
        -1.0000000000000001e-01 -1.0000000000000001e-01
        -1.0000000000000001e-01 -1.0000000000000001e-01
        -1.0000000000000001e-01 -1.0000000000000001e-01
        -1.0000000000000001e-01 -1.0000000000000001e-01
        -1.0000000000000001e-01 -1.0000000000000001e-01
        -1.0000000000000001e-01 -1.0000000000000001e-01
        -1.0000000000000001e-01 -1.0000000000000001e-01
        -1.0000000000000001e-01 -1.0000000000000001e-01</alpha>
      <index>
        102 103 104 105 106 107 108 109 110 111 112 113 114 115 116 117
        118 119 120 121 122 123 124 125 126 127 128 129 130 131 132 133
        134 135 136 137 138 139 140 141 142 143 144 145 146 147 148 149
        150 151 152 153 154 155 156 157 158 159 160 161 162 163 164 165
        166 167 168 169 170 171 172 173 174 175 176 177 178 179 180 181
        182 183 184 185 186 187 188 189 190 191 192 193 194 195 196 197
        198 199 200 201 203 204 205 206 207 208 209 210 211 212 213 214
        215 216 217 218 219 220 221 222 223 224 225 226 227 228 229 230
        231 232 233 234 235 236 237 238 239 240 241 242 243 244 245 246
        247 248 249 250 251 252 253 254 255 256 257 258 259 260 261 262
        263 264 265 266 267 268 269 270 271 272 273 274 275 276 277 278
        279 280 281 282 283 284 285 286 287 288 289 290 291 292 293 294
        295 296 297 298 299 300 303 304</index></_></decision_functions></opencv_ml_svm>
</opencv_storage>
