<?xml version="1.0"?>
<opencv_storage>
<opencv_ml_svm>
  <format>3</format>
  <svmType>C_SVC</svmType>
  <kernel>
    <type>LINEAR</type></kernel>
  <C>1.0000000000000001e-01</C>
  <term_criteria><iterations>100</iterations></term_criteria>
  <var_count>30</var_count>
  <class_count>24</class_count>
  <class_labels type_id="opencv-matrix">
    <rows>24</rows>
    <cols>1</cols>
    <dt>i</dt>
    <data>
      1 2 3 4 5 6 7 8 9 11 12 13 14 15 16 17 18 19 20 21 22 23 24 25</data></class_labels>
  <sv_total>276</sv_total>
  <support_vectors>
    <_>
      2.82942492e-04 9.33670439e-04 -7.44362012e-04 -3.83163150e-03
      -2.75086495e-03 1.36264355e-03 -5.10579674e-03 9.68873617e-04
      7.27341883e-03 -1.31059589e-03 2.16118712e-03 -1.35681854e-04
      1.28620141e-03 -1.16505078e-03 -7.40591204e-04 1.28784031e-03
      5.12670784e-04 1.06436732e-04 -1.08957593e-03 -2.02736352e-04
      6.81917043e-03 5.21690527e-04 4.15539788e-03 -3.40310927e-03
      -2.82205478e-03 1.83618049e-05 3.37087375e-04 -1.90550077e-03
      2.46653100e-03 -8.36598338e-04</_>
    <_>
      2.39595119e-03 2.16775923e-03 -2.42820894e-03 8.09987658e-04
      -2.89379386e-03 -6.97447569e-04 -4.81859874e-03 -2.49110768e-03
      -3.80425598e-03 1.13935338e-03 -1.20348216e-03 2.11197790e-03
      7.30669498e-03 2.23201350e-03 -3.02678702e-04 1.35942583e-03
      -7.32784392e-03 -4.07319632e-04 -9.23831431e-06 5.85442549e-03
      -1.98385445e-03 -8.91218253e-04 -7.91865750e-04 1.28907908e-03
      -5.37112282e-05 5.86275477e-04 -2.06191675e-03 -9.55200347e-04
      -2.17410410e-03 4.55889938e-04</_>
    <_>
      1.39225775e-03 1.52653572e-03 -5.25121158e-03 6.66422886e-04
      -6.06831210e-03 -2.85173859e-03 -1.14897802e-03 -1.06145174e-03
      -7.08463485e-04 -2.37726024e-03 8.66576680e-04 4.21730714e-04
      4.73503675e-03 6.89584820e-04 2.78699561e-03 1.33453240e-03
      -2.22232030e-03 7.34266709e-04 -2.15881667e-03 3.07766977e-03
      -9.23335174e-05 -3.77191871e-04 -3.97062395e-03 1.62014004e-03
      -4.98890830e-03 -1.00038724e-03 3.08424293e-04 -1.92871972e-04
      -2.61842343e-03 6.85291830e-04</_>
    <_>
      -6.09973492e-03 2.53134593e-03 -4.72899480e-03 4.79644630e-03
      -2.73828884e-03 -3.81551846e-03 2.42479355e-03 2.16422300e-03
      8.93442833e-04 2.52553541e-03 4.06354759e-03 6.50912232e-04
      3.36291199e-03 -2.67251208e-03 1.65887619e-03 1.02810771e-03
      4.03361535e-03 1.24756072e-03 -2.19208770e-03 -5.56148763e-04
      -5.03456034e-03 -1.11637055e-03 -7.23024271e-03 1.09172589e-03
      -5.34530217e-03 -1.10805267e-03 -1.69821596e-03 -3.13420693e-04
      9.19328420e-04 -2.99738999e-03</_>
    <_>
      2.17517419e-03 -6.69437519e-04 3.92923597e-03 6.06495980e-03
      -7.90782087e-03 -1.08884089e-03 -2.68222881e-03 1.24548643e-03
      -4.40310268e-03 -2.44625215e-03 3.89622524e-03 -1.51778175e-03
      4.92852321e-03 -2.34015926e-04 9.26191628e-04 4.86488547e-03
      -6.26740232e-03 -1.34811515e-03 -3.15320533e-04 3.97976022e-03
      5.92846097e-03 -2.10087816e-03 -7.18213478e-03 -1.42115448e-03
      -3.61746852e-03 1.64003717e-03 -5.06672496e-03 1.94028878e-04
      3.43978609e-04 -3.41264042e-03</_>
    <_>
      1.10490608e-03 -4.26022522e-03 3.56385345e-03 -2.41527923e-05
      -5.78760076e-03 -3.83181311e-03 -1.62903115e-03 1.86631776e-04
      -2.61044456e-03 -9.42296407e-04 2.74101761e-03 4.06028965e-04
      8.46342463e-03 1.42932625e-03 3.21416277e-03 9.86705068e-04
      -4.21420066e-03 -1.17684039e-03 -6.13877899e-04 3.80799582e-04
      4.60266648e-03 -2.01429613e-03 1.06876146e-03 -4.20368649e-03
      2.35070824e-03 2.59653229e-04 1.45246077e-03 -2.51728087e-03
      -1.05093280e-03 -2.53227353e-03</_>
    <_>
      -2.41410010e-03 1.72219507e-03 -9.11357114e-04 4.25551413e-03
      -3.62632377e-03 -6.21816202e-04 9.23373387e-04 -3.37482663e-03
      -4.53166384e-03 -8.73613637e-04 -5.14394278e-03 -2.89942813e-03
      4.32489347e-03 9.21656465e-05 3.47378198e-03 -1.26074912e-04
      -3.13565804e-04 -4.04330809e-03 6.98906253e-04 -4.63895639e-03
      -5.36685856e-03 -4.61769843e-04 -1.67741452e-03 -2.02044868e-03
      -6.02840958e-03 8.22747010e-04 2.06598057e-03 2.40236800e-03
      2.93497788e-03 6.85470994e-04</_>
    <_>
      4.92716953e-03 -1.13259972e-04 1.87108258e-03 1.26693863e-03
      -2.37573660e-03 -4.72605578e-04 4.77037043e-04 1.17327715e-03
      -1.16715638e-03 -2.20285947e-04 6.12405594e-03 3.82144717e-05
      4.65525576e-04 -1.17608870e-03 8.14791361e-04 -1.55938309e-04
      -1.50609377e-03 -2.36551929e-03 6.28662528e-03 4.31665219e-03
      -3.13848199e-04 -2.09109648e-03 2.94915139e-04 3.28373467e-03
      2.78772460e-03 1.83828338e-03 -8.24369781e-04 1.78373232e-03
      2.27293838e-03 1.86583796e-03</_>
    <_>
      -3.09858425e-03 -2.37231012e-04 -3.47779528e-03 -1.67058824e-04
      -4.76166513e-03 -2.91959522e-03 -2.57304008e-03 6.24677399e-04
      3.44424072e-04 -1.17274851e-03 1.43768115e-03 -2.15358590e-03
      5.73912589e-03 -2.92644429e-04 1.20729506e-04 2.18015257e-03
      8.15681240e-04 -5.73504018e-04 1.19159732e-03 -2.32613002e-05
      -3.69781908e-03 1.75461071e-04 2.57493206e-03 1.09327841e-03
      -5.17688366e-03 -3.65022221e-04 -2.06874101e-03 1.80251757e-03
      -8.16704356e-04 -1.30820600e-03</_>
    <_>
      -3.93845188e-03 1.33023434e-03 3.24086845e-03 1.67923700e-03
      -2.96802260e-03 -6.51110138e-04 -8.76066973e-04 1.53355743e-03
      -5.12861134e-03 6.62110746e-04 2.34218338e-03 3.18264618e-04
      -3.86924087e-03 -1.54780841e-03 1.42195390e-03 4.16367408e-03
      1.29602442e-03 -1.50366744e-04 2.23668874e-03 -1.82897726e-03
      -2.93709524e-03 -2.67270789e-03 8.73381970e-04 -1.40506809e-03
      -5.51444525e-03 -2.27213698e-03 1.80398856e-04 5.75753395e-04
      -8.78846389e-04 1.02794333e-03</_>
    <_>
      -6.98720978e-04 -1.82420632e-03 1.86858117e-03 3.89231090e-03
      -8.92932992e-03 7.74044092e-05 -7.45087722e-03 -2.36365735e-03
      -1.98128191e-03 -1.71764681e-04 4.05967608e-03 -1.50971580e-04
      9.54083924e-04 -8.00220063e-04 2.23985687e-03 2.46662903e-03
      -4.49474232e-04 1.45877863e-03 -5.76959923e-03 -2.29511037e-03
      -1.49950455e-03 -1.81776262e-03 1.83908129e-03 4.53868555e-03
      -4.91841789e-03 -5.87924267e-04 1.56685407e-03 4.03012615e-04
      2.48289667e-03 1.57670191e-04</_>
    <_>
      -1.70181913e-03 -3.33344418e-04 4.10125917e-03 1.90219295e-03
      -1.65348477e-03 4.16920753e-04 -3.12391762e-03 -1.71968190e-04
      -1.92413817e-03 -7.63850752e-04 5.64534916e-03 -1.74124271e-03
      3.03371041e-03 -1.11488785e-04 2.49496009e-03 2.84403074e-03
      3.38987098e-03 -2.02585725e-04 4.19854233e-03 3.38210753e-04
      7.84198462e-04 -1.31149171e-03 9.45119304e-04 -9.67981876e-04
      -4.27553576e-04 -8.81714514e-04 -1.54868336e-04 -2.23437906e-03
      3.42165842e-03 -1.83304961e-04</_>
    <_>
      2.22742534e-03 2.21597948e-04 -1.64311694e-03 4.74810833e-03
      -4.31462657e-03 -8.58448329e-04 2.18287954e-04 -3.68170382e-04
      -4.76338988e-04 -6.55879150e-04 7.19125092e-04 1.82964397e-03
      3.31103173e-03 1.75633735e-03 1.99636701e-03 2.05672416e-03
      -9.72340698e-04 3.92717961e-03 2.05871928e-03 -3.80771328e-03
      1.14531734e-03 -1.39428664e-03 -7.19694421e-04 1.08950527e-03
      -2.87995650e-03 5.83642686e-04 2.24776147e-03 2.53295945e-03
      4.45029873e-04 -1.23890024e-03</_>
    <_>
      -3.21878353e-03 -1.86586252e-03 -6.06378744e-05 -5.94110927e-04
      -1.95875741e-03 -5.76801319e-03 -2.98779667e-03 -3.50098987e-03
      -3.04487953e-03 -2.08115880e-03 -1.79099781e-03 1.29523803e-03
      5.45769371e-03 1.12365116e-03 -7.63726770e-04 2.52207555e-03
      3.23356432e-03 1.40361930e-03 -2.51644081e-03 7.49806641e-05
      -3.57898418e-03 -6.93815353e-04 6.53624011e-04 2.70077586e-03
      -4.28904826e-03 -8.87905117e-05 -1.28244318e-03 -4.72794782e-05
      9.78823402e-04 8.59039545e-04</_>
    <_>
      -3.88512184e-04 8.51629302e-04 3.83663131e-03 -6.51467417e-04
      -1.32080808e-03 -2.58836499e-03 6.33567618e-03 2.87860050e-03
      -6.52861418e-05 -3.06383427e-03 2.15077098e-03 3.04666092e-03
      4.18884959e-03 -2.37270584e-03 2.54863501e-03 2.81638652e-03
      -9.53099516e-04 -6.65852218e-04 1.11610163e-03 1.74679898e-03
      -4.37938783e-04 -4.09167865e-03 -2.00307672e-03 -1.85601733e-04
      -9.91361332e-04 -8.11691803e-04 -3.56719946e-03 -7.70958723e-04
      3.10459104e-03 -3.98153486e-03</_>
    <_>
      -5.45171060e-05 -1.12013018e-03 1.47822266e-03 1.57023862e-03
      -5.53768454e-03 -2.52539339e-03 -5.31743397e-04 -1.46429578e-03
      -1.25636149e-03 2.51712219e-04 5.27683645e-03 4.62305325e-04
      2.19538226e-03 -8.19682085e-04 -3.13463598e-03 3.39467125e-03
      -7.38851668e-04 -1.30330375e-03 -1.19297882e-03 -3.39270424e-04
      -4.24150191e-03 -1.11182069e-03 -3.31837172e-03 3.97921453e-04
      -3.44685907e-03 -3.94858012e-04 -1.64290995e-03 -6.24903536e-04
      7.80825678e-04 -5.07922850e-05</_>
    <_>
      -5.69154683e-04 3.76562355e-03 -2.53918674e-03 -6.82402693e-04
      -6.29279576e-03 -1.95831805e-03 6.38485979e-03 -6.07613823e-04
      2.08691205e-03 -3.96994670e-04 4.08832124e-03 1.17386924e-03
      4.32149228e-03 -1.33841284e-04 -1.10980740e-03 2.89605651e-03
      1.76524045e-03 -1.88711379e-03 6.47233985e-03 1.19871518e-03
      2.46814743e-04 1.42683077e-03 -2.88405136e-04 -1.40847429e-03
      -4.03362093e-03 -3.35475057e-03 1.55367039e-03 2.40741344e-03
      6.83307531e-04 -2.93923379e-03</_>
    <_>
      9.22876236e-04 6.56228745e-04 1.22126471e-03 2.81473342e-03
      -5.84766967e-03 -1.42491003e-03 -2.35376740e-03 -2.69113993e-03
      2.12807223e-04 -2.66901474e-03 7.34786876e-03 1.98279181e-03
      3.11935809e-03 -1.68587521e-05 2.68670206e-04 2.55918782e-03
      6.14761608e-03 1.55506097e-03 -3.23162368e-03 1.12776365e-03
      -2.25377828e-03 2.25458425e-04 3.71247181e-03 -1.06403313e-03
      -2.59458530e-03 -1.60196901e-03 -1.07403088e-03 3.04490747e-03
      8.58442299e-03 -1.48083433e-03</_>
    <_>
      3.15141259e-03 5.34545630e-04 8.32268153e-04 -5.31045021e-04
      -6.47853885e-04 -3.44717526e-03 -4.21732245e-03 -2.50399485e-03
      3.13635822e-03 1.16056425e-03 4.24326630e-03 8.10833473e-04
      4.66431165e-03 -1.61909685e-03 1.42695173e-03 3.38865095e-03
      2.28608632e-03 -1.45998702e-03 -2.36594889e-04 1.01615535e-03
      -1.82034599e-03 -2.95276893e-03 -3.65286600e-03 1.19605032e-03
      -1.50788936e-03 -2.20188056e-03 -9.51398339e-04 4.69174498e-04
      4.29206993e-03 3.97567404e-04</_>
    <_>
      2.96346424e-03 6.00719533e-04 4.83580120e-03 -2.72325147e-03
      -2.48568202e-03 -2.65888241e-03 1.02265377e-03 -3.64714680e-04
      -1.23401420e-04 -3.73085937e-03 4.32843994e-03 9.86861298e-04
      4.34491178e-03 1.15374045e-03 9.95338196e-04 3.55148385e-03
      -3.37411207e-03 -9.06104338e-04 9.86706815e-04 2.32649129e-03
      2.95268162e-03 -9.32714960e-04 -3.55139811e-04 1.00653130e-03
      -9.25027358e-04 -4.40431200e-03 -1.68681974e-04 2.84129841e-04
      -1.75035108e-04 1.70983491e-04</_>
    <_>
      2.30919034e-03 -3.74736963e-03 3.53129557e-03 -5.33304628e-05
      -1.76517328e-03 -1.15924259e-03 -2.90732738e-03 -1.14991248e-03
      4.24653385e-03 1.78190146e-03 -5.48649754e-04 1.45742099e-03
      6.69836532e-03 -1.06474501e-03 1.64398481e-03 1.61307794e-03
      1.99900125e-03 2.84919795e-03 -4.39430960e-03 4.88329038e-04
      -2.59096711e-03 -1.29060308e-03 -2.21242453e-03 2.94542033e-03
      -1.03548192e-03 1.97090372e-03 2.08164356e-03 -1.73452124e-03
      4.20159660e-03 -1.08644913e-03</_>
    <_>
      -5.24933375e-06 2.63823406e-03 2.55844556e-03 2.36103171e-03
      -6.50888169e-03 -2.92855012e-03 -4.95492434e-03 -2.20069778e-03
      -9.56962234e-04 -2.83526327e-03 5.70098683e-03 -6.36275858e-04
      2.91763991e-03 -1.26672894e-04 1.46982074e-03 3.86971841e-03
      5.44955838e-04 -2.39240791e-04 4.75146994e-03 1.53060770e-03
      1.52596820e-03 2.13429378e-03 3.63216083e-03 -1.73516877e-04
      -1.23161147e-03 -1.84468037e-04 -7.54803652e-04 1.93021470e-03
      3.84136732e-03 -2.31338199e-03</_>
    <_>
      2.93677469e-04 -7.46701495e-04 6.05865025e-05 5.04426984e-03
      -3.15198652e-03 -7.27157225e-04 -4.36618086e-03 -2.80482206e-03
      -2.63411668e-03 -3.12572974e-03 3.95980291e-03 -2.70693586e-03
      -2.64152861e-03 -5.40859299e-04 3.71576170e-03 2.69589550e-03
      1.19428187e-04 -2.13106815e-03 2.75213132e-03 6.20821840e-04
      1.79689296e-03 2.24456177e-04 8.65454087e-04 -7.05427350e-03
      -8.59520980e-04 -1.99986296e-03 2.85406876e-03 -5.75272308e-04
      4.83088288e-03 6.02621149e-05</_>
    <_>
      -5.89893432e-03 -1.42586732e-03 -1.53506699e-03 -3.95931158e-04
      -8.79818632e-04 9.32645111e-04 -4.32824995e-03 -2.00466067e-03
      -8.07687826e-03 1.98701769e-03 -2.16810778e-03 -1.62857363e-03
      4.69580526e-03 2.90034828e-03 1.41170947e-03 8.01007089e-04
      -4.59084008e-03 -2.33971654e-03 4.27922991e-04 -8.13542283e-04
      -1.55944272e-03 -1.25857606e-03 4.23875591e-03 2.92572775e-04
      -1.08681235e-03 2.59950943e-03 -3.29928985e-03 -4.43698764e-06
      -2.61024339e-03 1.56255648e-03</_>
    <_>
      7.10639462e-04 -2.04154919e-03 -1.00462604e-03 6.39551959e-04
      -8.63828871e-04 -1.15144614e-03 5.84852044e-03 2.40111767e-04
      -1.89038797e-03 -3.82519304e-03 -6.27534091e-03 1.53789384e-04
      3.09483119e-04 -1.40384887e-04 2.43662810e-03 -1.75058946e-03
      -1.14099290e-04 1.61520659e-03 6.54288009e-03 3.37361870e-03
      9.21070925e-04 1.29864702e-03 2.28382589e-04 4.65478841e-03
      3.24780960e-03 -1.68349783e-04 1.28308614e-03 8.57644336e-05
      -1.06981886e-03 -9.57453856e-04</_>
    <_>
      -1.03215908e-03 -2.47271871e-03 -2.33609043e-03 6.42862578e-04
      -1.45420944e-03 2.43887980e-03 3.91117949e-03 -1.61054078e-03
      -3.82613228e-03 -1.34146481e-03 -1.39351864e-03 2.05601309e-03
      1.58121099e-03 2.65810685e-03 1.99463079e-03 -8.20771151e-04
      -2.94877170e-03 8.79561005e-04 2.98279175e-03 -2.67613307e-03
      -2.18362361e-03 -4.82294330e-04 -4.34871716e-03 1.71501038e-03
      -4.81169671e-04 3.14132310e-03 -3.42486356e-03 1.25403993e-03
      1.04012131e-03 9.47865192e-04</_>
    <_>
      4.56899608e-04 -4.50802618e-04 1.18573406e-03 1.06140878e-03
      -4.25928878e-03 -7.14854803e-04 4.69779037e-03 -1.26802712e-03
      -4.07121470e-03 -1.30762695e-03 4.26802738e-03 2.84766196e-04
      6.84371497e-03 9.55087889e-05 5.93515951e-03 -1.69036665e-03
      -4.32257168e-03 -1.61555316e-03 5.09492867e-03 5.73666417e-04
      8.70021933e-04 2.11050408e-03 -4.38987830e-04 -5.87128852e-05
      -3.72611394e-04 6.81822930e-05 -2.44329497e-03 -3.48955742e-04
      6.75298856e-04 3.07985046e-03</_>
    <_>
      -4.26113466e-03 -1.10540690e-03 1.05275551e-03 3.71826859e-03
      -5.30364830e-03 -2.74102925e-03 -8.68667907e-04 -5.77220228e-04
      -6.18875585e-03 -3.29658412e-03 -1.19157962e-03 -7.27392908e-04
      6.08646660e-05 1.55943166e-03 1.51009357e-03 -2.14515044e-03
      -5.60126547e-03 -2.56302929e-03 -6.29407237e-04 2.77080154e-03
      -7.12727837e-04 9.88235115e-04 1.86603027e-03 -1.47268933e-03
      3.54923983e-03 -1.05690863e-03 -4.80125519e-03 -4.88228980e-04
      -7.79768161e-05 -9.93568334e-04</_>
    <_>
      -4.38985182e-03 1.30563416e-03 6.73230679e-04 4.56348620e-03
      -3.52764130e-03 1.80903357e-03 2.49762437e-03 -3.21309199e-04
      -4.69970889e-03 -9.35515563e-04 -3.68487858e-03 1.30205008e-03
      6.78487914e-03 4.18586005e-03 4.11830330e-03 1.35209772e-03
      -2.58774217e-03 -2.87807808e-04 -1.55626994e-03 -9.26771201e-04
      -5.14509715e-03 -1.12235860e-03 -3.14624369e-04 2.31063040e-03
      -3.51073616e-03 2.56681070e-03 3.90376034e-03 2.09869863e-03
      3.35482473e-05 4.76853969e-03</_>
    <_>
      -5.85207017e-04 2.77485489e-03 8.05116608e-04 9.95121431e-04
      -8.11621454e-03 -2.66838283e-03 2.10966170e-03 2.05194950e-03
      -4.40227007e-03 -5.48528740e-04 -4.43767570e-03 -1.25097088e-03
      -2.93489126e-03 4.17367648e-03 1.58330181e-03 -1.22488849e-03
      -2.74030468e-03 1.39450458e-05 2.84758979e-03 2.78463820e-03
      -6.33275136e-04 1.74727265e-05 -3.01795008e-05 1.95008900e-03
      4.97309072e-03 2.56355532e-04 -1.75899919e-03 -1.25836988e-04
      -3.42077762e-03 9.34851851e-05</_>
    <_>
      -3.88688454e-03 -1.95381604e-03 3.72280716e-04 2.00526393e-03
      -3.70796816e-03 -3.36699653e-04 2.51792092e-03 -7.31428678e-04
      6.04586850e-04 8.14836414e-04 -1.74508162e-03 8.21444206e-04
      2.04314175e-03 2.59502907e-03 1.54063781e-03 -4.85633927e-06
      3.88341863e-03 2.73892726e-03 2.44514295e-03 -2.57293490e-04
      -2.69509666e-03 9.32470080e-04 1.75720052e-04 4.21256816e-04
      -2.35616486e-03 -7.73145410e-04 -2.03620805e-03 -8.45708943e-04
      -3.37000820e-03 2.33106106e-03</_>
    <_>
      -1.88658538e-03 5.32339327e-04 4.07131796e-04 -1.06450607e-04
      -3.98114696e-03 -2.41315598e-03 2.45287269e-03 -6.36447920e-04
      -4.13055066e-03 -1.47360656e-03 -6.34155527e-04 3.12211271e-03
      1.98073903e-04 2.51867599e-03 6.89496926e-04 -1.24636851e-03
      3.77466786e-04 9.55296273e-04 1.55465782e-03 2.23896443e-03
      -3.74448975e-03 -5.45103452e-04 3.37896228e-04 -9.89559805e-04
      -6.10755873e-04 3.44553520e-03 -1.59529934e-03 -8.45669492e-05
      -1.74212910e-03 1.59327162e-03</_>
    <_>
      -2.94363010e-03 -1.70365034e-03 1.73187361e-03 5.97393548e-04
      -9.85357445e-03 -1.70685630e-03 2.49445066e-03 -1.13467267e-03
      -3.42289219e-03 -2.80597251e-05 -1.70167338e-03 -4.92145307e-04
      -1.15735864e-03 2.03578686e-03 1.17562723e-03 -2.37234589e-03
      1.27901253e-03 2.66658084e-04 4.33428766e-04 2.03836709e-03
      -2.74586957e-04 -2.99502226e-05 -8.38299573e-04 2.58810446e-03
      -9.79708624e-04 -2.27708416e-03 2.74528679e-03 -1.85618846e-04
      -4.69458144e-04 2.74655933e-04</_>
    <_>
      -3.46100074e-03 -9.13595781e-04 1.00593292e-03 1.17015711e-03
      -2.59290519e-03 1.81588228e-03 -5.16076514e-04 -1.64302823e-03
      -6.23594364e-03 -3.18260747e-03 -4.28190501e-03 6.50741742e-04
      6.09934330e-04 1.12168526e-03 1.90664676e-03 -2.02503963e-03
      9.34554322e-04 5.84640016e-04 7.74880580e-04 7.46459773e-05
      -4.84499196e-03 2.84489855e-04 -1.20288541e-03 1.80169605e-04
      3.41596198e-03 2.79167667e-04 -2.61736265e-03 1.04295323e-03
      -3.16395686e-04 -5.23738272e-04</_>
    <_>
      -5.39019145e-03 -1.74072827e-03 6.34940865e-04 5.26131131e-03
      1.39404298e-03 -5.77278784e-04 8.76335707e-03 5.88380033e-04
      2.63546268e-03 -3.25564737e-03 -3.52780707e-03 3.21421144e-03
      5.81321493e-03 3.62388999e-03 1.76787947e-03 -1.25960296e-03
      -2.74195481e-04 -2.13935575e-03 5.24021639e-03 5.09741530e-03
      2.11087218e-03 -1.59785838e-03 4.26056067e-04 1.23234501e-03
      5.49729401e-03 1.55539281e-04 -7.42999895e-04 1.97506903e-04
      -1.47328363e-03 -1.79575151e-03</_>
    <_>
      -4.61753318e-03 -2.47954042e-03 -1.38680323e-03 1.15666783e-03
      7.87860656e-04 -9.31501447e-04 3.35359306e-04 -1.43344572e-03
      -8.99992243e-04 -7.04423583e-04 -2.16615642e-03 1.87599310e-03
      3.13484133e-03 4.46549943e-03 -6.40972611e-03 -7.99084723e-04
      4.81755659e-03 -1.67920336e-03 6.93227630e-04 5.13987243e-03
      -2.30411440e-03 6.36599667e-04 1.23531077e-04 1.53185066e-03
      -3.93776176e-03 -6.67270913e-04 2.14749970e-03 2.30285368e-04
      -2.17497372e-03 1.97877246e-03</_>
    <_>
      -2.05600471e-03 -3.18187894e-03 -2.06815847e-03 -1.45761296e-03
      3.52865574e-03 -2.51304707e-03 5.27943950e-03 -3.59267979e-05
      3.26420367e-03 -2.56908196e-03 4.61129210e-04 2.07657507e-03
      -1.21286408e-04 3.89535539e-03 -3.96784482e-04 -4.06602072e-03
      8.81077431e-04 1.27409294e-04 2.29172525e-03 6.81933947e-04
      -2.01217947e-03 1.06065813e-03 2.90974090e-03 1.01769669e-03
      1.57414877e-03 3.27620166e-03 -3.27337300e-03 -3.25283688e-03
      -1.87801896e-04 -1.41403463e-03</_>
    <_>
      1.69884751e-03 1.80292278e-04 8.58038024e-04 2.52757920e-03
      -1.74498768e-03 -8.33494647e-04 5.82277169e-03 1.57550283e-04
      -4.64198971e-03 -2.45582173e-03 1.54195237e-03 -1.09771884e-03
      -2.16743816e-03 2.87520560e-03 5.68904507e-04 -7.28462765e-04
      3.80077137e-04 -2.09714228e-04 1.87094812e-03 9.89404041e-04
      -7.56165991e-03 2.19514754e-04 -2.14571366e-04 2.80477863e-04
      -2.94332299e-03 5.19773399e-04 -2.06662551e-03 2.67813937e-03
      -9.99194686e-04 1.87300189e-04</_>
    <_>
      -5.25075383e-03 -2.19014008e-03 4.26711189e-03 6.97638898e-04
      5.98113635e-04 -2.19564815e-03 6.69455389e-03 -1.61064637e-03
      -2.49419012e-03 -2.45715911e-03 2.78096367e-03 1.10050419e-03
      4.43551503e-03 1.66350300e-03 -1.16865349e-03 -5.03494265e-03
      -3.21273779e-04 -1.84424291e-03 6.12304779e-03 1.07503077e-03
      -1.64376886e-03 1.56479445e-03 1.72282127e-03 -1.19202328e-03
      -2.60745804e-03 5.15322259e-04 2.43881150e-04 1.86105666e-03
      9.67831642e-04 3.29742813e-03</_>
    <_>
      3.49498529e-04 1.98387424e-03 3.15849413e-03 2.88482080e-03
      -3.10993101e-03 -3.82241514e-03 3.37879616e-03 -1.84814655e-03
      -5.71346842e-04 -2.07457063e-03 2.83430540e-03 3.02664377e-03
      -4.22189158e-04 1.61520194e-03 3.18788993e-03 -5.14756946e-04
      6.55653328e-03 1.42633880e-03 1.54546881e-03 3.23886005e-03
      -3.27174761e-03 -1.04667479e-03 -1.91697327e-04 4.25663980e-04
      2.38309312e-03 -9.79607925e-04 1.64961524e-03 -1.44266046e-03
      3.07138357e-03 2.36203359e-03</_>
    <_>
      1.73872989e-03 1.02466764e-03 -1.25439174e-03 2.24927720e-03
      6.54950272e-04 2.98289349e-03 1.43909280e-03 7.68839906e-04
      -1.42416242e-03 -3.07481061e-03 6.28431374e-03 9.12929536e-04
      -1.71796139e-03 9.26086330e-04 1.14342151e-03 -1.27881521e-03
      1.62870099e-03 -2.45903560e-04 9.26896697e-04 4.36401647e-03
      -7.75041245e-03 -6.40460290e-04 2.89808889e-03 -5.39708068e-04
      7.24226353e-04 1.95284223e-03 -3.28094303e-03 2.73154280e-03
      -2.81632715e-03 -7.83008116e-04</_>
    <_>
      2.51517631e-03 -1.89940142e-03 5.15836407e-04 -1.11922040e-03
      2.37399619e-03 -1.60129589e-03 4.75060879e-05 -1.81098701e-04
      -1.83607615e-03 -1.49058679e-03 2.05327943e-03 8.04430238e-05
      2.00864510e-03 1.44443964e-03 -2.72732205e-03 -8.94294004e-04
      -2.12043594e-03 1.48889536e-04 -2.90799071e-03 3.44517721e-05
      -2.02059117e-03 3.62902589e-04 -2.55602342e-03 4.68418293e-04
      -2.05735187e-03 -3.15749698e-04 -3.56188184e-03 1.78006350e-03
      -5.73180057e-03 -1.82856829e-03</_>
    <_>
      -3.67195084e-04 -1.60000636e-03 3.67186265e-03 2.85737478e-04
      -3.88274947e-03 1.14061416e-03 -2.04735482e-03 -2.16276501e-03
      -6.59026671e-04 -9.67072498e-04 -4.79854597e-03 -4.83833923e-04
      -1.58894120e-03 2.97301961e-03 1.21413490e-04 -8.11902049e-04
      1.09743257e-03 1.56543718e-03 -3.66722234e-03 -1.29587110e-03
      -6.32368354e-03 -4.24349128e-04 2.49029719e-04 2.40308605e-03
      1.75454339e-03 -6.21942163e-04 -5.44358743e-04 1.67282694e-03
      -7.67851539e-04 -1.19362120e-03</_>
    <_>
      -3.61840567e-03 -3.30678769e-03 5.48914215e-03 -2.84612365e-03
      1.67679053e-03 -1.67384441e-03 4.53594001e-03 -1.71948667e-03
      -2.94878962e-03 -5.33329276e-03 -3.11834039e-03 -2.96839280e-03
      -1.20431872e-03 1.84712163e-03 3.54294491e-04 -1.21352985e-03
      3.19805066e-03 -9.39122750e-04 6.08933438e-03 1.15823827e-03
      5.82393433e-04 -6.00510230e-03 1.85638317e-03 1.95286016e-03
      2.33339029e-03 -1.14651502e-03 -4.31728875e-03 -2.51390692e-03
      4.29967511e-03 -4.42878285e-04</_>
    <_>
      -5.91962179e-03 -4.24387166e-04 3.17144184e-03 3.03560216e-03
      1.02676253e-03 1.88528455e-03 2.86685361e-04 -1.48487638e-03
      1.28579268e-04 -1.70170399e-03 -1.44620903e-03 3.67809017e-03
      -2.72584264e-03 1.16627634e-04 1.52780279e-03 -7.49592873e-05
      -1.24987308e-03 2.12678663e-03 2.56565894e-04 8.49182892e-04
      -6.57374738e-04 7.57639413e-04 -8.69473326e-04 2.38959980e-03
      -3.01845418e-03 -1.91666954e-03 1.79832266e-03 2.55958363e-03
      5.03999041e-03 2.19451496e-03</_>
    <_>
      -2.63798120e-03 1.85528607e-03 -2.14207079e-03 2.04457366e-03
      -5.95161505e-03 -1.23531034e-03 7.12896814e-04 -7.37226161e-04
      2.41009169e-03 -3.22184782e-03 -3.41784325e-03 1.42560352e-03
      -1.64193346e-03 3.47751845e-03 -2.64815544e-03 1.81145233e-03
      2.25099182e-04 1.02607126e-03 -2.72434065e-03 -4.66411177e-04
      3.47355288e-03 6.55161217e-04 -1.34628243e-03 3.45951202e-03
      -1.43969862e-03 -2.82045128e-03 -4.75958595e-03 -1.43896486e-03
      -1.10540597e-03 -1.04325300e-03</_>
    <_>
      -2.71729659e-03 1.13879703e-03 3.11143673e-03 3.70755722e-03
      -4.08573775e-03 -3.31756775e-03 2.86069419e-03 4.01196815e-03
      -7.95319851e-04 1.55649800e-03 3.87013657e-04 6.72282011e-04
      -6.30701985e-03 -2.14578281e-03 3.37472302e-03 -3.96110816e-04
      6.41039480e-03 4.31114808e-03 -3.39828810e-04 -4.20611491e-03
      -2.97637773e-04 5.45584410e-03 -6.03118399e-03 3.04868823e-04
      -3.93823441e-03 -1.25223945e-03 -1.50521065e-03 3.03578036e-05
      -1.15848833e-03 2.67240830e-04</_>
    <_>
      1.65277964e-03 -8.07344564e-04 4.35742131e-03 5.16108563e-03
      -2.42421869e-03 -1.05145713e-03 1.48627779e-03 -2.98579282e-04
      3.62335384e-04 -5.22521208e-04 -1.67176899e-04 3.60872218e-04
      2.79309554e-03 7.95705346e-05 2.64408346e-03 -1.40069472e-03
      3.54454014e-03 -4.07831557e-03 2.21633934e-03 2.54627463e-04
      6.77725067e-04 -8.55908729e-04 1.48023071e-03 1.73389819e-03
      -1.98119669e-03 -5.70360979e-04 -2.26158445e-04 -2.55769514e-03
      -3.54980188e-03 -1.91612972e-03</_>
    <_>
      -2.42304709e-03 -1.81411568e-03 -2.94361869e-03 3.62444762e-03
      -5.53513877e-03 1.67117082e-03 5.98013960e-03 1.68503169e-03
      9.40840691e-04 -2.85611604e-03 2.55251443e-03 1.36326067e-03
      4.57043340e-03 1.17952493e-03 -2.86767608e-04 1.57962134e-03
      3.98160238e-03 1.84011797e-03 6.57165423e-04 6.16725476e-04
      -1.05692225e-03 4.72138682e-03 -1.59362319e-03 2.53723119e-03
      3.62451724e-03 3.30149103e-03 2.27241754e-03 -5.61008113e-04
      -3.90287233e-03 -2.04735924e-03</_>
    <_>
      -4.72824089e-03 1.91614439e-03 3.25976429e-03 3.31528182e-03
      -2.12000450e-03 4.59589483e-03 3.24069569e-03 -1.21494842e-04
      -1.06618681e-03 1.82510761e-03 -6.03055581e-03 2.18634331e-03
      -9.77882446e-05 2.68095988e-03 1.43535982e-03 -9.70283989e-04
      3.35604511e-03 2.30945391e-03 -4.64710407e-03 -1.59986562e-03
      -2.66228756e-03 5.61703742e-03 5.00410853e-04 -1.05230825e-03
      -3.28136608e-03 5.66521136e-04 4.06322209e-03 -2.01075524e-03
      -5.71919489e-04 1.68526807e-04</_>
    <_>
      -1.38994632e-03 1.05912914e-03 1.94898210e-04 8.70052900e-04
      -3.69004416e-03 1.07956422e-03 -2.90755904e-03 7.96755892e-04
      -3.25676665e-04 -1.48974871e-03 -2.14229827e-03 -8.95375037e-04
      -2.60164030e-03 -1.71981659e-03 3.24229593e-04 -8.32001038e-04
      6.18420774e-04 -2.19780090e-03 3.17368936e-03 -5.89499308e-04
      1.85029220e-03 1.21145532e-03 -2.77688820e-03 2.87352502e-03
      -3.25617963e-03 -3.65080871e-03 -1.57204946e-03 1.19379110e-04
      -1.42340444e-03 -1.00370310e-03</_>
    <_>
      -4.63547511e-03 -2.53188401e-03 3.44229222e-04 1.47881394e-03
      -4.13192157e-03 -2.32407521e-03 3.91548872e-03 1.09089760e-03
      1.90310646e-03 -7.12126493e-04 1.69759302e-03 2.46619049e-04
      -3.18447780e-03 -4.27283114e-03 2.11884920e-03 -1.20433979e-03
      7.08609587e-03 -1.53319072e-03 5.04596438e-03 -2.40294868e-03
      -1.00693700e-03 4.58969997e-04 4.66034020e-04 2.92088022e-03
      -3.70216469e-04 -6.80894183e-04 -2.14215554e-03 1.67316780e-03
      4.57645673e-03 7.81244249e-04</_>
    <_>
      2.90970062e-03 -1.13739120e-03 1.37701118e-03 8.14602128e-04
      -2.58756126e-03 4.93395899e-04 2.89469026e-03 1.21759565e-03
      -3.41742416e-03 1.53671042e-03 -1.53111783e-03 -1.47405104e-03
      -5.83331287e-03 -3.47165251e-03 1.16624497e-03 -2.45279656e-03
      3.42991482e-03 -2.27944925e-03 7.88400241e-04 -5.52343391e-03
      9.88095766e-04 3.63004277e-03 5.60253859e-04 -2.87536369e-03
      1.60959622e-04 -1.39085669e-03 1.51109102e-03 -1.69128110e-03
      -1.93055335e-03 -2.31244881e-03</_>
    <_>
      -4.35022824e-03 -2.84811901e-03 7.94657448e-04 2.90090065e-05
      -4.61150473e-03 7.61809584e-04 -3.02423537e-03 -2.00612107e-04
      -2.01553991e-03 -2.04719882e-03 -1.72364421e-03 -3.57266515e-03
      -7.04557821e-03 5.97150298e-04 4.35372302e-03 -2.62881024e-03
      7.24054966e-03 1.86811329e-03 1.38437230e-04 -2.98474869e-03
      1.85569981e-03 4.42543859e-03 1.13913917e-03 1.67588133e-03
      -8.29521567e-04 -8.34524864e-04 4.90313454e-04 -4.73011611e-03
      -1.47318037e-03 2.29789549e-03</_>
    <_>
      -1.34943938e-03 5.89953270e-04 1.28997094e-03 -6.88109896e-04
      -6.32661511e-04 -6.32857147e-04 2.24190275e-03 2.86075869e-04
      3.41136794e-04 -1.73321489e-04 2.98057543e-03 1.02166506e-03
      -2.57932668e-04 -9.81007470e-04 2.80548050e-03 7.42683304e-04
      4.38997615e-03 2.19216716e-04 5.28115034e-03 1.77863450e-03
      3.08105838e-03 3.42247798e-03 -2.13383511e-03 7.79367459e-04
      9.30205977e-04 6.51929528e-04 -1.67847276e-04 -5.06568176e-04
      2.89390027e-03 -3.01449047e-03</_>
    <_>
      -2.43242993e-03 2.33478448e-03 -1.95129681e-03 4.49811993e-03
      9.69512737e-04 1.52150902e-03 2.15258775e-03 2.54078535e-03
      3.28853843e-03 -6.75435440e-05 -1.00102428e-04 2.69826245e-03
      -1.32165337e-03 1.46180845e-03 2.30910000e-03 -1.10095763e-03
      3.35754314e-03 2.83775222e-03 1.94958318e-03 1.64615037e-03
      2.40666792e-03 5.38741842e-05 3.65084648e-04 -2.04440625e-03
      1.55733572e-03 3.02492152e-03 1.76077214e-04 2.46943580e-03
      -3.54891689e-03 -4.77590715e-04</_>
    <_>
      -4.04786365e-03 -8.36317835e-04 5.42609137e-04 -1.43792643e-03
      -4.29409818e-04 -7.17999821e-04 -1.54084095e-03 -2.18313886e-03
      -2.11433484e-03 -3.83678684e-03 8.34383245e-05 -1.32430883e-04
      -4.63757990e-03 -4.39788746e-05 -2.99510872e-03 -1.18824898e-03
      4.48973896e-03 -1.65301864e-03 1.04027335e-03 -4.50664782e-04
      -1.83878397e-03 2.58528651e-03 -1.91128510e-03 -4.65770456e-04
      -3.05594550e-03 -2.79590930e-03 6.97731855e-04 -3.70705500e-03
      -6.11826777e-04 -1.71246275e-03</_>
    <_>
      -1.70770730e-03 -7.61652773e-04 2.35031266e-03 1.14597628e-04
      -8.31973914e-04 6.84081577e-04 9.71049257e-03 1.77568546e-03
      4.45129815e-03 -7.68419588e-03 -5.06665045e-03 1.80222292e-03
      -3.28012835e-03 4.17610863e-03 1.93826552e-03 3.11612291e-03
      -5.00493264e-03 2.09476522e-04 -1.07956177e-03 -2.45115533e-03
      -4.49292595e-04 -1.03813678e-03 7.20315657e-05 -2.16625561e-03
      -7.85819348e-03 3.37310974e-03 -5.43428445e-03 -6.42094482e-03
      1.88642123e-03 -3.39986244e-03</_>
    <_>
      5.07432087e-05 3.31882853e-04 1.53631717e-03 1.46594224e-03
      -3.72059387e-03 -1.58987462e-03 3.01109185e-03 -6.92195958e-04
      6.04825560e-04 8.89191928e-04 2.32455344e-03 2.91029108e-03
      -6.65485335e-04 -2.21736496e-03 1.23461452e-03 -1.63411780e-03
      5.18044783e-03 -4.55628004e-04 6.24215987e-04 -3.53714265e-03
      3.17972881e-04 1.02920528e-03 -1.72068877e-03 1.16790785e-03
      9.03444423e-04 -1.26076618e-03 4.67356201e-03 -6.90866844e-04
      -9.39822407e-04 -2.54514348e-03</_>
    <_>
      -3.93289048e-03 1.88213959e-03 2.73392466e-03 4.60833486e-04
      -3.49467597e-03 1.08425017e-03 2.38995813e-03 5.36568114e-04
      -1.04437850e-03 -2.36988883e-04 -7.67197344e-04 1.46571954e-03
      -6.01725094e-03 -2.68056639e-03 -3.04629724e-03 -1.51646120e-04
      1.64682581e-03 1.91396193e-05 3.52204777e-03 -8.90912372e-04
      -5.72102959e-04 3.08231614e-03 -3.26086488e-03 -2.12097148e-04
      -5.89514617e-03 -1.18159829e-03 -2.57477141e-03 -1.16058672e-03
      2.39290157e-03 -1.30163191e-03</_>
    <_>
      8.08682176e-04 3.78495129e-03 -3.53980984e-04 9.81144491e-04
      -1.93924515e-03 1.77246914e-03 -3.31042265e-03 -7.16642884e-04
      -1.70073530e-03 -4.59145196e-03 -2.13366910e-03 -1.32088305e-03
      -5.30645112e-03 7.49028812e-04 5.69964875e-04 -1.92055153e-03
      4.45115287e-03 -3.19149368e-03 -1.72837975e-03 3.04747722e-03
      -2.12067447e-04 3.91164375e-03 -7.92502076e-04 2.15472281e-03
      -1.73786003e-03 -5.55092356e-06 1.40187563e-04 1.07168907e-03
      4.10794077e-04 -2.23406893e-03</_>
    <_>
      -1.33990613e-03 -1.21150952e-04 1.83514797e-03 -5.99102001e-04
      1.71091553e-04 2.89636781e-03 2.90885771e-04 1.50569773e-03
      -1.37599534e-03 -1.83390337e-03 5.65193768e-04 1.96903638e-04
      -8.01604241e-03 -1.76444137e-03 7.94237480e-04 -1.15116511e-03
      7.55305635e-03 -6.21583662e-04 2.03556241e-03 1.56900566e-03
      -4.41493141e-03 6.04399247e-03 -4.80712065e-03 2.12166552e-03
      -7.27060775e-04 1.88545650e-03 -4.55260568e-04 1.39988610e-03
      2.98390468e-03 1.38749043e-03</_>
    <_>
      -2.00659735e-04 3.63031868e-04 2.98137218e-03 -1.23313745e-03
      -1.05372490e-03 -1.20068411e-03 3.22672393e-04 -5.71510827e-05
      -9.20203456e-05 -3.35570727e-03 1.96333113e-03 -3.03991302e-03
      -2.00387719e-03 -1.51140135e-04 3.04616289e-04 5.66428469e-04
      -2.94061098e-03 -2.69451481e-03 3.38003994e-03 -2.75117066e-03
      -1.33048650e-03 2.58942693e-03 -3.44563928e-03 -1.13000942e-03
      -7.51430634e-04 -8.54756567e-04 -5.44173585e-04 -2.27440125e-03
      -3.70897236e-04 -4.79779299e-03</_>
    <_>
      -4.24684305e-03 -3.72098456e-03 2.77778087e-03 1.24397560e-03
      7.19729345e-04 4.06869361e-03 -1.97320478e-03 6.12155243e-04
      4.89312341e-04 -1.30099384e-03 1.73064438e-03 -3.05367612e-05
      1.59675267e-03 8.54338461e-04 1.04471901e-03 1.64131832e-03
      9.41418670e-03 -1.31197472e-03 2.31431262e-03 -1.35292439e-03
      3.21721262e-03 3.62358382e-03 -5.84319606e-03 2.51298724e-03
      2.91354634e-04 -9.00678919e-04 3.33918561e-03 -2.10974296e-03
      3.64035252e-03 -1.16512773e-03</_>
    <_>
      -2.54403590e-03 -3.04555171e-03 2.76085688e-04 5.62425230e-05
      -1.13328104e-03 -4.99095942e-04 -8.27902812e-04 1.34541624e-04
      -2.77024927e-03 -2.25669681e-03 1.16554275e-03 9.37192177e-04
      -3.94228287e-03 -3.73067945e-04 -1.90718769e-04 1.62688270e-03
      4.02124645e-03 -1.76374451e-03 3.82776139e-03 -1.87297340e-03
      2.17908388e-03 3.93902743e-03 -2.15102220e-03 4.36317781e-03
      -2.37182551e-03 -2.71728868e-03 -4.06881189e-03 1.34402755e-04
      2.94178282e-03 -2.67297216e-03</_>
    <_>
      -7.95081258e-04 -1.79027265e-03 2.17303564e-03 3.93432146e-03
      2.05756398e-03 -1.99918752e-03 -1.37217704e-03 -1.00675365e-03
      2.48377328e-03 -5.60498144e-03 -3.57325713e-04 1.67123554e-03
      -6.28741691e-03 -1.62169850e-03 1.80113211e-03 3.23507166e-03
      5.06790448e-03 -1.34200335e-03 -1.39928900e-03 3.61036800e-04
      2.98696617e-03 1.03305862e-03 3.10146995e-03 -3.30021395e-03
      2.39975424e-03 -1.88790937e-03 5.65510523e-03 2.95195752e-03
      -1.76566668e-04 5.16834785e-04</_>
    <_>
      -1.20437064e-03 2.09936220e-03 -1.79270259e-03 -1.70907966e-04
      -3.76714277e-03 -1.08297580e-04 -9.71286325e-04 3.46779870e-03
      -4.19349177e-03 2.83093448e-03 -1.51740503e-03 8.05798336e-04
      -4.32567904e-03 -2.04608007e-03 -3.30815883e-03 1.47711660e-03
      -1.79497851e-03 3.39131174e-03 3.74544179e-04 -2.42326059e-04
      -6.08975720e-03 -2.11825222e-03 -7.99674424e-04 7.77510460e-04
      2.25177195e-04 1.49520917e-03 5.38411969e-03 -1.68120081e-03
      7.25698774e-04 6.50980510e-04</_>
    <_>
      1.81050343e-03 1.00491154e-04 1.22622820e-03 8.54465936e-04
      -1.15771894e-03 -1.20859919e-03 8.16670581e-05 1.00203580e-03
      -3.27214762e-03 1.03038352e-03 8.15170724e-03 -2.44729850e-03
      4.44057863e-03 -1.04041782e-03 -7.95575383e-04 1.90444558e-03
      -1.95715087e-03 1.71833963e-03 1.31884473e-03 -1.66490849e-03
      8.98763712e-04 -2.09530722e-03 -1.01702590e-03 -1.03721709e-03
      6.72464841e-04 3.25801969e-03 3.84419365e-03 2.29801773e-03
      4.77846654e-04 -2.05286560e-04</_>
    <_>
      1.59836584e-03 -5.10495016e-03 -1.21695257e-03 -2.28776829e-03
      2.62126356e-04 -3.18467687e-03 -1.67577539e-03 -4.88270482e-04
      -2.47295317e-03 -3.91680002e-03 -5.85361384e-04 1.24016020e-03
      -3.39701190e-03 -3.69918603e-03 -7.88957477e-05 9.51447815e-04
      -1.84576900e-03 3.73407174e-03 -4.12693527e-03 -7.22105149e-04
      2.98935059e-03 -4.08668444e-03 3.49532557e-03 9.46907850e-04
      6.76016323e-03 2.77106627e-03 -1.06983096e-03 -7.31464184e-04
      3.33096203e-03 -4.10658075e-03</_>
    <_>
      -1.64727936e-03 -1.94359326e-03 -1.29996554e-03 -1.63857813e-03
      -2.13817158e-03 2.22405116e-03 -2.28351390e-04 -4.75073187e-03
      -1.78698474e-03 1.26805669e-03 -2.23506638e-03 9.79813398e-04
      1.86244841e-03 -3.28984833e-03 -1.11336971e-03 1.22454506e-03
      -7.41178446e-05 -2.00194423e-03 -4.50646691e-03 -6.69195829e-03
      -3.30121792e-03 -2.83529866e-03 6.04850866e-05 -7.19739983e-05
      -6.49000751e-04 -6.71564601e-04 4.50929208e-03 2.16230983e-03
      -2.85237329e-04 2.94058956e-03</_>
    <_>
      4.34424117e-04 -6.53343042e-04 5.47832297e-03 1.12852757e-03
      3.09366221e-03 3.70810012e-04 -3.07582691e-03 -1.99622300e-05
      -6.30170282e-04 1.35630695e-03 3.73372971e-03 -2.61570909e-03
      -7.34881556e-04 -1.26108888e-03 1.90062227e-03 -1.06593582e-03
      -1.93988346e-03 -2.06403947e-03 3.04570631e-03 1.08608382e-03
      2.93258671e-03 -2.64911144e-03 2.94850604e-03 -5.39666216e-04
      3.70625011e-03 2.08219234e-03 -7.66485755e-04 2.11919355e-03
      -1.86646392e-03 3.14935017e-03</_>
    <_>
      -5.82156144e-03 6.56217104e-04 -1.04054343e-03 -5.31649799e-04
      -1.77153409e-03 1.39679725e-03 -3.56617477e-03 3.18711027e-05
      -2.10090584e-04 1.18254998e-03 1.36719551e-03 1.98666309e-03
      2.77022389e-03 2.33999244e-03 1.48015621e-03 2.01744493e-03
      -2.59794388e-03 -2.49972480e-04 1.22288964e-03 -5.37899788e-04
      -4.12344839e-03 4.33471985e-04 4.42381203e-03 1.54948561e-03
      -2.69304821e-03 9.44620988e-04 -1.46972146e-04 3.59806605e-03
      -6.59901634e-05 2.93904054e-03</_>
    <_>
      2.21585797e-04 1.62972056e-03 5.71378646e-03 4.03439347e-03
      -2.10781302e-03 1.88739528e-03 -2.16639461e-03 1.88061805e-03
      -5.56220720e-03 2.62709334e-03 -9.83290141e-04 1.79076858e-03
      -3.70361959e-03 -3.54044186e-03 5.37457061e-04 1.07011688e-03
      2.54664687e-03 1.53092446e-03 9.75000614e-04 -8.97626043e-04
      -3.11903562e-03 -6.64598483e-04 1.76098768e-03 5.46530029e-03
      -2.48548016e-03 5.97152684e-04 3.17695807e-03 6.08857116e-03
      9.99245443e-04 3.04513983e-03</_>
    <_>
      -3.78243183e-03 -2.18799221e-03 4.15776903e-03 2.69319804e-04
      -5.04566124e-03 -3.75986157e-04 -8.04489385e-03 -8.39256740e-04
      1.49174558e-03 1.09945412e-03 -3.13675962e-03 -2.43934453e-03
      -3.37593840e-03 -2.35294038e-03 -1.76186371e-03 -3.17661255e-03
      -3.61315021e-03 4.58244001e-03 -5.38775977e-03 7.29549152e-04
      -2.70944159e-03 7.08243228e-04 2.03139754e-03 4.17461561e-04
      2.94573978e-03 2.74856668e-03 3.86219099e-03 1.22512621e-03
      -6.39086938e-04 1.87025208e-03</_>
    <_>
      2.32792017e-03 -1.99275382e-04 1.62115577e-03 8.28577031e-05
      -4.77121677e-04 2.16031983e-03 -3.93779855e-03 3.27804533e-04
      -7.01569777e-04 1.69444154e-03 2.59566354e-03 2.06339499e-03
      -2.53154244e-03 -1.11557532e-03 5.32754464e-04 3.62061983e-04
      1.73206290e-03 7.38665229e-04 4.31450224e-03 -6.64731720e-04
      2.32486706e-03 4.20519849e-04 1.42704870e-03 -1.48155424e-03
      7.54802255e-03 2.24254443e-03 1.59003120e-03 -4.36796290e-05
      4.37182869e-04 -1.36620947e-03</_>
    <_>
      -8.90882104e-04 7.35150534e-05 9.75116913e-04 -3.83471750e-04
      -5.47663134e-04 1.19649025e-03 -3.27743357e-03 1.78206014e-03
      2.57514790e-03 1.62483845e-03 -3.19511606e-03 4.60453285e-03
      -3.14607657e-03 -1.51711889e-03 5.40558598e-04 -9.08867572e-04
      -5.64311910e-03 2.31825118e-03 3.97529639e-03 2.79688556e-03
      1.39058358e-03 1.17444375e-03 -2.40225927e-03 2.40288413e-04
      1.72380626e-03 5.01273433e-03 1.35902781e-03 2.84503563e-03
      4.18669404e-03 2.39096396e-03</_>
    <_>
      -5.58162865e-04 -2.19197245e-03 1.14632328e-03 -9.92377987e-04
      3.38662555e-03 -2.38735415e-03 -2.19173869e-03 -4.42215765e-04
      -7.21501699e-03 -2.73771002e-04 4.30158543e-04 2.39911431e-04
      2.98596662e-03 -1.87171041e-04 -5.14445221e-03 -9.65339656e-04
      1.16238063e-02 -1.14495668e-03 -6.74318653e-05 4.81898402e-04
      4.33294772e-04 -3.34028082e-05 3.80276656e-03 -3.21925676e-04
      -2.49865837e-03 1.26458087e-03 4.07274347e-03 7.52159161e-04
      5.67108393e-04 9.75798408e-04</_>
    <_>
      -6.29669381e-03 1.84316625e-04 2.13316549e-03 -6.93013775e-04
      3.07193608e-03 1.10078254e-03 -1.21479190e-03 5.18045272e-04
      -5.47051663e-03 1.15044112e-03 1.96813443e-03 7.36830174e-04
      -2.01862934e-03 9.28401423e-04 -2.09664344e-03 2.68489681e-03
      1.60434889e-03 2.93264253e-04 -4.29193443e-03 6.17019075e-04
      -1.70125591e-03 -3.27556161e-03 1.05521572e-03 -1.56890647e-03
      -2.99789407e-03 -2.03276938e-03 -3.50131560e-03 7.83338444e-04
      -8.02802242e-05 -9.19293845e-04</_>
    <_>
      -2.98760831e-03 1.41323346e-03 1.68420887e-03 -5.94279089e-04
      -2.51216022e-03 -1.58874187e-04 1.95903092e-04 8.46269366e-04
      -5.78102015e-04 8.17111577e-05 3.02726822e-03 -2.27591651e-03
      -4.75367112e-03 -1.41325104e-03 -2.35044141e-03 -6.40679849e-04
      -1.88590784e-03 3.73802788e-04 -2.70926347e-03 -3.13142058e-03
      -2.78875348e-03 -3.43349902e-03 -8.85832065e-04 -1.29067083e-03
      3.26356152e-03 9.91719135e-05 -7.61624906e-05 -1.37442339e-03
      2.24432047e-03 -2.38805849e-04</_>
    <_>
      -3.29910708e-03 2.42494792e-03 8.81449261e-04 5.00655733e-03
      -1.04704035e-04 1.08887511e-03 9.10218689e-04 -1.48490668e-04
      -7.81481504e-05 3.19494604e-04 2.05491437e-03 9.85387363e-04
      -2.21552397e-03 -4.79549090e-05 -1.44089421e-03 1.84351590e-03
      -2.76001496e-03 -3.99701210e-04 5.00755385e-04 -1.95474434e-03
      2.26511343e-04 1.77548849e-03 3.35081946e-03 1.81295827e-03
      -1.56015507e-03 -1.09469588e-03 1.00353942e-03 3.78880068e-03
      -4.04032820e-04 2.09255866e-03</_>
    <_>
      -2.15797569e-04 -1.09352486e-03 5.46923885e-03 1.01309255e-04
      -1.79754174e-03 -4.78436850e-04 -4.59963083e-03 -2.11172155e-03
      3.88891553e-03 1.02996884e-03 4.04344220e-03 1.96296256e-03
      -3.43460613e-03 -2.14852582e-04 2.40820318e-05 3.48929339e-03
      4.76571824e-03 -1.17582711e-03 7.54881883e-04 1.06174251e-04
      -2.14398629e-03 -4.35418682e-04 -1.63114653e-03 1.42612064e-03
      3.98220355e-03 6.38429017e-04 3.62534518e-03 7.28364685e-04
      2.68406351e-03 4.29336214e-03</_>
    <_>
      -1.04163098e-03 -1.54719804e-04 -4.08332344e-05 -1.94798410e-03
      1.34807313e-03 -1.24485546e-03 -2.48235418e-03 -8.21260095e-04
      -1.51010288e-03 8.02883587e-04 -1.10924267e-03 -5.24503528e-04
      -1.73721032e-03 -3.89228389e-03 -2.98027135e-03 8.42266134e-04
      1.80525577e-03 -2.51275068e-03 -3.79347266e-03 -2.61918758e-03
      -6.22691214e-03 -2.08189432e-03 4.52637614e-04 -2.20049944e-04
      1.02463935e-03 -1.08725193e-03 -9.65531333e-04 1.04292622e-03
      -2.56638112e-03 -5.72994526e-04</_>
    <_>
      -1.62003736e-03 1.50166219e-03 2.44146888e-03 4.98204667e-04
      2.39148363e-03 4.31737630e-03 -5.32289175e-03 -6.43536214e-06
      -2.77025136e-03 3.09335743e-03 1.36584102e-03 -8.58681218e-04
      9.69497371e-04 1.58222462e-03 6.79168515e-05 6.82066820e-05
      -5.09791402e-03 2.89674907e-04 -1.29853631e-03 -1.65322539e-03
      -4.11630434e-04 -7.35039474e-04 1.43451826e-03 2.41257352e-04
      1.08742120e-03 -3.59328951e-05 4.97233996e-04 2.86261458e-03
      -6.36247080e-03 3.04907374e-03</_>
    <_>
      -2.82085803e-03 -3.40054790e-03 2.92930054e-03 2.28982171e-04
      5.24327370e-05 2.59151973e-04 -6.31347438e-03 -6.20195991e-04
      -1.19091931e-03 1.67658238e-03 -1.51003071e-03 2.25847564e-03
      -8.48750875e-04 9.42818006e-04 -1.32182636e-03 2.07310295e-04
      1.54312828e-03 -2.87570510e-05 -5.63434185e-03 8.84529203e-04
      -6.48924150e-03 4.40767792e-04 -9.87968058e-04 1.57300930e-03
      1.79675908e-03 2.10255757e-03 4.12942981e-03 2.89133657e-03
      -1.09103764e-03 1.99175091e-03</_>
    <_>
      -3.41227720e-03 2.30467855e-03 2.34200736e-03 2.70509161e-03
      -7.24054815e-04 1.68686430e-03 -7.94344582e-03 1.68856652e-03
      -5.76806115e-03 -4.91675572e-04 4.24962630e-03 7.82189658e-04
      -2.03106902e-03 -4.56269627e-04 1.65884930e-03 2.97134346e-03
      -5.22554712e-03 1.04930671e-03 3.95510142e-04 -1.51184713e-03
      -1.50355150e-03 1.71191036e-03 -2.48596561e-03 -3.73316027e-04
      3.78005905e-03 8.11448321e-04 -5.89616597e-04 2.50114268e-03
      -1.16192433e-03 3.15233483e-04</_>
    <_>
      -3.67399934e-03 -2.85985693e-03 5.31826913e-03 4.98236448e-04
      -7.99920672e-05 -2.54778774e-04 -1.82751997e-03 -3.51116317e-03
      5.63900452e-04 -2.86741671e-03 3.58318863e-03 -8.02287250e-04
      -5.92975598e-03 -1.65526522e-03 4.25151596e-03 8.68428731e-04
      3.14541371e-03 -1.60459348e-03 -3.50024062e-03 -4.84270556e-03
      7.76473724e-04 -1.22699619e-03 2.52102478e-03 -1.28781958e-03
      4.55360656e-04 -2.97973718e-04 2.28894781e-03 1.63889054e-04
      1.85726956e-03 -7.12796871e-04</_>
    <_>
      5.69341704e-04 2.35912716e-03 2.40886840e-03 1.48603914e-03
      1.33198599e-04 -1.80492934e-05 1.47947561e-04 -1.66384934e-03
      -3.41887790e-04 -2.31159921e-03 3.23999370e-03 -3.15040117e-03
      4.27848427e-03 1.65686617e-03 1.53273379e-03 7.90078542e-04
      -3.26374872e-03 -3.12845106e-03 -2.01895065e-03 1.44855585e-04
      4.82319295e-03 1.61392032e-03 4.67660045e-03 -1.08446076e-03
      3.07714520e-03 1.62006810e-03 -1.55818614e-03 2.34635838e-04
      -1.94503134e-03 5.22294606e-04</_>
    <_>
      -2.90672411e-03 -1.59700343e-03 2.50687380e-03 5.23430994e-04
      -2.82200290e-05 -2.59859022e-03 9.54592135e-04 2.03886605e-03
      -4.64489404e-03 -4.53456398e-03 -3.63212568e-03 -2.13752198e-03
      -3.71300103e-03 1.99096859e-03 -4.02460573e-03 3.85015691e-03
      -2.92240852e-03 3.95135581e-03 -1.86126260e-03 1.95415877e-03
      5.10053360e-04 7.15057075e-04 4.54489561e-03 -2.83801206e-03
      2.94589135e-03 -2.16522021e-03 -1.65620551e-03 2.61389581e-03
      -2.38745450e-03 2.16256548e-03</_>
    <_>
      3.07632284e-03 2.44429451e-03 -1.10211258e-04 -1.10984489e-03
      -7.10745167e-04 1.36774592e-03 -3.84705467e-03 -2.06972263e-03
      -1.51908712e-03 -4.11797482e-05 -6.41690893e-03 -8.17879196e-03
      2.89819064e-03 -1.40410569e-03 2.04768544e-03 -4.31917841e-03
      5.49518922e-03 -1.52955449e-03 -5.17141714e-04 -3.01252585e-03
      -4.99109097e-04 -3.47967003e-03 3.82128824e-03 2.94292998e-03
      7.21918477e-04 2.22366536e-03 1.16273004e-03 8.91132629e-04
      -1.79646572e-03 1.00310869e-03</_>
    <_>
      -1.02301792e-03 1.33361609e-03 3.70029383e-03 -2.17798795e-03
      1.16201979e-03 2.38914322e-03 -5.39042614e-03 1.62688608e-03
      -1.43228099e-03 -8.13418592e-04 -1.59836945e-03 -4.26788395e-03
      -3.32985818e-03 1.64932210e-03 2.71372334e-03 -2.30571395e-03
      -2.16409727e-03 4.01553814e-04 3.50926118e-03 5.84945839e-04
      7.07370555e-03 -2.81496695e-03 3.33597255e-03 -2.09382945e-03
      8.80132616e-03 3.47902719e-03 2.88421428e-03 9.47555411e-04
      -1.40358679e-04 2.95011164e-03</_>
    <_>
      -3.20700672e-03 2.35379906e-03 -2.29993090e-03 -1.33408711e-03
      9.12867137e-04 4.81198105e-04 3.71457223e-04 7.67949270e-04
      6.24544395e-04 -1.14838581e-03 6.82126614e-04 1.84134918e-03
      2.80016521e-03 2.66158534e-03 -3.39041653e-05 2.38402910e-03
      1.38708379e-03 2.44802621e-04 1.22029718e-03 2.13248748e-03
      1.71314040e-03 2.48081982e-03 6.80932123e-03 3.11987777e-03
      -2.16408167e-03 7.31488282e-04 -2.76541221e-03 1.13923149e-03
      -5.38227288e-03 3.67330736e-03</_>
    <_>
      1.16667780e-03 6.56700518e-04 4.72839363e-03 1.19213003e-03
      -1.40749640e-03 -7.03031721e-04 2.09999434e-03 2.18010810e-03
      1.89936673e-03 -2.07562480e-04 1.02753611e-03 -1.70895050e-03
      -1.77056540e-03 -1.47964095e-03 1.12073089e-03 -7.36045127e-04
      9.07875801e-05 -3.75327491e-03 3.26451659e-03 -7.83084892e-04
      2.77621509e-03 1.70131621e-04 5.21286298e-03 -7.15948991e-04
      2.02079793e-03 1.33287441e-03 2.92250444e-03 2.56858487e-03
      -6.03912849e-05 5.57129271e-04</_>
    <_>
      3.76708223e-04 -9.18433652e-04 1.44596837e-04 -1.99756841e-03
      -7.39171356e-03 2.32975511e-03 -6.04754500e-03 -2.00403482e-03
      2.98065296e-03 1.01814768e-03 1.40314922e-03 -3.35062901e-03
      -5.88587904e-03 -1.58682279e-03 -3.74683389e-03 -3.03493463e-03
      -5.34029026e-03 -3.97799187e-04 -9.53688403e-04 2.43177242e-03
      4.22452111e-03 3.88394832e-03 3.33398930e-03 2.86431843e-03
      2.55841180e-03 1.16964476e-03 -1.24151178e-03 2.04841199e-04
      -1.99440052e-03 2.10957276e-03</_>
    <_>
      4.18005802e-04 1.11250137e-03 3.05715203e-03 -1.12807157e-03
      -2.13452731e-03 2.40825093e-03 -4.29014256e-03 -1.11842132e-03
      -1.56710320e-03 2.73071637e-04 -2.62139598e-03 -2.50970875e-03
      -1.78055302e-03 -1.10008067e-03 -3.43122898e-04 5.01581351e-04
      -2.60167778e-03 6.48916815e-04 7.95458836e-05 4.59545432e-03
      1.53310958e-03 4.40668606e-04 1.59328408e-03 -2.23084865e-03
      2.78491504e-03 3.61901266e-03 -1.10492820e-03 9.38191370e-04
      3.53195530e-04 1.90284871e-03</_>
    <_>
      -4.64526797e-03 4.02772706e-03 1.91238918e-03 4.42881184e-03
      7.95920962e-04 1.63480639e-03 -8.03100847e-05 3.12488060e-03
      -3.12426244e-03 -1.54492317e-03 -9.12606530e-03 -1.40562549e-03
      -2.82106455e-04 2.24413979e-03 -2.85606296e-03 1.17374511e-04
      3.59728903e-04 -8.61805689e-04 5.12282504e-03 -8.61260341e-04
      6.53900299e-03 2.17054668e-03 -1.17369869e-03 -2.29553087e-03
      4.85748472e-03 2.85144057e-03 1.26864400e-03 2.77402299e-03
      -2.41903309e-03 6.22917723e-04</_>
    <_>
      -9.36671742e-04 1.38695398e-03 1.67280680e-03 -1.81318645e-03
      2.63475790e-03 -2.92118784e-04 -1.90170191e-03 -2.26163887e-03
      -1.02100265e-03 -3.88797396e-03 -2.28526676e-03 -1.62149488e-04
      4.71049780e-03 -6.57902274e-04 -1.65350479e-03 -2.22570077e-03
      6.85134390e-03 -3.11091146e-03 2.60151806e-03 2.59769452e-03
      4.41584690e-03 -2.71805166e-03 5.99167310e-03 1.02819002e-03
      -3.29312822e-03 2.23021791e-03 2.33024010e-03 1.83234690e-04
      -1.25247671e-03 1.49467599e-03</_>
    <_>
      -3.36949294e-03 -2.58920190e-04 2.66749063e-03 1.25718233e-03
      5.68325492e-03 -4.96946916e-04 7.67732784e-03 1.11051032e-03
      1.95146177e-03 -2.05228664e-03 -4.88400692e-03 -2.83208676e-04
      -1.22304936e-03 1.15162157e-03 -1.55646747e-04 1.74823578e-03
      -3.85946641e-03 -1.84283778e-03 -1.60028075e-03 9.40744882e-04
      2.63525941e-03 -3.42830364e-03 4.92909411e-03 -1.70877343e-03
      3.43875447e-03 -1.37090031e-03 -8.46858509e-03 -2.97859730e-03
      5.52907353e-03 -5.89064613e-04</_>
    <_>
      2.33192986e-04 1.95774995e-03 2.81271641e-03 -2.05829507e-03
      1.24196068e-03 1.31659838e-03 5.16808534e-04 -5.43179849e-05
      -8.33133818e-04 -1.48019334e-03 4.15825984e-03 -1.37516635e-03
      -1.37698407e-05 -5.68472547e-04 7.11159490e-04 8.50398676e-04
      -9.22905281e-04 -3.03904968e-03 -4.76210444e-05 -7.53393397e-04
      2.88133603e-03 1.56120362e-03 5.44441119e-03 -4.38040635e-03
      4.75164969e-03 1.72990432e-03 1.08555355e-03 -2.16584536e-03
      8.14398169e-04 -1.23871956e-03</_>
    <_>
      -5.12712821e-03 4.71438654e-03 4.11854591e-03 2.29867455e-03
      -3.75361424e-06 -1.86534994e-03 4.54759505e-03 9.59661702e-05
      -1.17223873e-03 8.06866810e-05 -1.00525864e-03 -1.42365077e-03
      -1.05871563e-03 1.84052531e-03 -1.83584017e-03 3.75194917e-03
      -1.41707703e-03 -1.28069878e-04 2.61657126e-03 3.13411560e-03
      1.98530895e-03 -1.85423146e-03 7.31736468e-03 2.27928464e-03
      -3.90397455e-03 2.18212418e-03 -2.11128825e-03 3.19352228e-04
      -4.90965438e-04 2.03082245e-03</_>
    <_>
      7.15476042e-03 4.74397512e-03 4.66094818e-03 -3.79588059e-03
      -1.97178172e-03 1.16371701e-03 -6.06206188e-04 -1.75710768e-03
      3.88591085e-03 -1.29289960e-03 -1.36818248e-03 -7.75407767e-04
      -5.08228038e-03 1.27305370e-03 -7.77707493e-04 1.42371468e-03
      -9.90357832e-04 -6.78787881e-04 3.56530654e-03 1.54275156e-03
      1.18625013e-03 1.23580146e-04 4.15367633e-03 2.11724895e-04
      2.20212550e-03 4.16138326e-04 6.15823828e-03 -1.14612433e-03
      1.83234038e-03 2.63072271e-03</_>
    <_>
      2.70875427e-03 1.15736469e-03 1.57301896e-03 -6.27719332e-04
      3.83148436e-03 -1.82138954e-03 -4.48148884e-03 -1.78103242e-03
      2.20105075e-03 9.07804526e-04 6.68913475e-04 -1.48174807e-03
      -1.30377608e-04 1.45377358e-03 1.96274696e-03 4.36941598e-04
      -4.58665221e-04 -1.53766980e-03 -1.29459659e-03 1.39912567e-03
      -4.81194547e-05 -1.82425696e-03 3.88877699e-03 -2.19564745e-03
      2.65847752e-03 2.94158538e-03 -6.94881019e-04 -4.41589480e-04
      2.58202381e-05 6.91378955e-04</_>
    <_>
      6.35866169e-03 1.70015229e-03 -2.29614368e-03 -2.99174408e-03
      4.28069441e-04 5.80055530e-05 -2.38026143e-03 -2.82073137e-03
      -2.19371240e-03 -9.88270273e-04 -4.39631258e-04 -1.08986220e-03
      -2.73924670e-03 -3.88898014e-04 -1.87306118e-03 -1.31445759e-05
      -4.34511434e-03 -2.30424199e-03 -3.83678265e-03 2.35073478e-03
      4.54404578e-03 -1.22741959e-03 1.09977974e-03 -1.88257906e-03
      -1.77980249e-03 -1.11779384e-03 -1.63695740e-03 -1.47687655e-03
      -4.92826710e-03 2.50280928e-03</_>
    <_>
      -3.10990075e-03 -1.06888881e-03 5.15913730e-03 2.52615171e-03
      8.04495241e-04 3.03276698e-03 -9.67084488e-04 1.44395381e-04
      -3.56717454e-03 3.62165156e-04 5.68574760e-04 -5.76080289e-04
      3.96252424e-03 2.38340534e-03 9.73087270e-04 -2.64370901e-04
      1.13179407e-03 4.03760117e-04 -2.76249112e-03 3.45183793e-03
      -8.91931180e-04 2.08796142e-03 2.22711638e-03 5.87794988e-04
      6.39537768e-03 7.76080764e-04 2.94049224e-03 7.57148024e-04
      -2.05251086e-03 -2.03367020e-03</_>
    <_>
      -1.15163077e-03 1.53119932e-03 6.66473340e-03 7.87888712e-04
      3.34687298e-03 -3.52019281e-03 3.00546619e-03 -2.83454964e-03
      -2.38024956e-03 -3.61003703e-03 -1.79429026e-03 -2.48787645e-03
      -5.32205496e-03 7.77893001e-04 2.79383967e-03 1.04877117e-05
      -4.11028648e-03 -2.55265273e-04 7.88090809e-04 9.43299790e-04
      5.81681263e-03 1.34799513e-03 5.51379845e-03 1.69790597e-04
      5.87677816e-03 1.43338286e-03 -2.70924601e-03 -1.96881080e-03
      2.45435769e-03 1.68097753e-03</_>
    <_>
      -1.61422649e-03 -1.45950413e-03 -1.34570728e-04 -1.15563010e-03
      1.90793013e-03 -1.32519589e-03 -3.07947025e-03 -4.65719029e-03
      -7.28414961e-05 -2.85967160e-03 1.30845048e-03 -4.39794455e-03
      -4.41926299e-03 -2.23359047e-03 6.04711659e-03 1.29435910e-03
      9.21587343e-04 -2.88283511e-04 2.92554172e-03 1.88134145e-03
      1.74521923e-03 7.22922385e-04 -5.27665194e-04 -3.02439299e-03
      4.45119012e-03 6.17090147e-04 3.47971381e-03 5.84945490e-04
      1.66367285e-03 2.41325959e-03</_>
    <_>
      -1.08393561e-03 -2.06087809e-03 -4.45444632e-04 -1.54576753e-03
      2.68788869e-03 -1.85161072e-03 -1.26955129e-04 1.49239990e-04
      -3.80903808e-03 -7.81183538e-04 -1.28207577e-03 2.70956312e-03
      -5.52440506e-05 3.75873619e-03 1.20500091e-03 -1.39056984e-03
      -1.68423716e-03 1.46042462e-03 3.82848573e-03 1.66304165e-03
      1.22354331e-03 -4.75303328e-04 6.29058341e-03 -1.20003801e-03
      5.10506239e-03 -2.17803312e-03 2.37851909e-05 -6.50490168e-04
      1.19552424e-03 3.23877996e-03</_>
    <_>
      1.02146959e-03 2.46776594e-03 5.69457130e-04 -5.05064672e-04
      3.30921233e-04 5.74397855e-04 3.30491085e-03 -1.55775648e-04
      -1.17887382e-03 5.90472622e-03 -2.95921112e-03 -1.00118481e-03
      2.57194787e-03 -2.84448173e-03 4.19615442e-03 -3.37754842e-03
      2.40708049e-03 -8.22612958e-04 -2.32799281e-03 -6.21827960e-04
      -2.29029637e-03 4.12527937e-03 -1.02004141e-03 5.48410928e-03
      1.86176214e-03 1.14189566e-03 3.94230383e-03 2.61254422e-03
      -1.24382356e-03 5.00614475e-03</_>
    <_>
      -1.08480896e-03 -6.78496668e-04 7.07502695e-05 -2.46385374e-04
      6.36652485e-03 -1.84138061e-03 -5.62070217e-03 -4.29693697e-04
      4.84233955e-04 5.95261750e-04 -1.87067955e-03 -6.02111337e-04
      -7.15104397e-03 -3.68654233e-04 1.36220024e-03 -1.25557475e-03
      -2.87652155e-03 -4.10169829e-03 6.86125073e-04 1.36473926e-03
      -6.05534064e-04 -1.04318338e-03 3.55936878e-04 2.14983185e-04
      -2.53423234e-03 -7.14582566e-04 -1.60031486e-03 -9.88065382e-04
      8.20852729e-05 -1.10350503e-03</_>
    <_>
      -3.52699310e-03 -1.63981400e-03 -6.34176424e-04 -2.57528899e-03
      -2.66389747e-04 9.14513308e-04 -3.79204983e-03 -1.35350728e-03
      1.11180489e-04 4.48795618e-05 -1.26519043e-03 1.56847772e-03
      -5.06961113e-03 1.06723467e-03 -4.44603665e-03 -2.00041593e-03
      1.36634032e-03 8.19998735e-04 2.44586240e-03 -1.03123055e-03
      -8.89137969e-04 6.64249528e-04 1.98890571e-03 -2.67059868e-03
      5.24662501e-05 -3.94728995e-05 -1.03821361e-03 -1.41822931e-03
      3.46635170e-05 4.34091926e-04</_>
    <_>
      4.42025543e-04 -1.51376007e-03 7.96043721e-04 -3.78826424e-03
      5.43742848e-04 8.19240595e-05 -3.29043076e-04 4.02536709e-04
      -1.00748148e-03 1.47350691e-03 -2.39739683e-03 1.40474190e-03
      -9.02420667e-04 -2.75476649e-03 2.07557064e-03 1.59258765e-04
      2.92289397e-03 4.28090512e-04 2.44130427e-03 -9.23638465e-04
      -1.72500312e-03 1.47998764e-03 3.20039131e-03 -5.58652217e-04
      1.56517013e-03 3.51284049e-04 2.64526717e-03 9.57527722e-04
      3.18200863e-03 5.07714273e-03</_>
    <_>
      -1.66356796e-03 1.35474920e-03 -5.87118091e-04 -1.11520546e-03
      2.06072204e-04 9.17294994e-04 -2.30255956e-03 -4.08342667e-03
      3.56054516e-03 2.60506128e-03 2.34015868e-03 1.67525650e-04
      -3.39688454e-03 1.43574190e-03 2.58577848e-03 -3.75432963e-03
      3.38628772e-03 -3.05917521e-04 -2.04268354e-03 1.55402161e-03
      2.42545456e-03 2.50702072e-03 5.20965597e-03 3.15919053e-03
      7.18143536e-04 -5.71343931e-04 2.93461327e-03 1.14498322e-03
      7.92010047e-04 2.84316624e-03</_>
    <_>
      1.20599149e-03 -4.83894109e-04 -1.02336297e-03 -2.59320313e-05
      -5.49455232e-04 -1.85546442e-03 -1.05555973e-03 -4.33650147e-03
      2.80786608e-03 2.43784999e-03 -9.82176061e-05 1.37384224e-03
      -3.47731658e-03 -9.00378451e-04 7.77243622e-05 2.83905043e-04
      4.46137087e-03 -1.71353307e-03 3.78003553e-03 1.16095750e-03
      1.53635524e-03 2.37942976e-03 -3.07498354e-04 8.09553836e-04
      3.15768295e-03 -2.03148997e-03 8.12744256e-04 -1.81935015e-04
      5.41708432e-03 -6.41376479e-04</_>
    <_>
      -4.78805415e-03 2.72634882e-03 -4.96384688e-03 -6.57950121e-04
      5.72581426e-04 -1.01344741e-03 -1.23866799e-03 -2.59866589e-04
      3.21062573e-04 8.12369472e-05 -3.98567412e-03 2.06241803e-03
      -1.70185440e-03 2.18011625e-03 2.27732025e-03 1.78522756e-03
      -8.58719985e-04 2.84042791e-03 1.83608301e-03 5.83172252e-04
      8.69285665e-04 3.81832919e-03 -2.39073328e-04 -1.57297807e-04
      1.81546051e-03 1.51016051e-03 2.34632706e-03 1.78583048e-03
      2.17158184e-03 -1.79673452e-03</_>
    <_>
      1.69366031e-04 2.29406520e-03 -2.55421328e-04 -2.24150880e-03
      6.60547102e-03 -9.67802480e-04 -2.38289498e-03 -7.33683875e-04
      -1.18870114e-03 -2.28904348e-04 -2.29514990e-04 5.96547208e-04
      -8.57643841e-04 2.95526953e-03 -2.16477690e-03 -1.65233505e-03
      4.63979878e-03 1.65831088e-03 3.59137263e-03 -5.12532890e-04
      8.74338439e-04 -8.97453065e-05 4.33038687e-03 7.08168605e-04
      2.14966218e-04 1.48321455e-03 4.69524926e-03 -2.00500106e-03
      1.19170349e-03 1.49771062e-04</_>
    <_>
      -2.86204810e-03 -1.11042522e-03 3.34461499e-03 -1.34975056e-03
      -1.10816458e-04 -2.60706700e-04 1.02082232e-03 -9.46709886e-04
      8.82613938e-04 -7.71588588e-04 -4.61295154e-03 7.03632191e-04
      -6.70869742e-03 3.72921792e-03 -2.76493910e-03 -2.44834321e-03
      -1.75705133e-03 3.82631872e-04 -3.33241373e-03 2.70724972e-03
      -6.38459809e-04 -1.89619814e-03 2.26979819e-03 -1.79556967e-03
      -3.51385423e-03 -1.51918863e-03 -9.76315700e-04 -1.69770303e-03
      2.80777179e-03 9.89328371e-04</_>
    <_>
      2.48603267e-03 -2.46040203e-04 1.14656438e-03 2.05579144e-03
      2.17259373e-03 2.04177550e-03 3.58605362e-03 -2.17783707e-03
      1.74754439e-03 -8.12252401e-04 2.89507606e-03 -6.41221006e-04
      -2.27613584e-03 1.27387408e-03 -5.47327974e-04 -1.97008136e-03
      1.48309150e-03 -2.27597123e-03 4.37364884e-04 -4.76087537e-03
      -4.98922914e-03 -1.71998702e-03 2.82993948e-04 -8.85777932e-04
      2.10796180e-03 1.22110511e-03 2.51540495e-03 -1.97152072e-03
      3.22887278e-03 -9.99142299e-04</_>
    <_>
      -5.68497181e-03 7.31623382e-04 -8.71559198e-04 1.46384654e-03
      1.68244145e-03 1.99568807e-03 -2.03362782e-03 -1.29140052e-03
      -3.44651256e-04 -9.82544734e-04 -1.91480492e-03 4.46736871e-04
      -2.61264550e-03 -2.66613346e-03 -2.81262421e-03 -7.95678352e-04
      1.20543293e-03 1.02037471e-03 2.11854582e-04 -2.47016666e-04
      -2.85329018e-03 1.22805987e-03 3.42009502e-04 -7.49082363e-04
      -2.80645699e-03 -3.50899575e-03 1.10203132e-03 1.75904774e-03
      -1.06015781e-04 2.49896944e-03</_>
    <_>
      -7.17299641e-04 -2.61870469e-03 -7.19563756e-03 -4.27579135e-03
      -2.02933652e-03 -2.04533315e-03 -4.92483471e-03 -4.92458744e-03
      3.44388420e-03 1.92759722e-03 -1.03962573e-03 1.38215808e-04
      -6.12779940e-03 -1.20981084e-03 -1.83150161e-03 -2.87356274e-03
      8.59366904e-04 -1.90838211e-04 -1.79012620e-03 6.38426282e-04
      -5.37749007e-03 2.52669002e-03 2.10654433e-03 2.82451580e-03
      1.08421803e-03 5.54647821e-04 4.81764087e-03 2.95553124e-04
      4.00203094e-03 2.38535064e-03</_>
    <_>
      -2.90796277e-03 1.06387457e-03 -2.25823233e-03 -1.25040975e-03
      8.95112695e-04 1.06438885e-04 -4.87301406e-03 -3.38088837e-03
      1.73595524e-03 2.07458230e-04 -7.35563110e-04 -6.68974128e-04
      -4.81376192e-03 -1.98584772e-03 9.58964520e-04 -2.06927792e-03
      6.39031222e-03 -2.05856003e-03 -6.80318160e-04 3.98816948e-04
      -7.14910729e-03 -5.17078515e-05 4.23186691e-04 -2.03043199e-03
      -7.69278209e-04 7.01711979e-04 -2.72931240e-04 2.67263938e-04
      1.07982976e-03 -1.25988282e-03</_>
    <_>
      -7.64428580e-04 7.96796929e-04 -5.98304207e-04 -3.04485695e-03
      3.06621264e-03 1.91809831e-03 -3.82463145e-03 5.47763084e-05
      1.09038316e-03 6.29951828e-04 2.59148888e-03 -1.80134713e-03
      -4.34206100e-03 1.05740561e-03 -3.56186065e-03 -2.42407527e-03
      -3.82073666e-03 2.54320155e-04 -6.87080494e-04 -2.93475838e-04
      1.00675609e-03 -1.23740014e-04 -7.10213964e-04 2.33193208e-03
      -1.82544487e-03 -6.56261807e-04 4.26702638e-04 2.60507455e-03
      -3.63423559e-03 -8.78314197e-04</_>
    <_>
      4.95495733e-05 -2.13148375e-03 1.25916908e-03 1.72891014e-03
      3.95710301e-03 3.23439308e-04 -1.60218752e-03 -1.81355653e-03
      1.89113955e-03 1.42941673e-04 -3.18620983e-03 -1.16931868e-03
      -1.63305039e-03 -2.53959000e-03 -2.31388910e-03 -8.12909100e-04
      1.76999034e-04 4.48639970e-03 -1.87137839e-03 -1.25801668e-03
      -6.26645889e-03 4.68436687e-04 -1.85734499e-03 1.84764119e-03
      -2.43765782e-04 3.48680041e-04 -1.71194586e-03 -1.65648304e-03
      4.18262440e-04 -3.12118995e-04</_>
    <_>
      -5.93124144e-03 7.98694149e-04 -1.66089286e-03 1.57728547e-03
      5.35505032e-03 -2.96027074e-03 -1.07534940e-03 -2.03008251e-03
      3.05586890e-03 -7.49269035e-04 -3.41537781e-03 -7.19619507e-04
      -6.06430229e-03 -2.22583232e-03 2.65528704e-03 -8.34358216e-04
      -7.82328716e-04 5.79882508e-05 1.21732010e-03 -2.31587817e-03
      -1.38641440e-03 1.75347039e-03 -2.51852931e-03 2.77315150e-04
      1.74705766e-03 -1.03027327e-03 1.15811446e-04 -4.03196085e-04
      2.09126133e-03 1.50768459e-03</_>
    <_>
      -2.23288219e-03 8.04548654e-06 1.26610091e-03 4.27564792e-03
      -3.21791449e-04 8.05777207e-04 -3.77145503e-03 -1.58918265e-03
      5.58792672e-05 1.85869844e-03 4.13393747e-04 1.19508838e-03
      -3.17467330e-03 -7.74574350e-04 3.46410368e-03 2.01860350e-03
      3.43706738e-03 2.84470012e-03 3.45224864e-04 3.32739227e-03
      7.06026098e-04 2.68904772e-03 2.09525879e-03 -2.94773723e-03
      3.79080116e-03 -2.26009055e-03 3.26025393e-03 5.77415980e-04
      2.53167260e-03 -4.41684911e-04</_>
    <_>
      2.35845568e-03 4.93406830e-03 1.03121798e-03 2.12468766e-03
      -7.68395781e-04 4.93009994e-03 -5.20474277e-04 1.96975283e-03
      -2.79659103e-03 -2.23032257e-04 -2.29945336e-03 -1.69774180e-03
      -1.19565334e-03 1.38061831e-03 7.94022344e-04 -4.41475975e-04
      5.19821933e-03 6.79462042e-04 -8.42873380e-03 -4.61500697e-03
      -1.65381515e-03 2.99600419e-03 7.99753878e-04 9.34823533e-04
      -1.99075253e-03 -7.91930594e-04 2.97563267e-03 7.32978151e-05
      1.15935144e-03 5.99774125e-04</_>
    <_>
      4.82420018e-03 6.28735125e-03 3.13292979e-03 1.42618374e-03
      1.62422622e-03 8.28338671e-04 -2.08863337e-03 -6.98946009e-04
      5.98342437e-03 4.32838313e-03 -2.40260479e-03 -4.10206958e-05
      -5.37881220e-04 -3.79276345e-03 8.48073512e-04 8.36484367e-04
      -3.81454389e-04 -4.48897062e-03 1.88011094e-03 5.40260458e-04
      -1.01313228e-03 -1.72365617e-04 1.12224661e-03 7.17555778e-03
      -6.09561242e-03 -2.30393070e-03 1.05740409e-03 5.48771862e-03
      1.65960111e-04 6.34061653e-05</_>
    <_>
      -2.81478884e-03 2.00548093e-03 2.11549850e-04 1.70721253e-03
      1.15320308e-03 2.35467567e-03 -1.70065847e-03 1.17641909e-03
      3.79256532e-03 3.69464792e-03 -3.99891427e-03 1.92385213e-03
      -1.81575550e-03 -1.86239788e-03 2.40141130e-03 9.10227129e-04
      3.53068975e-03 -1.34777278e-04 2.34382646e-03 -6.43965963e-04
      -3.23840976e-03 -1.06403430e-03 1.74879286e-04 1.81735947e-03
      -4.48636431e-03 -1.73315161e-03 -9.96648101e-04 7.67913938e-04
      -2.15726299e-03 1.53711927e-03</_>
    <_>
      -1.01309374e-03 1.39147311e-03 2.44923728e-03 3.73239885e-03
      8.29889812e-03 1.07176369e-03 4.33590123e-03 1.53831686e-04
      -1.23880664e-03 -3.68284201e-03 9.90249682e-04 1.34466554e-05
      -7.77883315e-03 -8.51044024e-04 1.85009453e-03 4.44241537e-04
      7.34528899e-03 -3.29591008e-03 7.53103668e-05 -2.67723692e-03
      3.45346960e-03 -1.91546744e-03 -1.68146566e-04 1.34999445e-03
      -6.53316267e-03 -1.25762401e-03 2.99631804e-03 1.43046433e-04
      4.06592526e-03 8.84025823e-04</_>
    <_>
      2.05210643e-03 1.09548192e-03 3.60310456e-04 -1.87663897e-03
      9.00505285e-04 2.32108845e-03 -2.55113188e-03 -1.78655877e-03
      6.88860286e-03 3.41108162e-03 4.52215737e-03 1.51492085e-03
      -4.27544722e-03 -2.33898335e-03 -2.74368026e-03 -1.95213174e-03
      1.89942657e-03 -5.35886618e-04 1.75184279e-03 3.18067544e-03
      -1.12075114e-03 5.94082405e-04 4.37911088e-03 6.17318926e-03
      -2.92602554e-03 1.41171832e-03 2.84567778e-03 2.87765032e-03
      2.35778745e-03 2.42041750e-03</_>
    <_>
      5.92545199e-04 5.67442365e-03 -2.62076827e-03 -1.02634390e-03
      -7.44113931e-04 4.89969319e-03 -2.79768975e-03 -2.70256028e-03
      9.47181310e-04 3.08231334e-03 8.21225578e-04 4.45333601e-04
      -2.47905008e-03 -3.65186878e-03 1.13503204e-03 1.50091527e-03
      3.06131085e-03 5.26268734e-04 7.28938146e-04 1.08189636e-03
      -4.57389792e-03 7.17275077e-04 -2.85085710e-03 1.59295066e-03
      -3.86591349e-03 -2.31398200e-03 -1.78736972e-03 -1.83269719e-03
      1.55960955e-03 7.00738572e-04</_>
    <_>
      -7.66190584e-04 3.23597202e-03 3.32241622e-03 2.23436765e-03
      5.22315316e-03 3.50343995e-03 -4.13998682e-03 1.15413405e-03
      8.97488836e-03 1.19269418e-03 -2.93169427e-03 3.98014626e-03
      -5.31601720e-03 -2.29364866e-03 -2.26428252e-04 -2.55190558e-03
      -3.37630138e-03 -4.22988879e-03 3.14842025e-03 -1.22190604e-03
      -5.05548669e-04 1.47929194e-03 1.55127177e-03 2.70655332e-03
      -2.63079558e-03 1.40262593e-03 8.39659595e-04 4.12471173e-03
      6.92956964e-04 1.17972109e-03</_>
    <_>
      -2.77143647e-03 3.79328895e-03 -2.40841438e-03 -2.53614271e-03
      3.46555468e-03 4.26365156e-03 -7.66660844e-04 -3.74683738e-03
      -7.37945084e-04 1.03219564e-03 -8.93243938e-04 5.44200360e-04
      7.74531392e-04 1.19333703e-03 -4.80159512e-03 1.92617206e-03
      3.64795374e-03 -7.43995188e-04 4.41356888e-03 3.84869706e-03
      -3.35864211e-03 1.40881306e-03 1.88095169e-03 2.81087402e-03
      -1.26983994e-03 1.83173292e-03 -3.64920800e-03 4.07383050e-04
      -3.66085954e-03 1.21567643e-03</_>
    <_>
      -3.51398182e-03 1.99737563e-03 3.69869894e-03 -1.09478249e-03
      4.08578245e-03 1.54759071e-03 1.64695969e-03 -3.99689423e-03
      -3.29644559e-03 -1.27433159e-03 -2.93368474e-03 2.81743659e-03
      4.62224754e-03 -7.43208802e-04 7.70765217e-03 4.03429754e-03
      3.87427956e-03 -3.02194990e-03 2.38829548e-03 1.34672236e-03
      -1.03676540e-03 2.85593537e-03 -9.95090930e-04 -3.44522559e-04
      -1.99306244e-03 -2.10858020e-03 -2.84472504e-03 -2.71979393e-03
      2.46768910e-03 -2.09313515e-03</_>
    <_>
      3.46695632e-03 4.16230783e-03 -1.10042107e-03 -2.39556562e-03
      -4.84431133e-04 1.41697505e-03 9.72098438e-04 6.06072717e-04
      -2.31034798e-03 -1.33059628e-03 -4.65576397e-03 8.92660464e-04
      -3.25287203e-03 4.17300325e-04 -2.35694484e-03 1.21784084e-04
      -8.87819799e-04 -1.77210791e-03 1.07088394e-03 -9.76679614e-04
      -2.00684369e-03 -2.49310746e-03 -4.09788731e-03 2.46819179e-03
      -4.41667810e-03 -1.29212788e-03 9.75753122e-04 -1.24028896e-03
      4.74286778e-03 -1.38547656e-03</_>
    <_>
      1.28733099e-03 4.92768502e-03 -1.59991626e-03 6.80610246e-04
      3.46466526e-03 2.66440329e-03 2.18114979e-03 -2.82322825e-03
      2.16990965e-03 9.54015646e-04 4.78981849e-04 5.63235313e-04
      -1.90779800e-04 -2.99810991e-03 1.25281338e-04 3.39581678e-03
      1.43414247e-03 -9.66206659e-04 -1.84395001e-04 -1.73443032e-03
      5.04746707e-03 2.91498215e-03 6.78461511e-05 -2.99723004e-03
      -4.64036176e-03 5.36608160e-04 2.01532338e-03 -7.95015832e-04
      5.19472221e-03 -9.99529031e-04</_>
    <_>
      1.34391128e-03 7.96500652e-04 -8.50063865e-04 -1.49607589e-03
      -1.21106859e-03 2.42091529e-03 -3.10677104e-03 -2.93878606e-03
      -2.63005466e-04 2.55393941e-04 -2.14589690e-03 -2.44097449e-04
      -2.74512079e-03 7.16208539e-04 -2.01706309e-03 5.43549366e-04
      -1.29410462e-03 -1.96041702e-03 -4.51502528e-05 -3.69955250e-03
      -1.61701289e-03 7.22258876e-04 1.21058244e-03 4.62341448e-03
      -2.44894600e-03 1.41150074e-03 3.49910901e-04 2.76580523e-03
      -3.23235348e-04 4.54527792e-03</_>
    <_>
      2.66778120e-03 4.58419695e-03 -1.07895490e-03 3.20419832e-03
      8.11122265e-03 3.95153370e-03 2.90215015e-04 4.61958000e-04
      6.05336530e-03 4.97520110e-03 7.51854735e-04 3.57167912e-03
      -4.39015077e-03 -3.42360092e-03 9.37145378e-04 3.27467872e-03
      3.38543020e-03 -3.31730163e-03 -1.68534950e-03 2.25875922e-03
      -5.75889507e-03 -1.59061386e-03 -2.58704834e-03 2.00773426e-03
      -8.71393178e-03 -2.04947894e-03 -1.28203339e-03 -2.74171517e-03
      -1.30087050e-04 1.24904327e-03</_>
    <_>
      3.34100705e-03 3.17793223e-03 -3.63205490e-03 -1.19103875e-04
      1.02426333e-03 6.71693496e-03 2.03255564e-03 -1.03901012e-03
      1.02542725e-03 3.47907585e-03 -1.78528565e-03 -2.35046493e-03
      -1.76463404e-03 -1.76644803e-03 -3.49100959e-03 -1.05949363e-03
      -3.18769482e-04 -3.21629597e-03 1.67739915e-03 7.50570500e-04
      -2.22157105e-03 1.24127429e-03 -4.53654351e-03 4.42421297e-03
      -6.50597876e-03 1.38169184e-04 1.38861744e-03 1.46392721e-03
      -6.24077907e-03 -2.77844444e-03</_>
    <_>
      -4.17617476e-03 -1.73099793e-03 -9.12792806e-04 2.02951371e-03
      1.19567686e-03 5.76924533e-03 -5.59430150e-03 6.77158299e-04
      1.65023477e-04 7.62724783e-04 -1.75512431e-03 1.61351042e-03
      -3.17875738e-03 -5.80005464e-04 -6.85821811e-04 2.48449529e-03
      9.92570771e-04 4.21275618e-04 -4.63126041e-03 -2.86188396e-03
      -2.12035398e-03 2.08662497e-03 -2.19059316e-03 1.71042385e-03
      -3.30093520e-04 6.14607299e-04 -3.13756126e-03 3.80942342e-03
      1.31953857e-03 2.89245252e-03</_>
    <_>
      -2.54294067e-03 3.64764128e-03 4.95047774e-03 -6.45206601e-05
      -1.91570411e-03 2.00390443e-03 -1.24341395e-05 -4.74503543e-03
      -3.14002298e-03 -2.68021459e-03 -1.15002308e-03 -3.87179840e-04
      -1.82302855e-03 -6.73113065e-03 2.23626313e-03 4.40761307e-03
      2.89127603e-03 -4.64404793e-03 1.15033414e-03 -2.24583055e-04
      2.11733836e-03 3.28058796e-03 -3.30993487e-03 2.90968339e-03
      -4.44080960e-03 -3.59058543e-03 -6.84304675e-03 -1.24114938e-03
      2.95611774e-03 -2.60787993e-03</_>
    <_>
      -2.07089400e-03 2.32347264e-03 -6.07626338e-04 1.21841533e-03
      -6.85560517e-04 -3.04928748e-04 -5.81892487e-03 -1.27446663e-03
      -3.42777651e-03 1.27934071e-03 1.71623193e-04 7.89649261e-04
      -3.46352649e-03 -1.94062234e-03 1.30292261e-03 1.83063574e-04
      1.55002426e-03 -2.45634955e-03 -2.59067072e-03 3.49376700e-04
      -1.06459262e-03 -3.18218325e-03 -1.53696479e-03 1.97535381e-03
      -1.42563973e-03 -2.80147116e-03 -3.91716807e-04 7.86116463e-04
      2.45396816e-03 8.14822619e-04</_>
    <_>
      7.77597597e-04 -2.31412495e-03 3.64714838e-03 -1.18199456e-03
      8.44655267e-04 -1.55198143e-03 -7.71564664e-04 2.10662419e-03
      3.27287453e-05 2.60769762e-03 3.21857654e-03 1.12833711e-03
      -2.15876242e-03 2.89404090e-03 7.71099876e-04 5.50558791e-04
      -2.69479724e-03 2.19398970e-03 5.39946090e-03 3.33682774e-03
      5.64605417e-03 1.35036872e-03 8.25202325e-04 1.02284532e-04
      2.17948295e-03 2.57171614e-05 -3.10522062e-03 -1.35122833e-03
      1.28654228e-03 -1.44929602e-03</_>
    <_>
      5.31418715e-04 6.50976144e-04 6.61801256e-04 -2.40266975e-03
      -1.46961876e-03 -8.46629846e-04 -1.37574167e-03 -1.28725136e-04
      2.80270446e-03 -3.76991593e-05 -1.88551261e-04 1.92130124e-03
      -4.38716915e-03 -1.26406876e-03 -2.18341639e-03 8.93278280e-04
      -2.48139608e-03 2.65759858e-03 3.63015709e-03 4.36649425e-03
      -1.29370228e-03 1.27332541e-03 -1.02954335e-03 2.98936456e-03
      -2.52420246e-03 -3.07812355e-04 -5.87827340e-03 -2.99820327e-04
      -3.20762419e-03 2.55898526e-03</_>
    <_>
      6.05726801e-03 4.33372712e-04 3.37040611e-03 -1.18609983e-03
      2.73295306e-03 -2.24166957e-04 2.84443912e-03 -7.19053496e-04
      5.37700299e-03 -2.11919239e-03 3.20382952e-03 1.05432910e-03
      -4.17835684e-03 2.33241124e-04 -7.67051766e-04 3.00840568e-03
      -1.17972156e-03 8.37467494e-04 1.63050857e-03 -7.30955682e-04
      2.26135878e-03 -8.20218920e-05 1.43924833e-03 -9.44579020e-04
      -1.82573230e-03 8.01665941e-04 1.00925774e-03 1.68735744e-03
      2.90989177e-03 -8.51378602e-04</_>
    <_>
      -1.16059917e-03 -5.37689636e-03 1.84699893e-03 -3.56742390e-03
      2.58952403e-03 -1.80646265e-03 8.77742496e-05 -2.77107116e-03
      2.00038380e-03 -1.56006252e-03 2.29723635e-03 1.19369489e-03
      -4.41411790e-03 -2.86400854e-03 -5.29050303e-05 -5.17327525e-03
      -2.37859576e-03 3.19557206e-04 -2.20555486e-03 1.46863644e-03
      6.77371677e-03 6.50329108e-04 3.59118497e-03 2.21219705e-03
      3.11408914e-03 -3.64462240e-03 2.38278671e-03 -2.27692607e-03
      1.56542438e-03 -9.14439675e-04</_>
    <_>
      8.21798923e-04 -2.81768455e-03 3.49255919e-04 -4.86043515e-04
      2.02632765e-03 -2.33355747e-03 1.94333040e-03 8.37224303e-04
      1.64658122e-03 4.93398122e-03 2.52702460e-03 3.50857479e-03
      -3.33387731e-03 -9.69108136e-04 -1.64198515e-03 1.02052512e-03
      -1.65990938e-03 3.52213020e-03 2.69131549e-03 3.91869759e-03
      3.46319890e-03 7.02946156e-04 -1.75972236e-03 2.11676396e-03
      -1.56868843e-03 1.08926964e-03 -2.66690110e-03 -1.16886792e-03
      1.04768982e-03 1.83393469e-03</_>
    <_>
      4.93739382e-04 -4.59839976e-05 3.53925233e-03 5.61642600e-03
      -3.27530201e-04 -2.96858256e-03 1.00525685e-05 3.18236649e-03
      1.75047596e-03 -3.08277737e-03 1.83684414e-03 1.62456173e-03
      -6.23792503e-03 1.06055546e-03 -4.60777432e-03 -1.32292090e-03
      -2.50487309e-03 -4.13757423e-03 1.26360834e-03 2.05818587e-03
      9.48303379e-04 1.16244388e-04 -3.08116921e-03 1.31513167e-03
      -1.89454039e-03 -1.83524541e-03 -2.33531464e-03 1.25770888e-03
      -3.88882146e-03 -2.72866315e-03</_>
    <_>
      1.06021657e-03 -3.08354013e-03 1.38227304e-04 -2.05649319e-03
      2.37616408e-03 -6.49133278e-03 -2.81392899e-03 -1.16633310e-03
      4.86062054e-04 -6.35935133e-03 7.64322001e-03 8.14230926e-03
      -3.03561171e-03 1.46069028e-03 -7.91483384e-04 3.97718366e-04
      -8.36607302e-04 1.78774132e-03 5.62517671e-03 6.42647920e-03
      8.89655761e-03 -4.68014693e-03 -7.56574271e-04 2.21806741e-03
      -1.54951052e-03 -2.71763676e-03 -6.78049284e-04 1.68021827e-03
      -3.52345244e-03 -1.37670536e-03</_>
    <_>
      -1.55848975e-04 -4.50417353e-03 2.21695122e-03 -3.22612352e-03
      3.69613044e-05 -1.65574392e-03 -5.81270782e-04 2.23691529e-03
      6.49760012e-04 -4.19169944e-03 5.78399934e-03 3.43278795e-03
      7.31566513e-04 5.45101799e-03 -2.09719408e-03 1.82647083e-03
      -2.86442158e-03 1.83116947e-03 1.18377954e-02 4.96660965e-03
      2.57381774e-03 -2.19315849e-03 8.43776797e-04 -9.49138775e-04
      -1.16541935e-03 1.62621273e-03 -4.07063868e-03 -2.73495936e-03
      1.37934997e-03 -2.35343026e-03</_>
    <_>
      3.45054286e-04 -2.94015859e-03 5.58209233e-03 -3.47401155e-03
      3.08868825e-03 -2.36211158e-03 -1.12144009e-03 -4.64284327e-04
      1.54273584e-03 -1.38466957e-03 7.67214177e-03 -1.96494395e-03
      -3.64266313e-03 4.02809354e-03 -1.25177694e-03 -1.29935681e-03
      -4.93185082e-03 -8.52224475e-04 5.09318477e-03 3.12977284e-03
      3.20768566e-03 -8.90685886e-04 -2.02836329e-03 -4.15199390e-03
      -3.96498363e-04 -3.96229513e-03 -3.43435444e-03 -1.27314311e-03
      3.58630961e-04 -2.15752912e-03</_>
    <_>
      -1.10042060e-03 -1.56386453e-03 5.61230816e-03 1.08450418e-03
      4.47296334e-04 -1.80603703e-03 2.76374235e-03 -2.16313452e-03
      5.87032270e-03 -1.20299670e-03 3.77166644e-03 -2.21576091e-04
      -2.20536851e-04 -4.66356549e-04 -9.64596577e-04 -1.41875993e-04
      -1.09970954e-03 2.21712654e-03 4.32000216e-03 2.98700063e-04
      -1.38663672e-04 1.80091802e-03 5.25461801e-04 2.19955036e-04
      -2.64664134e-03 -1.91334786e-03 2.43082782e-03 8.30564590e-04
      5.26594988e-04 -1.08109892e-03</_>
    <_>
      2.61989166e-03 -3.98277713e-04 1.98167691e-04 1.27043622e-03
      -1.99646666e-03 -1.47918426e-03 -2.80701276e-03 -2.19583185e-03
      -6.72580791e-04 -2.96653807e-03 6.85522147e-03 4.47316095e-03
      -6.62699575e-03 1.97699293e-03 -3.19985417e-03 2.89773743e-04
      -1.17003266e-03 2.22625025e-03 -7.81128358e-04 2.57156626e-03
      5.28500777e-06 6.42764906e-04 -7.20398617e-04 3.08101211e-04
      1.09450091e-04 2.13971292e-03 1.12299761e-03 2.65854434e-03
      -1.19907619e-03 -2.64025363e-03</_>
    <_>
      4.24050912e-03 2.47134152e-03 1.59385637e-03 2.37996632e-04
      1.10449118e-03 -1.59751344e-03 -3.74700478e-03 -1.72786287e-03
      1.43884600e-03 3.21299391e-04 4.76111396e-04 -2.79999035e-03
      -4.50411905e-03 -2.25877739e-03 -5.09720156e-03 1.08063756e-03
      -4.91725467e-03 1.98492970e-04 2.53689918e-03 3.90792172e-03
      7.58254144e-04 -3.83098796e-03 -3.25921085e-03 2.27866741e-03
      -2.29339092e-03 -2.96808523e-03 -6.63519930e-03 -2.35165190e-03
      -7.29371735e-04 -1.25828222e-03</_>
    <_>
      6.00933097e-03 -5.41624089e-04 1.86573179e-03 -6.63819490e-03
      5.35122119e-03 -4.60041501e-03 -3.81807447e-03 -2.39655655e-03
      2.71624769e-04 -9.65477142e-04 3.92439775e-03 4.73393174e-03
      -5.84479712e-04 2.87872936e-05 -2.65931664e-03 -2.18174234e-03
      -4.42565326e-03 -2.01488705e-03 -4.70367057e-04 2.58336915e-03
      4.50743409e-03 -2.45447550e-03 2.77766353e-03 7.06837105e-04
      -4.81652591e-04 -9.59766388e-04 -4.33197292e-03 1.69613468e-03
      -4.79958300e-03 -4.78105666e-03</_>
    <_>
      -1.52312321e-04 -3.58981220e-03 5.68775600e-03 -2.37905513e-03
      1.42699166e-03 -1.22337556e-03 -1.20559870e-03 -1.59360119e-03
      3.29211983e-03 2.19047558e-03 3.48933786e-03 1.94310537e-03
      -2.61709938e-04 1.46681722e-03 -1.19388378e-05 -6.05645182e-04
      -5.03280957e-04 -1.81816553e-03 2.12385668e-03 5.19550638e-04
      4.49045794e-03 -1.11153786e-04 1.45625614e-03 6.04653360e-05
      1.25074887e-03 1.01549551e-03 9.59286466e-04 2.07991060e-03
      -3.13861482e-03 -1.73372054e-03</_>
    <_>
      4.02099336e-04 -4.60622105e-04 -3.78623023e-03 -3.54749011e-03
      3.90214170e-03 -7.57983886e-03 -1.17762924e-04 4.27422667e-04
      -1.18390052e-03 -3.47646791e-03 4.42060595e-03 2.92437151e-03
      -5.25916228e-03 -2.00513634e-04 -3.98385618e-03 3.70733044e-03
      -3.41548375e-03 1.41225333e-04 4.78313566e-04 1.27011328e-03
      2.12670653e-03 2.05838168e-03 2.12546787e-03 1.88657851e-03
      -5.11757331e-03 -1.13974267e-03 -5.04157087e-03 -8.37695727e-04
      1.76038488e-03 -1.10416079e-03</_>
    <_>
      -2.65918532e-03 -7.04330951e-03 4.92196437e-03 -1.86171208e-04
      3.64219747e-03 -6.85976993e-04 -4.40106681e-03 7.66389014e-04
      2.93564866e-03 -3.87023529e-03 6.74811564e-03 -1.62746466e-04
      -4.13620286e-03 -1.65092770e-03 1.73008919e-03 -5.59976557e-04
      1.04674895e-03 2.58096866e-03 4.57885116e-03 2.27039657e-03
      2.51787365e-03 8.63011592e-05 -1.54542108e-03 -3.36034107e-03
      -7.86508899e-04 1.44635024e-03 3.42451129e-03 -1.63545471e-03
      -7.19410484e-04 1.82776048e-03</_>
    <_>
      -1.05998042e-04 -1.02841703e-03 -3.83873959e-03 8.43574002e-04
      -1.70700811e-03 -1.05849886e-03 5.11120632e-03 -2.47374945e-03
      6.04027929e-03 -3.60598043e-03 3.17834457e-03 4.55626869e-04
      1.68794009e-03 -1.03924132e-03 9.96519695e-04 3.79051385e-03
      5.32116927e-03 -8.04758980e-04 -3.56236385e-04 -2.08975654e-03
      7.98879657e-04 2.35692528e-03 4.82926751e-03 9.42569313e-05
      -3.79536394e-03 -1.88903665e-04 -4.63322242e-04 -1.59333786e-03
      -2.89177289e-03 -4.48365434e-04</_>
    <_>
      -1.20365503e-03 3.61975719e-04 1.78506284e-03 2.26368036e-04
      -1.00366306e-03 -8.34011473e-04 1.76615594e-03 1.75747345e-03
      -1.13593438e-03 -6.18838298e-04 -2.82462453e-03 4.60093329e-03
      -3.19910492e-03 -2.86027003e-04 -2.19215127e-03 -1.40959013e-03
      3.83939524e-03 3.66359163e-04 -9.29585309e-04 -2.35482608e-03
      -3.07895290e-03 5.80689702e-05 1.89733587e-03 -2.24105455e-03
      -4.23927186e-03 -3.94247286e-03 -1.26376865e-03 -1.04184449e-03
      -2.19357829e-03 -1.95824285e-03</_>
    <_>
      -5.28944936e-03 -2.52688100e-04 -1.28999341e-03 8.38617736e-04
      -4.80820099e-03 2.06539524e-03 1.10350957e-04 -3.92862922e-03
      1.37898454e-03 -9.30901908e-04 -1.29596621e-03 1.77292328e-03
      -1.57523958e-03 -7.16244045e-04 2.73154373e-03 1.71722868e-03
      4.12988942e-03 1.06600393e-03 -1.34673389e-03 -3.93919274e-03
      -1.96577399e-03 -9.73544811e-05 -2.99037364e-03 3.90486122e-04
      -4.83484613e-03 1.13135867e-03 2.87810434e-03 3.48289614e-04
      -4.37719515e-03 4.27341642e-04</_>
    <_>
      1.04656327e-03 3.28946699e-05 -1.77868037e-03 3.43095534e-03
      -1.49886846e-03 -1.08521292e-03 2.33646994e-03 -5.86047594e-04
      -3.21209873e-03 2.81956833e-04 -1.90020527e-03 1.59125170e-03
      8.57592444e-04 -3.52711044e-03 -9.31662216e-04 1.23575714e-03
      2.60622799e-03 -5.32087812e-04 -1.10007392e-03 -6.84183382e-04
      2.44787574e-04 -1.25836453e-03 -1.10777281e-03 -3.53598851e-04
      -4.73414175e-03 -9.95078823e-04 4.30155837e-04 -1.85739505e-03
      -1.19066297e-03 -2.44181650e-03</_>
    <_>
      -4.01231786e-03 2.55750446e-03 2.63780891e-03 5.83180517e-04
      1.99437584e-03 1.80263456e-03 2.20904453e-03 -1.02925602e-04
      -1.09037058e-03 -2.79225199e-03 -1.97153795e-03 2.59257550e-03
      2.11850414e-03 4.19327663e-03 2.43084296e-03 7.70924555e-04
      1.06343033e-03 -8.26184987e-04 3.83733935e-03 6.80938968e-03
      7.65296747e-04 4.42693383e-03 -6.88358996e-05 -1.39556057e-03
      5.07821422e-03 6.21459796e-04 2.79726490e-04 2.26404471e-03
      -3.07575637e-03 3.30647896e-03</_>
    <_>
      7.10426548e-06 1.59358722e-03 -3.98457190e-03 -1.66929956e-03
      9.75412491e-04 7.15610047e-04 1.94606325e-03 -3.52020026e-03
      -5.31566096e-03 -4.50485758e-03 -7.09607848e-04 2.14819214e-03
      1.98946858e-04 1.68208452e-03 -4.38406365e-03 1.05889502e-03
      5.91971679e-03 7.01870769e-04 3.17371450e-04 -1.23002857e-03
      -1.36812381e-03 7.51963118e-04 1.45902322e-03 2.43935944e-03
      -7.35572632e-03 7.23484729e-04 -7.20139942e-05 -2.84748804e-03
      -3.07759759e-03 -2.20378418e-03</_>
    <_>
      -5.64877351e-04 -6.56391378e-04 -8.02382652e-04 6.32425188e-04
      3.66257201e-03 -1.79843442e-03 5.11042727e-03 -1.29234768e-03
      -2.98795145e-04 -2.48363684e-03 -3.51948570e-03 2.28527002e-03
      -1.08955533e-03 1.17797847e-03 -3.68592469e-03 2.43909936e-03
      -2.28456082e-03 -1.63697905e-03 -3.01796547e-03 4.00134275e-04
      -3.99081316e-03 -2.50202580e-03 1.07975479e-03 -7.34689413e-04
      -4.14456334e-03 1.43633899e-03 -2.14024936e-03 -1.50462426e-03
      -1.66649965e-03 -1.76671334e-03</_>
    <_>
      -1.55930093e-03 2.03051092e-03 1.09292963e-03 1.90165461e-04
      -6.47512934e-05 -2.22623162e-03 4.37196810e-03 1.18571310e-03
      3.86838475e-03 -1.94589363e-03 2.86112959e-03 1.55354722e-03
      3.03233578e-03 5.74307051e-04 -4.95909189e-04 -3.14453756e-03
      2.49901344e-03 8.51128541e-04 1.16283691e-03 1.28788478e-03
      -4.44762455e-03 1.78788812e-03 -1.29020610e-03 -1.31294178e-03
      8.76592007e-04 6.56989170e-04 3.76870506e-03 -1.49988302e-03
      2.14937655e-03 -7.92469480e-04</_>
    <_>
      -3.22206342e-03 -7.40624600e-05 1.45936501e-03 2.33335467e-03
      -9.82972197e-05 1.51623238e-03 7.24007702e-03 -2.96811853e-03
      3.75845865e-03 -3.28345108e-04 3.21805687e-03 1.46795332e-03
      3.19534377e-03 -2.35744752e-04 -4.48777922e-04 1.00767473e-03
      1.99863221e-03 2.20406204e-04 4.26954683e-03 -2.04412872e-03
      -2.92982580e-03 2.02491228e-03 4.43735044e-04 -1.14107411e-03
      -6.29036501e-03 -2.10409565e-03 -4.89752565e-04 -2.43720831e-03
      1.50015578e-03 1.89225143e-03</_>
    <_>
      3.55016836e-03 -3.15738551e-04 8.52008307e-05 1.74369535e-03
      1.64558459e-03 1.13912538e-04 5.88160083e-06 -6.52091345e-04
      4.44429606e-04 -1.70536817e-03 -9.20237508e-05 9.75032686e-04
      -4.90649370e-04 4.97697387e-04 1.13103958e-03 2.23332248e-03
      2.41840491e-03 1.81771477e-03 -6.02464518e-03 -2.32398580e-03
      -1.47643709e-03 1.56313472e-03 9.94950300e-04 -2.39398633e-03
      2.20529013e-03 9.74996598e-04 3.38564347e-03 2.12619407e-03
      3.76615534e-03 -7.83273834e-04</_>
    <_>
      1.88440352e-03 -9.15720360e-04 -1.78041053e-03 1.00205455e-03
      5.99792972e-03 -9.06255096e-04 2.44380231e-03 -3.75430519e-03
      5.33249462e-03 -4.09171589e-05 1.17433118e-03 9.38261917e-04
      7.09790475e-05 -1.61121099e-03 8.15147941e-04 2.66280770e-03
      7.51976715e-03 8.17370543e-04 -4.96534863e-03 9.96559858e-04
      -5.98366931e-03 -4.34742915e-03 3.33370036e-03 -6.57371769e-04
      -3.19505576e-03 9.73979593e-04 1.03474048e-03 2.91494274e-04
      -9.43161795e-05 -8.43493472e-05</_>
    <_>
      -4.63003060e-04 2.12033885e-03 6.09450042e-04 1.86816859e-03
      2.25725374e-03 -3.24128283e-04 -1.62615022e-03 -1.67716655e-03
      5.63330541e-04 5.03656571e-04 2.33288883e-04 1.14635599e-03
      2.13889708e-03 -6.35523465e-04 -2.82526901e-03 7.93970074e-04
      -9.94590693e-04 -5.58868342e-04 -2.01993273e-03 1.74547968e-05
      -1.36584858e-03 6.35965029e-04 -5.86568424e-03 4.19400429e-04
      -3.53543484e-03 -1.70865201e-03 -2.94518610e-03 -8.20400019e-04
      -2.32469896e-03 -7.84660049e-04</_>
    <_>
      -1.04745210e-03 -4.03211126e-03 -9.90883273e-05 9.90237386e-05
      -1.92195654e-03 1.11053942e-03 -1.62801181e-03 -2.63925083e-03
      4.01888508e-04 -1.40578253e-03 -2.33635050e-03 2.12170067e-03
      1.80676801e-03 -1.01434649e-03 -1.54417078e-03 -1.14917010e-03
      4.06691665e-03 1.41508866e-03 -3.70865595e-03 -1.25346007e-03
      -4.56767902e-03 8.26627249e-04 -1.29960862e-03 2.12782971e-03
      1.08453236e-03 -6.22369116e-05 2.53129541e-03 -2.71696947e-03
      2.31169528e-04 -1.87092333e-03</_>
    <_>
      -2.78702844e-03 -2.60371482e-03 7.37121853e-04 5.79446147e-04
      -4.43524885e-04 7.15013826e-04 -3.70921264e-03 -3.00747040e-03
      -3.09541123e-03 -2.56247888e-03 6.43118809e-04 7.55204062e-04
      -4.01578797e-03 -3.57560255e-03 1.01990218e-03 4.21235012e-03
      4.74127382e-03 -4.06025210e-04 -1.37797755e-03 -1.81498157e-03
      -5.10166574e-04 1.56966236e-03 2.46043107e-03 1.58082601e-03
      -4.26133676e-03 -9.62493184e-04 -4.09593014e-03 -5.72199169e-05
      -1.82707456e-03 -8.38557666e-04</_>
    <_>
      -4.32866439e-03 -9.82287107e-04 3.87449702e-03 3.41917528e-03
      -1.61375792e-04 1.00338750e-03 -3.01600993e-03 -3.33773438e-04
      -4.29954426e-03 -2.58716103e-03 7.26339873e-04 -1.75919951e-04
      -6.76074112e-03 5.98945597e-04 1.04869716e-03 8.99776525e-04
      -1.94170140e-03 7.32759770e-04 -2.94744340e-03 9.63357452e-04
      -1.23149774e-03 3.08098062e-03 -8.10441561e-04 -3.01095797e-03
      -1.79805537e-03 1.59120606e-03 2.84244912e-03 -5.17320412e-04
      3.83435981e-04 8.93628225e-04</_>
    <_>
      1.31260150e-03 7.38864241e-04 1.82519900e-03 -1.79449993e-03
      1.86457078e-03 8.21865629e-04 4.30166954e-03 -2.53686146e-03
      1.11806359e-04 -4.46322432e-04 -2.41351011e-03 -3.16075468e-03
      -2.99359905e-03 -1.59903942e-03 -1.65167137e-03 -2.53491942e-03
      2.83851661e-03 -1.12804142e-03 2.31456431e-03 -7.22374534e-04
      9.24360531e-04 -7.10353837e-04 -9.31142305e-04 -1.68419408e-03
      1.62695569e-03 5.76364073e-05 4.60110698e-03 1.68983010e-04
      1.35105778e-03 -2.95399316e-03</_>
    <_>
      7.84575299e-04 -2.67536077e-03 4.24115267e-03 1.29545631e-03
      -2.33414373e-03 7.13928719e-04 -6.49831374e-04 -2.05251016e-03
      -2.09457381e-03 -7.52370572e-04 -3.12554650e-03 -2.42333772e-04
      -5.66562964e-03 -3.49335198e-04 4.98716300e-03 -2.13263556e-03
      2.62556574e-03 1.64361089e-03 -1.14401942e-03 2.40772124e-03
      3.12543451e-03 -2.05169455e-03 2.27154745e-03 5.06542507e-04
      2.28345022e-03 4.98078065e-04 5.75384963e-03 -4.90671722e-04
      4.36228979e-03 2.82439636e-04</_>
    <_>
      1.94029021e-03 2.31861719e-03 2.16529914e-03 1.95483305e-03
      2.51373858e-03 1.17006584e-03 -6.12235337e-04 3.07133247e-04
      -2.20739492e-03 1.37577427e-03 2.17570574e-03 3.41355917e-05
      -7.61720468e-04 3.60542326e-05 -1.99936074e-03 6.70247420e-04
      3.60195583e-04 -9.49889713e-04 1.15374010e-03 1.38602278e-03
      2.62142881e-03 2.09487602e-03 -3.48166883e-04 -8.61039443e-04
      5.74381882e-03 3.47283087e-03 1.89343141e-03 7.65945588e-04
      5.87131968e-03 -7.22490367e-04</_>
    <_>
      -1.48327410e-04 2.55922019e-03 1.96944084e-03 3.37195001e-03
      2.72901659e-03 6.03736669e-04 1.04570738e-03 6.82856131e-04
      -6.83822669e-04 -2.23959354e-03 -1.45983917e-03 -9.73495131e-04
      1.14345644e-03 -2.01179879e-03 -2.66504212e-04 -1.15481974e-03
      2.24835603e-04 9.01927066e-04 -3.00699077e-03 2.68937182e-03
      1.27758179e-03 -8.72578705e-04 -2.87727779e-03 -9.00876243e-04
      6.40763482e-03 1.51187298e-03 3.89553257e-03 1.15194242e-03
      2.02003634e-03 -8.79449130e-04</_>
    <_>
      -3.32521647e-03 2.39284663e-03 -2.40676478e-03 8.53873091e-04
      6.60147332e-03 3.09197727e-04 -8.29928671e-04 -7.54444773e-05
      -4.82083205e-03 -2.39633882e-04 6.86509360e-04 2.97662569e-04
      8.28691584e-04 4.61726217e-04 -5.32479212e-03 -2.45473091e-03
      1.61440915e-03 7.93500512e-04 -1.02609152e-03 2.07472034e-03
      1.34986616e-03 6.51263807e-04 -1.36460364e-03 1.17645296e-03
      -1.35091098e-03 2.00493750e-03 3.12715583e-03 -1.17744191e-03
      -1.81198283e-03 -6.81938080e-04</_>
    <_>
      -1.13254564e-03 3.91745986e-03 -2.26798020e-05 1.22024969e-03
      -9.23288579e-04 -1.70910975e-03 3.12203192e-03 1.41207234e-03
      3.16952617e-04 -6.82191981e-04 5.71114128e-04 3.83696926e-04
      -1.60008646e-03 9.47289343e-04 -1.48784835e-03 1.87555049e-03
      -4.39141504e-03 2.59979535e-03 -2.94214766e-03 3.59368464e-03
      -1.81381218e-03 -1.79447862e-03 2.44479626e-03 -2.48799543e-03
      1.22325704e-03 3.04895034e-03 2.37247645e-04 -1.68917293e-03
      -2.87883147e-03 -2.56048352e-03</_>
    <_>
      -4.46346035e-04 1.79120724e-03 2.81356229e-03 -6.37445133e-04
      4.11617802e-03 -1.34037016e-03 4.77856398e-03 5.16226399e-04
      2.34820662e-04 -1.36680785e-04 6.26573991e-03 4.38398216e-04
      -5.25419309e-04 3.50831484e-04 -4.32731817e-03 -1.18952873e-03
      -2.17327644e-04 3.07343522e-04 -1.89096644e-03 1.87651918e-03
      -6.58169272e-04 1.77742401e-03 -4.95447312e-04 -1.81440497e-03
      5.80173871e-03 6.55150507e-04 -1.03653094e-03 -2.03347113e-03
      4.20405483e-03 -1.79214403e-03</_>
    <_>
      -1.64342532e-03 1.86621305e-03 1.36223249e-03 1.24307466e-03
      9.72717011e-04 -3.58641683e-03 3.47665534e-03 3.20540130e-04
      7.01700628e-04 -1.20275444e-03 4.28038649e-03 -2.51926621e-03
      -5.14774024e-03 -2.15051766e-03 -2.02040398e-03 -1.36205333e-03
      -8.22376343e-04 -1.20885577e-03 -1.53918064e-03 -1.14414678e-03
      2.36483407e-04 -1.95539114e-03 -1.32605666e-03 -7.43155717e-04
      1.74691936e-03 8.98664817e-04 4.23183944e-03 -1.54534960e-03
      1.59539771e-03 -1.41579786e-03</_>
    <_>
      4.41008899e-03 -7.96543682e-05 1.64877414e-03 -2.66839238e-03
      7.58617418e-04 -2.98048346e-03 -1.20874436e-03 -2.92102573e-03
      8.47735035e-04 -3.75235395e-04 4.22053458e-03 -3.14252544e-03
      -4.47972910e-03 -8.15341657e-04 -3.99772124e-03 -2.70164781e-03
      5.16376132e-03 2.49887258e-03 -1.09200994e-03 -1.41168421e-04
      -1.93892058e-03 -2.26648245e-03 -2.39790208e-03 -7.55677000e-04
      5.38503146e-03 2.19826750e-03 2.42822617e-03 -2.49871751e-03
      4.40057414e-03 -2.39054300e-03</_>
    <_>
      1.52212312e-03 9.41130391e-04 1.69449707e-03 -5.06292447e-04
      6.07560296e-03 1.94814161e-03 2.22893152e-03 9.72297159e-04
      2.10651942e-03 4.19059477e-04 5.08113706e-04 -2.15519359e-03
      -2.27726414e-03 -1.87170261e-03 1.30480994e-03 7.04668870e-04
      4.17191582e-03 -7.49307743e-04 -2.00274400e-03 1.89634011e-04
      -4.63356171e-03 -2.85497925e-04 -1.56764942e-03 -1.39337545e-03
      2.10287585e-03 1.06626598e-03 -1.53562031e-03 -2.41043186e-03
      1.02946919e-03 -2.43251896e-04</_>
    <_>
      6.83581550e-03 1.38239213e-03 1.53590587e-03 -2.11961241e-03
      5.55795291e-03 -1.28392316e-03 -9.81203862e-04 2.26218323e-03
      -1.44840474e-03 -1.54359499e-03 3.55984969e-03 -2.82701396e-04
      -1.56828009e-05 1.89468847e-03 3.92762915e-04 3.08168528e-05
      -2.99799303e-03 -1.98129332e-03 -3.01964860e-03 -2.85967544e-04
      3.33090802e-03 -1.98881095e-03 -2.10759346e-03 -2.78334919e-05
      3.38552473e-03 -1.44441403e-03 1.51894952e-03 4.42230667e-04
      -3.60037223e-03 -1.24164368e-03</_>
    <_>
      1.01199478e-03 -2.15430278e-03 8.14558566e-03 6.60071746e-05
      1.82002515e-03 5.10240730e-04 -1.70032494e-04 -7.31985929e-05
      -3.04009230e-03 3.31187068e-04 1.61068374e-03 -6.21329062e-04
      7.25192076e-04 1.77527789e-03 2.03528395e-03 -2.84573878e-04
      -1.07845815e-04 2.16440135e-03 -5.91324829e-03 -2.24479081e-04
      -1.18332636e-03 -2.72893867e-05 -4.34245681e-03 1.68657847e-04
      5.76215098e-03 2.28685676e-03 8.88555078e-04 -1.37693994e-03
      4.16716235e-03 -4.73167049e-04</_>
    <_>
      2.65431590e-03 3.38355824e-03 4.47115861e-03 1.66244654e-03
      1.70370564e-03 1.84074481e-04 5.19506168e-04 -1.23379356e-03
      -2.20900704e-03 1.70312799e-03 -1.24727580e-04 -8.75270285e-04
      -5.60711790e-03 -1.31873903e-03 6.54871546e-05 6.54633797e-04
      -1.56484905e-03 1.26322603e-03 4.25361213e-04 2.24116072e-03
      2.54882011e-03 -1.41203089e-03 -5.03845687e-04 5.86535956e-04
      6.94533903e-03 1.56063167e-03 -3.82517203e-04 -3.60202556e-03
      5.84267266e-03 -2.10615247e-03</_>
    <_>
      -1.42755359e-03 1.84378377e-03 1.81101484e-03 4.23307624e-03
      1.96302286e-03 2.96357000e-04 1.65723509e-03 3.34354729e-04
      -1.18118199e-03 5.85612375e-04 4.18768218e-03 -2.62931758e-03
      -8.43891222e-03 1.37060985e-03 -2.12494936e-03 -7.17496034e-04
      2.13019830e-05 8.20116431e-04 -2.33876007e-03 1.33798074e-03
      1.48469128e-03 -2.88271834e-03 -1.19192072e-03 -6.04017125e-03
      1.97797851e-03 1.77322293e-03 7.27371685e-03 -2.03903555e-03
      5.17177861e-03 -1.84754771e-03</_>
    <_>
      7.87707613e-05 1.74287154e-04 -8.15877225e-04 1.17227354e-03
      -2.77525326e-03 1.20357152e-04 -2.95876665e-03 -2.97539611e-03
      1.67604408e-03 6.95275012e-05 9.06412679e-05 -1.73073984e-03
      -8.65425682e-04 1.52802933e-03 1.92528780e-04 -2.36203521e-03
      -3.42470710e-03 -3.11810174e-04 -3.43024521e-03 9.38290032e-04
      1.94316613e-03 -1.95917417e-03 -1.17793202e-03 3.18215741e-03
      1.66137342e-03 -2.42463639e-03 -2.55309977e-03 1.31572539e-03
      -3.67462839e-04 5.08604571e-04</_>
    <_>
      -8.90770694e-04 -2.61551328e-03 -1.02851111e-04 -1.04180165e-03
      7.52700551e-04 -3.33313784e-03 -3.30697326e-03 -2.07248190e-03
      5.59359929e-03 2.46636948e-04 2.30751582e-03 1.01476756e-03
      1.90015300e-03 -2.98476516e-04 5.49413206e-04 1.51351630e-03
      6.74339244e-04 1.80065120e-03 -4.09775123e-04 5.22402115e-04
      3.09516164e-03 4.95240907e-04 1.95742026e-03 5.25640091e-04
      4.36602067e-03 -1.28122175e-03 -3.06378864e-03 -1.20344583e-03
      6.11089403e-03 1.31508906e-03</_>
    <_>
      -4.32473142e-03 3.15164006e-03 -1.61797821e-03 3.45271640e-03
      2.56916927e-03 3.69474711e-03 4.29477950e-04 -1.28132466e-04
      2.98141479e-03 -7.35059206e-04 3.67540494e-03 1.33904105e-03
      4.16190596e-03 4.76511149e-03 -1.03527203e-03 1.24445965e-03
      -3.61774210e-03 1.67514011e-03 -1.15548063e-03 4.31328692e-04
      4.03374620e-03 1.44419121e-03 -1.84976030e-03 9.50283313e-04
      4.23864782e-04 -1.22471317e-03 3.36782006e-03 1.37979951e-04
      1.90764142e-03 -5.49201155e-04</_>
    <_>
      -1.31294888e-03 2.84925802e-03 -2.71012145e-03 -2.53153208e-04
      1.36081874e-03 5.41676069e-04 -2.51866644e-03 -2.69518839e-03
      -7.49805535e-04 -1.82392122e-03 4.52166470e-03 3.99144506e-03
      2.94696121e-03 2.38545425e-03 -2.82638270e-04 2.83457665e-03
      7.97602534e-03 3.54662741e-04 -2.11337255e-03 5.69089176e-03
      3.28540082e-05 -1.02378230e-03 -1.77241291e-03 3.09144869e-03
      -4.03976953e-03 2.05455604e-03 -6.29819056e-04 2.78962147e-03
      -7.86377990e-04 1.84257736e-03</_>
    <_>
      -3.78646585e-03 -1.46592897e-03 -1.72928674e-03 -4.06740187e-03
      3.47895338e-03 1.53746339e-03 3.39524681e-03 -1.99676165e-03
      7.88142715e-05 -1.24434417e-03 2.90961703e-03 5.58222597e-03
