<?xml version="1.0"?>
<opencv_storage>
<opencv_ml_svm>
  <format>3</format>
  <svmType>C_SVC</svmType>
  <kernel>
    <type>RBF</type>
    <gamma>3.3750000000000002e-02</gamma></kernel>
  <C>2.5000000000000000e+00</C>
  <term_criteria><iterations>100</iterations></term_criteria>
  <var_count>58</var_count>
  <class_count>2</class_count>
  <class_labels type_id="opencv-matrix">
    <rows>2</rows>
    <cols>1</cols>
    <dt>i</dt>
    <data>
      1 19</data></class_labels>
  <sv_total>72</sv_total>
  <support_vectors>
    <_>
      8.46811533e-01 4.06013584e+00 4.90158916e-01 1.14545345e+00
      1.64788377e+00 -1.06428385e+00 -4.36688602e-01 2.88876623e-01
      -7.50197694e-02 -5.91752529e-01 -8.94704759e-02 1.71695530e-01
      1.27983212e-01 -9.51957852e-02 5.79966605e-01 1.40848911e+00
      6.80368483e-01 -5.36914095e-02 -5.42343318e-01 1.14730024e+00
      1.30765355e+00 -3.83043319e-01 8.44838172e-02 -1.78065881e-01
      1.62786290e-01 -2.26052050e-02 -2.80359745e-01 2.62505352e-01
      -1.16933221e-02 -1.25287846e-01 -1.73536509e-01 -1.20586320e-03
      5.97419590e-02 -2.01320797e-01 -1.00803241e-01 3.74026857e-02
      4.37171936e-01 -5.81340753e-02 4.50421482e-01 -5.28292358e-01
      -1.85946018e-01 3.20163399e-01 3.76303792e-01 4.24898446e-01
      1.04602426e-01 -1.75832152e-01 -1.76614463e-01 2.98841029e-01
      -8.21957141e-02 6.88480288e-02 -2.97748409e-02 1.14330351e-01
      1.49607465e-01 -3.34531754e-01 -1.55083552e-01 -2.04897359e-01
      -1.49220629e-02 -3.42053533e-01</_>
    <_>
      2.12373614e+00 -7.50237286e-01 -1.91083038e+00 8.60346675e-01
      -9.32424545e-01 7.83880591e-01 5.14170468e-01 -3.45311463e-01
      8.49277601e-02 -8.94311294e-02 -4.41806972e-01 6.01705968e-01
      5.76178074e-01 -1.50228456e-01 6.77693367e-01 -1.16988026e-01
      1.26821101e+00 1.31447411e+00 -2.49712661e-01 -6.33782685e-01
      1.12547345e-01 4.93423223e-01 1.55124277e-01 7.65051067e-01
      2.52508402e-01 -5.92710197e-01 2.01813638e-01 6.28920734e-01
      -1.49484307e-01 -1.40446559e-01 2.94774264e-01 3.70802134e-02
      -7.85305537e-03 1.06922701e-01 -1.25644922e-01 -3.71992700e-02
      1.14752213e-02 7.27569461e-02 1.34787336e-01 -1.94319382e-01
      -7.16465041e-02 -7.46108033e-03 2.79205143e-01 -9.29242224e-02
      -2.29119897e-01 1.82564542e-01 -4.31033261e-02 -1.08689629e-01
      -2.85947502e-01 7.00794458e-02 3.90079035e-03 1.08377123e-02
      -2.52830297e-01 -7.95189217e-02 5.01089618e-02 5.76498844e-02
      3.65935005e-02 1.93624616e-01</_>
    <_>
      2.23825765e+00 1.62656039e-01 2.21650767e+00 -1.50962996e+00
      -2.10386682e+00 -1.42375755e+00 2.18282008e+00 8.11952472e-01
      -2.72939265e-01 1.85589731e-01 -1.39063708e-02 8.91504049e-01
      -9.07994628e-01 -6.24309838e-01 -6.46486461e-01 3.77546370e-01
      -2.77392771e-02 -5.89836657e-01 -3.56838733e-01 7.08390325e-02
      6.81129813e-01 1.21390171e-01 -1.45690935e-02 7.45296955e-01
      1.49792120e-01 -1.42447770e+00 -6.96912587e-01 -1.20458019e+00
      -1.85744569e-01 4.96093184e-02 -1.99829280e-01 -5.83628677e-02
      -1.75428212e-01 -1.06108226e-01 5.33221960e-01 -8.16726446e-01
      7.93806374e-01 5.35103559e-01 -7.48533964e-01 -1.70611799e-01
      2.62842029e-01 -6.26390338e-01 1.56767845e-01 7.19288886e-01
      3.21139842e-01 6.76692843e-01 -2.45501146e-01 2.90500671e-01
      4.31995839e-01 -7.22156227e-01 -2.66089976e-01 6.45567551e-02
      1.73691973e-01 2.34965324e-01 3.72954637e-01 4.25261632e-02
      2.11572330e-02 4.68525253e-02</_>
    <_>
      2.25872326e+00 -1.58493078e+00 -3.90963107e-02 -4.12010223e-01
      -1.18868065e+00 -6.35870755e-01 -6.76433265e-01 -1.64866602e+00
      -8.24690089e-02 -5.37613273e-01 5.23929298e-01 -1.55712569e+00
      -2.85335779e-01 4.29485857e-01 -1.00184762e+00 -1.50328732e+00
      -2.82356083e-01 3.18319172e-01 -5.99266768e-01 6.17363974e-02
      1.19347131e+00 6.54852763e-02 -2.63460994e-01 -1.76099062e-01
      4.50029016e-01 4.05216068e-01 -6.22857988e-01 -8.18704292e-02
      -1.79712623e-01 2.25709677e+00 -4.31633115e-01 -5.72388954e-02
      -5.58183752e-02 1.03217399e+00 -3.39451700e-01 2.35034898e-01
      4.23841923e-01 -2.21551374e-01 -1.91836637e-02 -1.26123160e-01
      1.53147563e-01 2.17962146e-01 -3.18478458e-02 5.54589108e-02
      -5.67175150e-02 -4.13201630e-01 2.28077978e-01 -1.09079601e-02
      -1.95155665e-01 -1.06658675e-02 -4.42047894e-01 8.32353681e-02
      3.45371008e-01 6.98547885e-02 3.70385982e-02 3.40563089e-01
      -1.51962847e-01 -4.18396473e-01</_>
    <_>
      -1.08937585e+00 -2.49285126e+00 -2.74169803e-01 5.66615462e-01
      1.49012506e+00 3.70596945e-01 6.45150721e-01 1.07911181e+00
      -9.65609014e-01 -9.58752334e-02 -5.28564870e-01 -1.01453863e-01
      1.46708831e-01 3.23875248e-01 1.09480798e-01 -2.20313087e-01
      -1.18909381e-01 -1.14385210e-01 -9.31902304e-02 -8.96589756e-02
      3.19500953e-01 2.52150565e-01 7.40327895e-01 -2.68184692e-01
      8.66464913e-01 -2.35474184e-01 -3.69585067e-01 -1.56057313e-01
      1.77608514e+00 9.53742210e-03 -4.47331131e-01 -2.34366935e-02
      2.86015868e-01 -3.67152691e-02 -9.23206627e-01 -7.24386156e-01
      -1.59785628e-01 -2.44613141e-01 -5.91879785e-01 2.98772324e-02
      -1.93712920e-01 1.44597530e-01 3.04084849e-02 -4.33652513e-02
      -4.00922745e-01 5.67533914e-03 -2.12280020e-01 -7.10023427e-03
      -1.07232146e-01 5.51109090e-02 -7.75904581e-02 2.35904790e-02
      -2.13557169e-01 4.96350555e-03 1.73690230e-01 -7.87318423e-02
      4.56901081e-02 1.55352466e-02</_>
    <_>
      7.45525658e-01 -1.89082694e+00 -2.44610190e+00 4.16622728e-01
      8.38123500e-01 -1.00196052e+00 -9.45549071e-01 -7.43723512e-02
      7.72092164e-01 5.99768572e-02 1.83802426e-01 4.10933614e-01
      -8.97162378e-01 3.38768475e-02 -9.78442729e-01 9.80884850e-01
      6.06842697e-01 -8.79393891e-02 5.02550542e-01 9.58426595e-02
      -6.14887357e-01 1.11299984e-01 -2.04026490e-01 -1.59802601e-01
      -1.03871846e+00 -3.71774942e-01 -1.25586595e-02 9.39056948e-02
      4.59369957e-01 1.52681410e-01 7.23378733e-02 -1.91667322e-02
      -2.26251870e-01 2.14873776e-01 -1.63284019e-01 1.21856388e-02
      1.61413029e-01 6.04984500e-02 -9.60948765e-02 5.31811919e-03
      6.53003156e-02 6.59311339e-02 -3.01542431e-02 -4.18519275e-03
      1.91329401e-02 -1.38083518e-01 6.84675723e-02 2.68116477e-03
      1.30921286e-02 1.39558703e-01 -1.24940626e-01 6.86354516e-03
      1.81682765e-01 6.12409860e-02 7.78860599e-02 2.19055992e-02
      3.59354690e-02 3.82608511e-02</_>
    <_>
      -2.89292622e+00 6.41717374e-01 -2.35606596e-01 6.00006759e-01
      5.26940167e-01 1.23338409e-01 2.06992698e+00 -7.82681644e-01
      1.38122284e+00 2.31441949e-02 5.16845047e-01 -1.38576746e-01
      3.64480168e-02 4.79729503e-01 2.82919049e-01 -3.00437599e-01
      -5.03152981e-02 -1.93653241e-01 1.20699239e+00 5.15334487e-01
      3.07544112e-01 8.92850280e-01 -1.00783253e+00 1.97367854e-02
      4.23408151e-01 3.74962427e-02 -4.37699705e-02 2.67042201e-02
      -1.54278735e-02 -1.31347567e-01 1.82541549e-01 1.04922960e-02
      -1.20662950e-01 6.80695325e-02 -8.90005603e-02 -5.84949777e-02
      4.70306687e-02 -1.33269385e-01 -5.10124788e-02 -5.90386055e-02
      -1.73874777e-02 5.95110515e-03 -2.36159749e-02 3.69532895e-03
      -4.81719673e-02 5.05823232e-02 -4.87484224e-02 -7.79755367e-03
      -1.07930098e-02 1.39504401e-02 -1.38627840e-02 -1.05577372e-02
      8.66600424e-02 -2.07801419e-03 -6.64590299e-02 9.82996374e-02
      -2.60714293e-02 4.19655535e-03</_>
    <_>
      2.43739510e+00 2.17143565e-01 2.22934222e+00 -1.43698394e+00
      -2.33773851e+00 -1.60840428e+00 2.49800968e+00 1.03273726e+00
      -3.98283154e-01 3.06374997e-01 -1.09756343e-01 1.21848428e+00
      -1.18355286e+00 -4.99111801e-01 -4.74801391e-01 7.05232620e-01
      -3.34020108e-02 -5.98028719e-01 -3.11365843e-01 -2.15317339e-01
      5.72869956e-01 3.54494154e-01 -1.42901512e-02 6.64119959e-01
      -1.06958464e-01 -1.00347745e+00 -6.93243563e-01 -9.41743255e-01
      -2.00289190e-01 -3.39129195e-02 -2.43030772e-01 -3.70731689e-02
      -1.86011851e-01 -3.80767211e-02 2.05651879e-01 -2.64134437e-01
      6.59064427e-02 8.27967946e-04 2.49828577e-01 -1.28669813e-01
      -1.60039976e-01 -2.17579231e-02 -1.33526742e-01 -9.10006881e-01
      -1.22098669e-01 -3.93848985e-01 7.32329413e-02 -2.43547857e-01
      -1.46240860e-01 3.72467160e-01 3.39733273e-01 -1.23117514e-01
      -1.47331655e-01 -1.12156145e-01 -3.12638760e-01 3.93836886e-01
      -5.82693629e-02 1.05133906e-01</_>
    <_>
      2.39522386e+00 -1.67588568e+00 -2.47832760e-01 -5.12832463e-01
      -1.21746528e+00 -9.69112098e-01 -5.95410705e-01 -1.82768452e+00
      1.97264120e-01 -9.21014786e-01 6.32145941e-01 -1.41590703e+00
      -4.03566122e-01 3.55628699e-01 -1.25605774e+00 -1.53531957e+00
      1.49879962e-01 6.50690019e-01 -6.77055299e-01 3.69546674e-02
      8.50557506e-01 -2.75738966e-02 -4.24277857e-02 1.06457680e-01
      2.98284084e-01 -5.59353605e-02 -1.60441831e-01 3.07285134e-02
      -2.09235698e-01 7.68960476e-01 -2.98868626e-01 -1.47383967e-02
      -4.11314107e-02 5.21415293e-01 -4.87921059e-01 2.94027060e-01
      1.55221388e-01 -4.17078644e-01 6.09601140e-01 2.71601111e-01
      -8.92295912e-02 -5.40892407e-02 4.25441682e-01 -3.82965565e-01
      2.31639192e-01 9.23635185e-01 -5.82542777e-01 4.16523337e-01
      3.43343437e-01 4.52785417e-02 2.04560235e-01 -4.87615392e-02
      -3.47752512e-01 1.29543602e-01 8.70694071e-02 -4.63446975e-01
      8.56126323e-02 1.58100694e-01</_>
    <_>
      2.52655387e+00 2.33618855e-01 2.11871052e+00 -1.35418820e+00
      -2.59272504e+00 -1.55201077e+00 2.64894366e+00 1.02243471e+00
      -5.62130570e-01 5.01503885e-01 -1.93274602e-01 9.55056727e-01
      -1.05665851e+00 1.20729521e-01 -3.30283195e-01 8.38928223e-01
      -2.14938462e-01 -6.03384972e-01 -4.50307876e-01 -4.46626812e-01
      4.96765941e-01 2.83460051e-01 -2.37306774e-01 4.21169609e-01
      -2.22830430e-01 -3.39327425e-01 -4.48607430e-02 -6.54178202e-01
      -1.13112040e-01 1.10196561e-01 2.25642174e-01 3.84955630e-02
      4.35246639e-02 2.21013725e-01 -3.56294453e-01 5.16596794e-01
      -5.39372683e-01 -2.36409947e-01 3.99071157e-01 -1.38912737e-01
      -5.24019189e-02 2.17782125e-01 1.64162088e-02 -4.90571618e-01
      -2.66043693e-01 -4.40995723e-01 3.92043650e-01 -3.13080162e-01
      -4.27529335e-01 5.43368638e-01 -1.31502941e-01 -4.75714654e-02
      -1.11403495e-01 1.70376420e-01 -1.45099938e-01 -6.98417902e-01
      -1.60439368e-02 -2.36082926e-01</_>
    <_>
      -8.82315338e-02 3.18232083e+00 -4.55618761e-02 3.88604969e-01
      1.45006931e+00 -1.51632833e+00 -4.36434507e-01 -2.38796949e-01
      -1.81789473e-01 -4.46004480e-01 -6.12016141e-01 3.04478139e-01
      2.51567334e-01 5.16082287e-01 4.27047163e-01 9.86843646e-01
      1.03125453e+00 6.66698217e-01 -4.99150187e-01 1.11812127e+00
      1.14375937e+00 -1.54962376e-01 1.90743301e-02 -2.76976496e-01
      7.47883692e-02 3.36547315e-01 4.33062971e-01 -1.64375067e-01
      -2.56128103e-01 1.76258698e-01 -3.86627507e-03 -2.65655462e-02
      -1.47229016e-01 2.83953458e-01 1.16794266e-01 -1.28252804e-01
      -7.69990504e-01 -2.03648508e-02 -4.59759027e-01 7.88124919e-01
      2.81164050e-01 -3.75397533e-01 -4.28308100e-01 -4.71836060e-01
      -9.60475951e-02 1.88785464e-01 1.38343945e-01 -2.86703914e-01
      1.43361613e-01 -2.26871803e-01 -2.24273816e-01 -1.27325967e-01
      -1.45074382e-01 2.83085614e-01 1.50903352e-02 6.52203709e-02
      -3.09959128e-02 1.30177766e-01</_>
    <_>
      2.19588876e+00 2.22410649e-01 1.91777658e+00 -1.25796211e+00
      -2.98283172e+00 -1.50244141e+00 2.35074520e+00 6.91190958e-01
      -7.72907674e-01 5.28122306e-01 -5.34896672e-01 4.09314156e-01
      -7.44629264e-01 9.04584169e-01 -1.70072094e-01 8.30205977e-01
      -5.21104455e-01 -2.42568672e-01 -5.05400240e-01 -5.09569526e-01
      4.65820581e-01 8.41800421e-02 -6.96234047e-01 4.03390080e-01
      -8.36053193e-01 7.23556757e-01 1.31213450e+00 5.10893404e-01
      7.15978384e-01 -2.10415423e-01 2.94922471e-01 5.65447211e-02
      2.56422192e-01 1.91203520e-01 -8.95408154e-01 1.03559089e+00
      -8.31549168e-01 -2.94552714e-01 1.27956212e-01 4.88249600e-01
      1.42565191e-01 6.56783938e-01 -1.07558355e-01 1.00871706e+00
      -6.95148185e-02 3.83126736e-01 -1.88842565e-01 2.71550596e-01
      2.59607852e-01 -3.38644534e-01 1.20071352e-01 9.32533368e-02
      9.99009684e-02 -1.68118611e-01 1.54535234e-01 4.30877149e-01
      2.31737401e-02 1.90702677e-01</_>
    <_>
      1.40439367e+00 -1.13531935e+00 -5.68933666e-01 -8.86937737e-01
      -5.38023353e-01 -2.02255869e+00 -6.48580551e-01 -1.70517743e+00
      5.48176348e-01 -1.60351336e+00 5.19641459e-01 -1.32383108e+00
      -2.16480419e-01 3.10538769e-01 -1.06794596e+00 -9.39991236e-01
      -1.21516988e-01 -1.56707074e-02 -3.50332946e-01 5.72892189e-01
      7.08611086e-02 -5.59324086e-01 2.75851756e-01 5.48919916e-01
      3.78012925e-01 -5.50958633e-01 4.09882516e-01 4.63850200e-02
      3.54541451e-01 -1.28460550e+00 6.15560651e-01 9.61373523e-02
      2.23690197e-01 -5.17131150e-01 2.96316743e-01 1.04663827e-01
      -5.31570196e-01 3.51658434e-01 6.38507530e-02 -9.69254076e-02
      -2.23500669e-01 1.02285057e-01 1.81642100e-01 -2.57843882e-01
      1.87715426e-01 -1.60639677e-02 -4.18891966e-01 7.65351504e-02
      -2.04187170e-01 2.66179919e-01 -2.82558620e-01 1.98114081e-03
      2.84803092e-01 2.74839550e-01 7.64622912e-02 1.19643062e-01
      -9.26363394e-02 -1.91132352e-01</_>
    <_>
      -9.17964339e-01 -2.34844089e+00 -1.55204296e+00 1.00596321e+00
      1.69195640e+00 -4.02836472e-01 8.04231048e-01 1.50917780e+00
      -6.49987340e-01 -4.65604573e-01 1.48407355e-01 -4.14666580e-03
      -2.66652346e-01 -2.31337741e-01 -4.63658124e-01 -3.19415510e-01
      -4.50230986e-01 1.34064391e-01 -5.77862561e-02 -1.01946361e-01
      7.64235035e-02 7.55267814e-02 -6.47849143e-01 -1.02533214e-02
      -1.68759581e-02 3.02225828e-01 -1.87557042e-01 1.12685025e-01
      1.59543306e-01 -6.79616928e-01 -7.34969974e-01 4.07711603e-03
      4.56843734e-01 1.07335794e+00 8.77137303e-01 6.75418615e-01
      1.43244103e-01 7.93097675e-01 1.03859627e+00 6.17563605e-01
      1.51281893e-01 -1.13893914e+00 4.89217788e-01 3.13830018e-01
      -7.01997817e-01 -1.01091646e-01 -1.74979359e-01 -2.18890503e-01
      -3.14480811e-01 -2.00004250e-01 -1.64125696e-01 1.49594368e-02
      -1.79936856e-01 -3.23983729e-01 -1.97329596e-01 2.57692903e-01
      -4.04182971e-02 -5.56120649e-02</_>
    <_>
      2.25637937e+00 -9.58062530e-01 -2.13475800e+00 9.65958536e-01
      -9.62177455e-01 8.12359452e-01 4.31674719e-01 -5.10432541e-01
      2.40924597e-01 -3.34876597e-01 -4.83702421e-01 6.94758475e-01
      4.01959181e-01 -3.06448370e-01 4.90848482e-01 -1.18842103e-01
      1.30594468e+00 1.20074856e+00 -1.73105478e-01 -6.26088738e-01
      1.39311463e-01 5.80296338e-01 3.43717039e-01 4.78434652e-01
      2.99599737e-01 -2.51971573e-01 -4.52805348e-02 3.77233744e-01
      -9.93834883e-02 -3.00537616e-01 -8.01964253e-02 -4.35598940e-03
      5.26077300e-02 -1.33605987e-01 -6.81539848e-02 8.34933147e-02
      1.07680492e-01 6.79641590e-03 -1.19060136e-01 2.22229242e-01
      1.45241171e-01 6.97311386e-02 -2.11121708e-01 5.05470186e-02
      1.37892812e-01 -3.52028817e-01 2.67168432e-01 4.18355316e-03
      2.91955948e-01 -2.04469636e-01 8.69196206e-02 -6.90813782e-03
      1.82619944e-01 9.52418000e-02 1.97449028e-02 -3.72010767e-02
      -1.79314986e-02 -1.80773228e-01</_>
    <_>
      -2.92326236e+00 6.44078553e-01 -2.19735563e-01 6.10697091e-01
      5.00769258e-01 1.29550755e-01 2.05077505e+00 -8.08848441e-01
      1.42563045e+00 7.93518946e-02 5.01178503e-01 -1.48001134e-01
      1.99729409e-02 4.75456327e-01 3.15139562e-01 -3.08794230e-01
      -6.30714744e-02 -1.99318364e-01 1.17915142e+00 5.09392798e-01
      3.25186014e-01 8.77491951e-01 -9.03928041e-01 4.12274562e-02
      3.50078166e-01 3.32835242e-02 -4.69570756e-02 3.46055515e-02
      -8.28362405e-02 -1.40416175e-01 1.84699714e-01 1.51493726e-02
      -8.92826542e-02 3.67446356e-02 -3.93382534e-02 -1.68988537e-02
      4.32421863e-02 -1.36142343e-01 -8.82659405e-02 -6.32532910e-02
      -5.23061864e-02 6.30522072e-02 -8.72768555e-03 -4.53253416e-03
      -1.77430101e-02 3.22583690e-02 -2.11587083e-02 8.01792077e-04
      7.03082699e-03 1.15362108e-02 -2.48575546e-02 -3.07199080e-03
      2.48249676e-02 2.76305014e-03 1.78375896e-02 -5.82849607e-02
      2.92570051e-02 4.33829278e-02</_>
    <_>
      1.74094558e+00 -1.62407666e-01 1.75335264e+00 -1.01201344e+00
      -2.94545150e+00 -1.04122114e+00 1.05730104e+00 -1.04063287e-01
      -8.32866669e-01 3.03369075e-01 -9.66246009e-01 -6.34590566e-01
      -2.86679476e-01 1.51847577e+00 -3.13408732e-01 3.99836928e-01
      -4.31882381e-01 4.18669999e-01 -3.33933204e-01 -8.99791159e-03
      4.31171834e-01 1.79157749e-01 -6.47288382e-01 8.43890533e-02
      -6.59009755e-01 2.03870964e+00 1.28050292e+00 2.04717851e+00
      6.84503436e-01 -2.97340062e-02 -5.00410557e-01 -1.04233295e-01
      -1.72162086e-01 -4.61204439e-01 5.55668771e-01 -1.07642519e+00
      1.03025711e+00 3.93731326e-01 -2.99127996e-01 -9.63122100e-02
      -3.34077001e-01 -5.80654502e-01 -7.08252639e-02 -3.32079798e-01
      2.60384768e-01 -1.66701868e-01 -5.92737496e-02 4.20971662e-02
      -7.48546869e-02 2.80381083e-01 8.30363929e-02 -2.37127766e-02
      -4.78817411e-02 2.21698768e-02 -8.41762125e-02 -2.03493327e-01
      -1.10129872e-02 -1.14023864e-01</_>
    <_>
      8.67318094e-01 -8.82275641e-01 1.33529752e-02 -1.27154338e+00
      -4.67939615e-01 -2.28150916e+00 -8.14128757e-01 -1.49723029e+00
      4.60615426e-01 -1.17448521e+00 7.63542712e-01 -1.36745465e+00
      -3.81294727e-01 2.36456141e-01 -1.29008126e+00 -8.12303901e-01
      -3.34462136e-01 9.42384377e-02 -3.54035228e-01 6.81095719e-01
      2.54195154e-01 -5.55244148e-01 1.09866910e-01 1.27961457e-01
      6.02750063e-01 -4.00888979e-01 3.56555283e-02 1.77731901e-01
      1.30325109e-01 -3.17120045e-01 -2.38329824e-02 -4.25641760e-02
      -2.60032594e-01 -3.39279860e-01 -2.64161497e-01 1.94249034e-01
      4.38773245e-01 -5.19747287e-02 -3.99730891e-01 -3.28735650e-01
      2.19040796e-01 -2.08383918e-01 -5.29264450e-01 3.40444326e-01
      -4.15594727e-01 -3.78591567e-01 1.24741745e+00 -5.95167041e-01
      9.89665613e-02 -4.76685107e-01 5.91088355e-01 -4.69593657e-03
      -3.50782961e-01 -7.20085263e-01 -2.23326966e-01 6.28769770e-03
      2.30767578e-01 4.10383940e-01</_>
    <_>
      -6.00612521e-01 -2.15226173e+00 -2.16515827e+00 1.24968970e+00
      1.11094820e+00 -7.02104747e-01 8.42972934e-01 1.21388888e+00
      4.87392962e-01 -7.03907609e-01 5.76837696e-02 -6.90374523e-02
      -6.27343059e-01 1.31839409e-01 -8.27710867e-01 -3.94060254e-01
      -3.70122418e-02 -2.21564978e-01 5.77964962e-01 3.99985820e-01
      -2.53661901e-01 -2.85540037e-02 -2.90697396e-01 5.26706517e-01
      -4.23405021e-01 4.65184003e-01 -1.21642821e-01 -1.35017157e-01
      -1.12465048e+00 1.86822683e-01 -1.89978218e+00 9.18546692e-02
      2.21736407e+00 -9.94709730e-01 -6.14896476e-01 -1.87772196e-02
      -4.84460622e-01 4.42701399e-01 -2.56005734e-01 7.66096488e-02
      1.73967659e-01 1.55137748e-01 -2.28839107e-02 -9.48035643e-02
      5.97160578e-01 -1.20588526e-01 8.08227137e-02 5.59935085e-02
      -8.53685811e-02 -2.62230206e-02 3.54848653e-01 4.05792035e-02
      -1.40182510e-01 6.82149231e-02 1.24672592e-01 -1.13576278e-01
      -1.24746086e-02 -1.13606386e-01</_>
    <_>
      -2.86155868e+00 7.95496345e-01 -5.03817677e-01 8.01619232e-01
      -1.78097486e+00 -1.07348955e+00 -1.86017430e+00 8.27740133e-01
      7.95111299e-01 1.64315605e+00 -1.43207705e+00 -9.75165486e-01
      -3.54988068e-01 -1.02747548e+00 2.61681139e-01 -3.06909531e-01
      -3.77424359e-02 -2.01508626e-01 1.24201439e-01 -9.19815451e-02
      2.85442889e-01 2.72954404e-01 -2.72921264e-01 -9.59435925e-02
      3.11086506e-01 -6.23883791e-02 -1.36219235e-02 -3.56025435e-02
      4.28346768e-02 -1.06437646e-01 4.97631729e-02 1.68838948e-02
      3.56243812e-02 -4.82119732e-02 3.36222863e-03 -1.50280809e-02
      -1.54079109e-01 -1.07286938e-01 -4.39046212e-02 -8.32425430e-02
      -1.31989688e-01 1.13431290e-01 1.43761411e-01 6.90869614e-02
      9.50223207e-02 -6.79134130e-02 -3.56262252e-02 2.75211502e-02
      4.18874845e-02 -1.75643936e-01 -2.11533681e-02 -3.14844027e-02
      -3.50701272e-01 -5.61338104e-02 4.97091003e-02 1.73326045e-01
      5.53993359e-02 2.02731833e-01</_>
    <_>
      1.16290414e+00 3.78476691e+00 1.35607159e+00 6.22706115e-01
      1.61528051e+00 -1.31868649e+00 -7.94804454e-01 -2.27134779e-01
      2.88735479e-01 -1.17371285e+00 -3.83780390e-01 2.55789578e-01
      -1.56527594e-01 1.63198471e-01 4.10325229e-01 -3.75559032e-01
      -4.34030294e-01 -2.27861866e-01 1.11916170e-01 -1.52592921e+00
      -6.13651156e-01 5.50738335e-01 1.14805132e-01 3.73328954e-01
      1.10665165e-01 1.66807100e-01 1.11634530e-01 -2.03652114e-01
      9.29400176e-02 1.75854366e-03 -5.61980493e-02 2.30739568e-03
      -9.55694646e-04 6.30394369e-03 -1.04742743e-01 2.34921351e-02
      1.10104531e-01 -7.81824440e-02 8.39993805e-02 -1.67488471e-01
      1.16389044e-01 2.38770962e-01 2.58144617e-01 7.68589437e-01
      1.47534445e-01 1.90996408e-01 3.41090798e-01 -2.14218989e-01
      -3.50504011e-01 1.40256986e-01 -8.05218741e-02 -5.69645911e-02
      -1.05957523e-01 1.35687053e-01 -6.45582676e-02 -1.19724255e-02
      -3.27288508e-02 6.18677922e-02</_>
    <_>
      -8.22035134e-01 -1.65738010e+00 2.33209300e+00 -1.10647976e+00
      7.20797539e-01 5.78065336e-01 -2.91335881e-01 -1.03742242e+00
      -2.67294377e-01 5.66134870e-01 -5.01993708e-02 5.99220060e-02
      -5.69143035e-02 -1.35988250e-01 4.85084318e-02 2.93705553e-01
      1.03317940e+00 -3.13115895e-01 2.87646592e-01 -8.47288013e-01
      -3.77596878e-02 -1.07755077e+00 -8.43934238e-01 -4.10481989e-01
      4.92854118e-01 -9.06390473e-02 9.17142928e-02 -1.28431991e-01
      7.24260136e-02 -1.57591686e-01 -1.84007421e-01 -5.74574014e-03
      5.50294258e-02 2.55723484e-02 -9.52934176e-02 -2.15612650e-01
      1.49411755e-02 8.73013437e-02 1.54679075e-01 2.21038505e-01
      2.49327235e-02 -7.62485340e-02 5.27551174e-02 -3.21420319e-02
      2.04234824e-01 2.78722961e-02 4.76802588e-02 -1.10240318e-02
      4.17078920e-02 -9.08258855e-02 2.29293779e-01 -4.43808809e-02
      -1.04622193e-01 4.12168279e-02 -1.58532411e-01 2.30851680e-01
      -1.16482548e-01 -1.01822302e-01</_>
    <_>
      -1.15413249e+00 2.65453529e+00 -2.64408135e+00 -4.29887772e+00
      -2.96796355e-02 1.78100109e+00 -2.29142219e-01 6.16825461e-01
      -3.51557553e-01 -6.73799276e-01 1.55917823e-01 -6.23554170e-01
      -1.70981276e+00 1.17924802e-01 8.30075026e-01 -5.48271537e-02
      1.19729638e-01 1.21579230e-01 4.38631102e-02 5.78345731e-02
      -4.87684757e-02 -2.15113536e-02 -1.41082844e-02 2.55726976e-03
      1.31609861e-03 -4.00611758e-02 4.57654241e-03 -9.38846543e-03
      -3.01119518e-02 -2.53097378e-02 2.56763846e-01 -2.39636779e+00
      2.81166911e-01 3.43296118e-02 7.46739854e-04 5.52814163e-05
      -4.01013624e-03 -1.93980266e-03 -8.74495134e-03 -7.91447144e-03
      8.16586986e-03 7.13584386e-03 -8.25450290e-03 -5.13958279e-03
      7.59619195e-03 1.52666271e-02 -2.74624638e-02 -1.49232075e-01
      9.40424800e-02 4.33340520e-02 -7.40089547e-03 7.48474479e-01
      -7.54635558e-02 -1.92766730e-02 9.00291186e-03 -6.70329407e-02
      -5.07659733e-01 1.33640543e-01</_>
    <_>
      -1.23987293e+00 -1.88213933e+00 2.11580729e+00 -6.67310357e-01
      8.28701138e-01 7.12338865e-01 3.74576837e-01 -9.61608529e-01
      -5.99080682e-01 -3.20523769e-01 5.10570258e-02 -2.15973020e-01
      1.54107958e-01 -2.14039668e-01 1.32646635e-01 -8.70721862e-02
      2.79453933e-01 -4.71268743e-01 -4.22214687e-01 -9.95816514e-02
      -5.51045686e-02 2.01835707e-01 9.06160753e-03 -5.39047830e-02
      6.61584958e-02 -9.23974216e-02 4.46510673e-01 1.97691351e-01
      -2.96471924e-01 8.54450464e-02 1.29885361e-01 3.07522770e-02
      9.28199664e-02 3.89641106e-01 5.45783862e-02 -1.05822444e+00
      -3.88232231e-01 6.76377594e-01 3.83507967e-01 3.70898575e-01
      -4.28791553e-01 8.82637978e-01 1.34960568e+00 -9.49955955e-02
      -4.93227899e-01 -3.95501137e-01 8.16938460e-01 1.85774878e-01
      9.76776183e-01 1.84494143e-04 5.74902967e-02 -5.25839031e-02
      3.37309465e-02 4.38285083e-01 2.85572737e-01 -2.87052616e-03
      -9.23048519e-03 2.47757193e-02</_>
    <_>
      1.16471910e+00 3.61698627e+00 1.44695079e+00 4.57519084e-01
      1.48232388e+00 -1.37172937e+00 -7.49386311e-01 -1.89166963e-01
      3.69966030e-01 -1.15522540e+00 -3.16403538e-01 2.24733576e-01
      -1.30145535e-01 2.39765793e-01 4.22629863e-01 -4.15403068e-01
      -5.02876461e-01 -2.05373242e-01 6.27132282e-02 -1.76741457e+00
      -6.40562832e-01 6.59822524e-01 4.63774838e-02 5.21591306e-01
      3.17514986e-02 1.28335446e-01 1.69419870e-01 -1.20888300e-01
      6.85706511e-02 -7.22412392e-03 5.92172034e-02 1.19315088e-02
      6.91799298e-02 1.81513838e-02 2.67784633e-02 -9.73888263e-02
      3.02263126e-02 -1.67954192e-02 -2.56136477e-01 3.20854962e-01
      1.74363688e-01 1.57016456e-01 -1.84287444e-01 3.41414601e-01
      1.06163338e-01 -1.94731787e-01 -1.41549900e-01 2.91000623e-02
      1.37931883e-01 -6.61599696e-01 -3.90170455e-01 -9.68928356e-03
      2.01542765e-01 -1.83520928e-01 -3.88145983e-01 -4.34981793e-01
      -6.98743984e-02 -6.15199387e-01</_>
    <_>
      -1.02915812e+00 -1.54310036e+00 2.28787351e+00 -1.06164730e+00
      7.22870469e-01 6.38161898e-01 -4.13338691e-01 -1.26143849e+00
      -3.73116255e-01 5.59938550e-01 -5.80723919e-02 1.13101363e-01
      -1.22037411e-01 -1.84159189e-01 -1.79296136e-02 4.01041031e-01
      1.10166073e+00 -4.53008503e-01 2.68391818e-01 -9.33321416e-01
      1.34311527e-01 -9.87642825e-01 -9.33925867e-01 -3.45312089e-01
      4.12480682e-01 -1.79297298e-01 1.99747279e-01 -4.19656411e-02
      -4.36701998e-02 -1.94454223e-01 -1.61746055e-01 -2.76896823e-03
      7.40144551e-02 5.74809201e-02 -1.34677410e-01 9.54217762e-02
      8.41316208e-03 -2.86173038e-02 3.76024507e-02 -8.73304307e-02
      1.25630111e-01 -1.69231355e-01 -2.21239507e-01 7.19355512e-03
      6.55286685e-02 2.27105454e-01 -6.38168082e-02 -6.60454780e-02
      -1.05740152e-01 -9.89457890e-02 2.41661504e-01 2.56700139e-03
      2.11718127e-01 -7.82324523e-02 -2.07493350e-01 1.27772480e-01
      -5.60088120e-02 7.01588169e-02</_>
    <_>
      1.65549052e+00 -1.55455244e+00 -1.48299921e+00 1.47962615e-01
      -1.35625824e-01 -1.56944558e-01 -1.34852961e-01 2.28066027e-01
      -6.46468997e-01 8.43099594e-01 -3.77451420e-01 -8.02491486e-01
      9.11049187e-01 2.40549707e+00 1.04340112e+00 3.38094473e-01
      -5.69646835e-01 -2.08811149e-01 -1.91992655e-01 2.60701142e-02
      -1.88817888e-01 -1.34310395e-01 -9.41475630e-02 -3.23466927e-01
      -1.39325604e-01 -2.00295910e-01 1.21895671e-01 -5.49808562e-01
      -1.82282090e-01 -4.89139482e-02 3.35575223e-01 4.39530797e-02
      3.91993932e-02 1.53406307e-01 -3.11441660e-01 1.54725999e-01
      -1.15686364e-01 2.59686589e-01 -5.84391057e-02 -4.03520107e-01
      2.79049397e-01 -2.36725807e-01 2.64875799e-01 -2.41814390e-01
      2.42036045e-01 5.16979620e-02 -9.52775329e-02 1.70758888e-02
      -7.17102364e-02 -1.30974039e-01 -1.48873389e-01 2.38255579e-02
      -4.92842197e-02 -1.65213406e-01 -1.07173091e-02 -9.72964615e-02
      4.74946275e-02 -8.29234570e-02</_>
    <_>
      -1.35692322e+00 -2.04176664e+00 1.47466600e+00 -3.28819275e-01
      9.87525642e-01 6.61622047e-01 5.08569241e-01 -4.62446034e-01
      -1.29170990e+00 -4.23545063e-01 1.83818534e-01 -6.71482801e-01
      4.66201663e-01 -6.12262309e-01 2.19183236e-01 -2.21959010e-01
      6.41296029e-01 -8.66301477e-01 -3.74098361e-01 1.22814082e-01
      4.99502420e-01 1.40269363e+00 9.16307390e-01 -6.83625758e-01
      -9.03905272e-01 -3.34719539e-01 4.40508962e-01 3.71451885e-01
      -5.20996809e-01 -2.30381027e-01 2.30521306e-01 1.77669879e-02
      -8.64871498e-03 4.56559241e-01 -6.10390268e-02 1.38654932e-01
      1.22592255e-01 6.18517458e-01 -4.61481303e-01 -6.44278452e-02
      -4.57236409e-01 2.91043818e-01 -1.18151162e-04 -1.03670331e-02
      -1.79824769e-01 4.67028856e-01 -7.40735754e-02 -2.63667166e-01
      -3.63813013e-01 -3.38738263e-01 9.10170197e-01 3.23995128e-02
      1.84323132e-01 5.37495166e-02 -1.88497603e-01 1.46545678e-01
      -1.97684810e-01 -4.04685825e-01</_>
    <_>
      -2.93834925e+00 7.85979927e-01 -4.80316579e-01 8.66563797e-01
      -1.81679058e+00 -1.01881135e+00 -1.75257421e+00 8.02375615e-01
      7.12984204e-01 1.45945942e+00 -1.36399090e+00 -1.12375605e+00
      -3.04423690e-01 -1.07394099e+00 2.25727245e-01 -2.10797533e-01
      -7.65412375e-02 -2.54458636e-01 -2.06471592e-01 -1.19271487e-01
      1.51397526e-01 5.07471383e-01 -2.28399560e-01 -4.23284978e-01
      2.96671480e-01 -2.16083765e-01 1.51122212e-01 1.40067898e-02
      1.49273756e-03 -1.03271335e-01 -6.15888387e-02 5.14719961e-03
      6.22367077e-02 3.19425203e-03 -2.58687437e-02 5.99093623e-02
      1.82733883e-03 1.98935702e-01 9.07335803e-02 4.43028584e-02
      -7.24328356e-03 -4.89580818e-02 7.50149861e-02 -3.58622037e-02
      -1.51957527e-01 4.44421954e-02 -6.57452792e-02 3.03530991e-02
      6.85233697e-02 1.93423405e-01 -2.70466596e-01 -1.17596844e-03
      2.98768461e-01 1.96198802e-02 1.34674506e-02 -1.48505956e-01
      6.03613295e-02 8.30708072e-02</_>
    <_>
      -1.17909718e+00 2.72401261e+00 -2.74442935e+00 -4.49936867e+00
      -3.12036332e-02 1.86703777e+00 -2.40971908e-01 6.38591945e-01
      -3.35930794e-01 -6.57195628e-01 1.47297621e-01 -5.52503169e-01
      -1.45358276e+00 9.31621417e-02 6.23501301e-01 -2.30615027e-02
      6.11084066e-02 3.46883349e-02 -1.21160352e-03 -7.08226860e-03
      9.97625757e-03 1.15948049e-02 8.07094667e-03 -3.79650010e-04
      -4.46329219e-03 9.37969610e-03 -1.16847195e-02 -9.63532308e-04
      1.43284807e-02 2.04384443e-03 -7.58275837e-02 5.13020873e-01
      -2.82232258e-02 -1.46065326e-02 -8.50938540e-03 -6.47774572e-03
      1.15721847e-03 -1.39890406e-02 2.10735723e-02 1.32984165e-02
      -2.25510076e-02 -2.52995398e-02 8.26780451e-04 -3.99183622e-03
      -5.66268712e-02 -2.01049186e-02 1.35285705e-01 5.10207236e-01
      -2.90433466e-01 -1.30908817e-01 2.00766195e-02 -1.18699956e+00
      7.97187611e-02 2.66214371e-01 -2.82804847e-01 2.14995608e-01
      1.46325088e+00 -2.79244155e-01</_>
    <_>
      -1.30822074e+00 -2.49634290e+00 1.38997066e+00 -1.62269741e-01
      1.17763102e+00 5.79680741e-01 4.29670811e-01 -2.57243633e-01
      -1.10326707e+00 -3.62522990e-01 1.45171389e-01 -5.21656930e-01
      1.61496654e-01 -4.13349152e-01 1.16516493e-01 -6.59251273e-01
      4.35287237e-01 -1.04059315e+00 -6.13041341e-01 2.15447336e-01
      6.17474854e-01 1.50940776e+00 6.32823706e-01 -5.87464809e-01
      -1.01288354e+00 -3.60231072e-01 6.12141907e-01 4.09896709e-02
      -1.25307888e-01 2.72638470e-01 1.05560347e-02 -1.02174152e-02
      8.12736712e-03 -8.09861779e-01 5.06121516e-01 7.63666928e-01
      9.46504697e-02 -3.17133218e-01 -3.92629206e-01 -1.61769912e-01
      -4.61614840e-02 -1.54640272e-01 3.37643713e-01 1.47575334e-01
      1.87327862e-01 -4.40074414e-01 -1.44381061e-01 1.57074749e-01
      3.64610553e-02 -4.23258319e-02 -8.80260766e-01 6.66102488e-03
      -4.73987043e-01 -3.12380165e-01 2.53844291e-01 -1.00102402e-01
      3.28213692e-01 7.51163661e-01</_>
    <_>
      9.77911055e-01 3.42323327e+00 1.47266614e+00 2.70100921e-01
      1.52303028e+00 -1.33470404e+00 -8.32777798e-01 1.87547074e-03
      6.42403662e-01 -1.18002224e+00 -2.87360042e-01 7.24401623e-02
      -2.04030727e-03 3.53193730e-01 3.58177185e-01 -2.50648916e-01
      -3.78947526e-01 -3.80165994e-01 3.61261927e-02 -1.52315366e+00
      -5.18432617e-01 5.13110936e-01 1.56311539e-03 3.60289216e-01
      -3.86156403e-02 2.16551006e-01 7.91886374e-02 -1.58179805e-01
      -2.13443972e-02 1.29866421e-01 1.82739850e-02 -1.34895425e-02
      -2.04916438e-03 1.81685790e-01 3.19900289e-02 1.23491488e-01
      -7.18804449e-02 -3.95039059e-02 2.92767547e-02 -3.68232369e-01
      -2.65493959e-01 -2.68524617e-01 -1.77403361e-01 -9.69488800e-01
      -2.97516018e-01 -3.99313867e-01 -4.16062593e-01 3.35906893e-01
      3.66974264e-01 3.04007065e-02 5.13093114e-01 1.53615072e-01
      1.26641467e-01 -1.95400357e-01 4.13874149e-01 2.71637619e-01
      1.65626809e-01 5.46488285e-01</_>
    <_>
      -1.17656457e+00 2.70357156e+00 -2.72590160e+00 -4.47152519e+00
      -3.25755663e-02 1.85268402e+00 -2.42759570e-01 6.48907602e-01
      -3.20164442e-01 -6.81057990e-01 1.55496702e-01 -5.77102304e-01
      -1.52159846e+00 1.00717954e-01 6.91379309e-01 -1.45473918e-02
      8.09400231e-02 4.79899086e-02 -1.87095965e-03 -5.47966966e-03
      1.34896971e-02 9.58524458e-03 6.43069576e-03 9.60794371e-03
      4.55993507e-03 1.87040027e-02 -5.49804280e-03 -3.39190895e-03
      1.62111372e-02 1.69046707e-02 -1.49032176e-01 1.41298294e+00
      -1.70334160e-01 -1.86546259e-02 6.34629000e-03 -5.12978667e-03
      7.52783287e-03 1.17815528e-02 -1.06587056e-02 -4.31548833e-04
      6.94337441e-03 -8.60300963e-04 4.25500376e-03 1.20174410e-02
      3.29552032e-02 1.33918505e-02 -7.72817060e-02 -2.63738513e-01
      1.93439171e-01 6.98282123e-02 -3.45484018e-02 1.69174325e+00
      -1.98518619e-01 4.37634408e-01 -5.17027855e-01 1.02247722e-01
      5.23897111e-01 -1.05845304e-02</_>
    <_>
      -7.68019438e-01 -1.70491660e+00 -1.21098983e+00 6.62122190e-01
      1.42695773e+00 -2.39283189e-01 8.02787542e-01 2.02328300e+00
      -6.20110035e-01 -4.84622061e-01 -8.14747751e-01 1.83238581e-01
      -4.40489613e-02 -4.11256284e-01 -6.54400587e-01 -4.87929821e-01
      -2.13151231e-01 5.52518308e-01 -3.26225042e-01 -1.06498040e-01
      -1.22660622e-01 -8.22763860e-01 -4.65983123e-01 3.06115478e-01
      2.71219701e-01 3.70764345e-01 1.86287522e-01 1.01193935e-01
      -7.30270147e-01 2.29610845e-01 7.01061964e-01 -3.85718630e-03
      -5.58819711e-01 -6.05286323e-02 -3.20037454e-02 -2.16893256e-01
      -6.30460382e-02 -4.17670123e-02 -3.65536660e-01 -3.66724372e-01
      -3.30625445e-01 3.84057105e-01 5.60214706e-02 1.54662374e-02
      -6.06822185e-02 8.22353885e-02 -1.89967334e-01 -1.14234403e-01
      -2.92674124e-01 -4.38317001e-01 3.24957192e-01 3.52232233e-02
      -5.36248446e-01 5.57974428e-02 3.21730882e-01 -2.07541406e-01
      7.34854564e-02 -2.36713275e-01</_>
    <_>
      1.97678995e+00 -2.15974474e+00 -6.95678055e-01 -1.03204325e-01
      -2.24582747e-01 2.06130773e-01 -6.41939938e-01 -2.53604017e-02
      9.52991843e-02 5.28436124e-01 -9.10813868e-01 -9.79392827e-01
      6.62695587e-01 2.17658210e+00 4.76676971e-01 5.35752885e-02
      2.00535282e-01 -6.77106949e-03 1.90287024e-01 6.34299591e-02
      -8.54730904e-02 -2.56186482e-02 -1.42322704e-01 1.56935662e-01
      -4.31073457e-01 -3.85270953e-01 -4.69560437e-02 -8.93650770e-01
      -2.47241065e-01 -1.41020529e-02 -8.31706345e-01 -1.00484289e-01
      -2.08657563e-01 -6.33482575e-01 1.21009088e+00 -1.35750979e-01
      4.17644829e-01 -1.04992950e+00 4.10580397e-01 7.63218403e-01
      -8.38021040e-01 6.21888161e-01 -5.74187458e-01 5.12234032e-01
      -6.27249479e-01 -2.59938866e-01 7.79497158e-03 -1.15032434e-01
      -2.04934806e-01 -1.17588200e-01 1.79635555e-01 9.25098807e-02
      2.14172691e-01 2.88558155e-01 3.43568414e-01 8.21216181e-02
      -2.57675163e-02 -1.72100198e-02</_>
    <_>
      -1.15337801e+00 2.62185884e+00 -2.60535502e+00 -4.21106958e+00
      -3.03855687e-02 1.64683473e+00 -2.13361472e-01 5.51309109e-01
      -2.43818745e-01 -5.41829765e-01 1.19817443e-01 -4.18021470e-01
      -1.05932271e+00 6.62069842e-02 4.42745954e-01 8.47396161e-03
      3.87391746e-02 1.22110447e-04 -2.11029425e-02 -3.05136908e-02
      3.53117026e-02 1.80021301e-02 1.17376335e-02 9.31469724e-03
      5.42387646e-03 3.64514999e-02 -4.35906742e-03 2.00471748e-03
      2.50729993e-02 2.77914274e-02 -2.37098649e-01 2.31671906e+00
      -2.90613621e-01 -2.84187049e-02 8.19303375e-03 1.82233076e-03
      4.52072173e-03 2.14230958e-02 -1.57637168e-02 -2.53919628e-04
      1.48690883e-02 1.35214711e-02 -2.42663338e-03 -7.26899656e-04
      1.91483237e-02 2.28513661e-03 -4.62382026e-02 -1.61399737e-01
      6.23830743e-02 3.14146951e-02 1.17293634e-02 -5.23740530e-01
      1.03686996e-01 -5.02146721e-01 5.81627131e-01 -2.12448061e-01
      -1.31732213e+00 1.82465896e-01</_>
    <_>
      -1.00678146e+00 -2.57739091e+00 1.64521754e+00 -1.93980902e-01
      1.29583967e+00 8.18120122e-01 3.93217981e-01 -1.57025039e-01
      -4.55150843e-01 -5.78127861e-01 -3.98012489e-01 -4.97607857e-01
      -1.23654142e-01 -2.86564291e-01 -3.63196313e-01 -1.77963793e-01
      -4.79193330e-01 -1.94253728e-01 -5.60667634e-01 -2.67734081e-01
      2.29873464e-01 6.20029688e-01 -1.57162845e-01 -6.15870297e-01
      2.39362493e-01 -3.30222189e-01 6.36988044e-01 -7.84861147e-02
      -2.34325722e-01 4.25223351e-01 5.07589757e-01 9.65725165e-03
      -2.97562271e-01 -1.27178228e+00 -3.10258687e-01 -9.92808282e-01
      -6.14396989e-01 -6.41088724e-01 1.58617878e+00 -3.89554314e-02
      9.61942732e-01 -9.67036366e-01 -1.44090161e-01 3.67112160e-01
      3.34245525e-02 -2.69754082e-01 4.49231546e-03 5.15305623e-02
      7.96071514e-02 -1.87920168e-01 2.75616139e-01 2.12056879e-02
      -1.82608012e-02 1.30468950e-01 5.99074923e-03 -1.43970743e-01
      -9.04745981e-02 -2.19988897e-01</_>
    <_>
      1.79440224e+00 2.23083988e-01 2.00995445e+00 -1.37580693e+00
      -5.41112781e-01 -1.32379484e+00 6.68757796e-01 6.45663857e-01
      4.33026135e-01 -6.09905481e-01 -3.30365866e-01 6.46174967e-01
      2.81906217e-01 -4.18800235e-01 7.16790676e-01 -2.38639772e-01
      1.80586845e-01 4.66379702e-01 6.65375888e-01 3.70929897e-01
      -9.11983013e-01 -2.96410471e-01 4.24598068e-01 -1.65788651e+00
      -1.13345981e-01 1.25485778e-01 -4.25971806e-01 5.88415027e-01
      -5.74511290e-02 -2.21782371e-01 -4.88072902e-01 1.60280580e-03
      1.14820264e-01 1.39682926e-02 -3.93232465e-01 4.48305249e-01
      -1.69984996e-01 -4.24650609e-01 6.77695572e-01 -1.02323210e+00
      -1.20364165e+00 -4.19131070e-01 -2.22280905e-01 -3.18731874e-01
      6.02536313e-02 4.09668565e-01 2.50572503e-01 -1.60428107e-01
      2.57196635e-01 -7.37233877e-01 -3.90785873e-01 -4.30782288e-02
      -3.95540707e-02 3.74388099e-01 2.12602675e-01 2.16508999e-01
      -6.98466599e-02 -1.41269304e-02</_>
    <_>
      1.68928015e+00 4.22616196e+00 -2.31029466e-01 1.81907976e+00
      2.40498260e-01 6.23976946e-01 4.45421070e-01 -1.18240607e+00
      -2.14736032e+00 1.15131700e+00 -4.24410582e-01 1.57504469e-01
      -6.30639493e-01 -3.07903290e-02 -6.94757998e-01 -8.89208734e-01
      -2.35597789e-01 3.71334404e-01 3.88201803e-01 4.00314152e-01
      -5.43629289e-01 -1.15994677e-01 -9.83351767e-02 -2.40936309e-01
      -2.40602568e-01 -4.08539474e-01 -8.44085068e-02 3.74893402e-03
      6.34177076e-03 -1.23151504e-01 -3.45890177e-04 2.69709341e-02
      5.91854490e-02 -7.07299113e-02 7.04794526e-02 -7.31683671e-02
      -4.23132151e-01 2.62819771e-02 -1.23467483e-01 -1.12364329e-01
      -4.96248633e-01 -5.01659751e-01 -1.78135455e-01 1.60996631e-01
      7.55365146e-03 4.32483554e-01 5.83185673e-01 1.67752251e-01
      1.81676030e-01 4.65407252e-01 -2.80452609e-01 1.79646239e-01
      1.46483168e-01 -2.87820429e-01 3.56285572e-01 -1.54025570e-01
      1.16807088e-01 -4.95289832e-01</_>
    <_>
      3.32098889e+00 3.11649501e-01 1.15168762e+00 7.86534131e-01
      2.62442321e-01 1.17880571e+00 -2.85845608e-01 8.13101530e-01
      3.73836100e-01 -3.72519046e-01 -1.11425504e-01 -4.28549200e-02
      9.77710113e-02 -1.36934415e-01 3.69264275e-01 8.33871722e-01
      -1.42690492e+00 -9.50228453e-01 -1.29132181e-01 3.98938388e-01
      -6.51991218e-02 -3.78113061e-01 -3.44591588e-01 1.57574251e-01
      4.05089319e-01 -5.16552329e-01 -7.93254495e-01 8.56049895e-01
      3.75691444e-01 7.25132823e-01 2.06309128e+00 4.29480135e-01
      1.89170718e+00 -3.59368652e-01 1.20285511e-01 1.54683262e-01
      8.63139033e-01 2.91177202e-02 2.14307204e-01 9.14835691e-01
      -2.60299683e-01 -3.22352949e-04 -2.50274509e-01 -3.98515493e-01
      3.84297632e-02 1.90496117e-01 3.52122843e-01 -1.34447247e-01
      1.48155931e-02 -2.06435233e-01 -1.42961293e-01 3.12532336e-02
      -2.35319939e-02 -2.46601785e-03 1.21154740e-01 1.86803807e-02
      2.86716335e-02 3.93385664e-02</_>
    <_>
      -6.80900037e-01 -2.19202209e+00 1.87743521e+00 -6.38401985e-01
      9.55542386e-01 9.07491326e-01 -1.32775915e+00 -6.83681607e-01
      3.38897139e-01 9.02869999e-01 3.67774189e-01 1.18308091e+00
      -8.61611247e-01 3.24411154e-01 -3.30913633e-01 5.70203722e-01
      -1.11916304e+00 8.61997545e-01 -2.93334156e-01 -8.32912177e-02
      3.50056469e-01 3.07751387e-01 2.27149650e-01 -2.36174420e-01
      2.33162537e-01 -4.90742102e-02 9.62348357e-02 8.75516161e-02
      -3.24191123e-01 -2.71567971e-01 2.33084746e-02 9.53354873e-03
      4.16967843e-04 -4.57303710e-02 -2.23946378e-01 -3.36767495e-01
      -4.57307808e-02 -2.86332238e-02 -3.31242234e-02 -5.64147383e-02
      -6.16006814e-02 1.12093441e-01 -1.82785720e-01 2.28002388e-02
      -3.90493013e-02 2.53062129e-01 -1.57098144e-01 -2.94603109e-02
      -5.13111129e-02 2.80740652e-02 1.89734757e-01 -4.28279638e-02
      1.29530728e-01 4.17901054e-02 -1.28576145e-01 3.36146981e-01
      -5.91800995e-02 -5.12343235e-02</_>
    <_>
      1.23071325e+00 -6.56124234e-01 -1.44368660e+00 -4.91411090e-02
      1.58985257e-01 -1.27849245e+00 -1.15532458e-01 -1.67537704e-01
      -6.46890938e-01 5.74030459e-01 2.07423449e+00 -2.28134077e-02
      6.05322957e-01 -1.15658391e+00 1.42803264e+00 -3.90861541e-01
      -7.10427463e-01 5.26960731e-01 -1.43273145e-01 -4.00634110e-01
      2.80621946e-01 -1.83482260e-01 -4.43538636e-01 -1.57960460e-01
      -5.07273138e-01 3.00363243e-01 -4.40324768e-02 -4.72125709e-01
      2.17353836e-01 6.01486936e-02 6.65002018e-02 -7.37557712e-04
      -2.64584478e-02 -2.47178108e-01 5.68279065e-02 -1.90664262e-01
      3.49987820e-02 5.78732079e-06 -8.28936920e-02 7.48931766e-02
      -6.77608326e-02 -5.84357753e-02 -1.11860186e-02 -1.26943424e-01
      -1.99172989e-01 -1.57586887e-01 -2.91575372e-01 7.95651972e-02
      1.54410712e-02 6.55264705e-02 -2.25878686e-01 -1.25302915e-02
      -5.55373281e-02 -5.34764379e-02 -1.19434088e-01 -4.06679995e-02
      -6.21348247e-02 -1.77196577e-01</_>
    <_>
      3.04938602e+00 -5.08785725e-01 -1.51706815e-01 8.62169325e-01
      1.16798520e-01 9.17574763e-01 -5.23499310e-01 2.16363430e-01
      3.61971349e-01 -6.37115896e-01 1.05379924e-01 -5.63116074e-01
      5.10897934e-01 2.88066804e-01 9.07043278e-01 4.97313827e-01
      -1.71735835e+00 -1.63527381e+00 -4.70072657e-01 -4.76435483e-01
      2.02105418e-01 -4.56001163e-01 -9.40483868e-01 2.72508025e-01
      -3.95371884e-01 -1.61677694e+00 -1.84944773e+00 2.57798672e+00
      -5.33442020e-01 -9.68071744e-02 -7.87738621e-01 -2.27217600e-01
      -1.11918426e+00 -5.98810725e-02 -2.15723097e-01 7.41216633e-03
      -7.85155833e-01 1.11711554e-01 -3.31225067e-01 2.50241429e-01
      1.23701215e-01 -5.53344935e-02 -1.06923729e-01 7.89796114e-02
      1.68445595e-02 -2.35516131e-02 -1.77828297e-01 -5.01633324e-02
      -3.86928022e-02 6.31177127e-02 -7.26093128e-02 -6.02054186e-02
      -1.35431498e-01 1.44818813e-01 2.20659170e-02 6.02105670e-02
      -2.33162865e-02 5.71249835e-02</_>
    <_>
      1.27509296e+00 -5.41841686e-01 1.51696718e+00 -1.82460654e+00
      -6.89783692e-01 -1.70570850e+00 7.01785028e-01 3.81306738e-01
      2.23068088e-01 -3.55052948e-01 -2.91031152e-01 6.26223683e-01
      2.12365329e-01 -8.39592051e-03 4.40063715e-01 -3.74530047e-01
      3.23282301e-01 7.50868320e-01 4.97590661e-01 1.94226399e-01
      -8.18544030e-01 5.45576103e-02 5.66420615e-01 -1.18558228e+00
      3.04934919e-01 2.19638973e-01 -6.51410222e-01 2.79190332e-01
      -1.87832624e-01 6.00729100e-02 2.06666589e-01 2.60885097e-02
      2.05398444e-02 -1.07049227e-01 1.55188665e-01 -5.45597821e-02
      -1.03195630e-01 1.25450626e-01 -4.44462597e-02 3.95841360e-01
      3.81038427e-01 4.17470902e-01 1.31126702e-01 4.87056166e-01
      -1.16323223e-02 -1.66242242e-01 -4.84097451e-02 5.25391512e-02
      -8.03459287e-02 9.59640220e-02 3.97283174e-02 2.55597886e-02
      5.50644547e-02 -2.47305945e-01 -1.23183534e-01 -9.06183794e-02
      4.84818891e-02 -1.08005024e-01</_>
    <_>
      1.77988231e+00 4.26573277e+00 -1.98027685e-01 1.89872265e+00
      2.28034034e-01 7.63221085e-01 4.22666460e-01 -1.11668670e+00
      -2.06324387e+00 1.14696109e+00 -3.03212851e-01 7.08943382e-02
      -6.30162120e-01 -1.09529674e-01 -7.37397492e-01 -8.67697418e-01
      -2.61164099e-01 2.48125508e-01 3.47063422e-01 3.30069751e-01
      -4.57286686e-01 -1.12309441e-01 -1.01370104e-01 -2.07541123e-01
      -2.01732546e-01 -2.76356131e-01 -2.85514832e-01 1.34289041e-01
      5.47042228e-02 -2.08708256e-01 -4.63562869e-02 -8.72186664e-03
      -9.33112428e-02 -1.38737395e-01 -9.73575935e-02 1.22060426e-01
      7.36484677e-02 9.05631632e-02 1.17317960e-01 -7.13147596e-03
      2.57966012e-01 3.45698535e-01 -8.63197669e-02 -4.11102802e-01
      -2.43157551e-01 -5.38071752e-01 -4.84677643e-01 3.32114309e-01
      1.94176853e-01 -5.80304980e-01 1.86836839e-01 1.64118409e-01
      1.68421343e-01 -3.65904808e-01 1.89259928e-02 -1.79131683e-02
      4.40817662e-02 -3.03948879e-01</_>
    <_>
      1.05401671e+00 -5.22169828e-01 1.53776610e+00 -1.90947020e+00
      -5.94758689e-01 -1.58999121e+00 5.16670763e-01 3.56684715e-01
      4.10164982e-01 -3.22278291e-01 -3.34494919e-01 4.03584093e-01
      2.39713639e-01 2.58193076e-01 1.94164917e-01 -4.92558688e-01
      2.29613855e-01 7.04753935e-01 5.19410372e-01 2.76885927e-01
      -8.75606000e-01 -5.46927862e-02 4.36982095e-01 -1.31255424e+00
      2.30398998e-01 1.99753225e-01 -7.93147027e-01 8.80159959e-02
      -2.89043933e-01 1.19755797e-01 1.16236039e-01 -3.57418042e-03
      -9.02696624e-02 -5.73949143e-03 2.74850160e-01 -1.45996913e-01
      2.65954621e-02 1.79732889e-01 -1.88160017e-01 4.28867131e-01
      5.23504078e-01 1.68680713e-01 2.08225399e-01 6.47828132e-02
      -4.01197523e-02 2.76999511e-02 -2.28076607e-01 1.20946735e-01
      -1.55454516e-01 4.03813750e-01 1.58423364e-01 5.60478717e-02
      -1.63177386e-01 -1.76759779e-01 1.61850065e-01 1.69379599e-02
      9.49411690e-02 6.04609139e-02</_>
    <_>
      -2.99414873e+00 4.92887050e-01 -1.28628865e-01 5.29642940e-01
      8.17290425e-01 1.30128056e-01 1.93287432e+00 -9.48734641e-01
      1.66189468e+00 1.01217496e+00 -2.57030189e-01 -3.99904132e-01
      -3.83009225e-01 -6.79832399e-02 3.71773124e-01 -1.24702565e-01
      -9.62384939e-02 -3.48640643e-02 -9.07788098e-01 -2.28344738e-01
      -3.12029600e-01 -9.13416624e-01 9.42470193e-01 1.78389832e-01
      -4.47787404e-01 9.05421451e-02 -1.28673136e-01 4.28599492e-02
      1.34277597e-01 1.40143946e-01 -1.94459371e-02 -4.50700196e-03
      -2.80860160e-02 4.71933857e-02 4.54523601e-02 2.90971100e-02
      5.88458590e-02 -9.32404958e-03 3.64151299e-02 6.91048801e-02
      1.38766943e-02 -5.51177040e-02 -1.24549046e-02 -1.60647333e-02
      4.30316366e-02 1.48133561e-02 1.55846635e-02 -1.46771027e-02
      -1.13171125e-02 2.10627867e-03 3.23684402e-02 -1.30039006e-02
      -3.74654145e-03 1.05263647e-02 -4.61520106e-02 6.66404814e-02
      -3.14911492e-02 -5.60999960e-02</_>
    <_>
      1.87878048e+00 -1.45625263e-01 1.38132262e+00 -6.86916232e-01
      6.36867285e-02 1.31233156e-01 -1.65201470e-01 3.54581803e-01
      4.64878440e-01 -3.12592417e-01 7.64945373e-02 2.81940490e-01
      6.59396052e-01 -1.02846169e+00 9.46918547e-01 -8.07406530e-02
      -7.92956769e-01 -2.97704488e-01 6.89357340e-01 1.01788306e+00
      -8.14518631e-01 -4.32144940e-01 3.32570463e-01 5.40313780e-01
      3.10419440e-01 -9.77590561e-01 1.74636471e+00 1.90966532e-01
      5.53241819e-02 4.13574487e-01 -5.24750769e-01 -4.83656861e-02
      -9.36072394e-02 4.55051571e-01 7.90785253e-02 7.62709975e-02
      2.09389314e-01 -1.73284084e-01 -7.72749782e-02 -7.34427944e-02
      3.10142487e-01 7.77351260e-02 6.76368773e-02 -1.04455002e-01
      4.67222482e-02 -1.26593173e-01 -8.36684927e-02 -2.59861704e-02
      -9.03409049e-02 -1.59093440e-01 1.21364770e-02 -4.34466451e-03
      -4.41677943e-02 7.80546218e-02 5.68700582e-02 1.73388775e-02
      1.62521307e-03 8.32389388e-03</_>
    <_>
      1.03849435e+00 -5.63654602e-01 1.47052133e+00 -1.86429596e+00
      -5.79029739e-01 -1.46121287e+00 4.47991699e-01 2.94456273e-01
      4.20185179e-01 -3.21278483e-01 -3.03981006e-01 3.00726056e-01
      2.91246563e-01 1.96678773e-01 1.36617199e-01 -5.37909865e-01
      2.42130682e-01 7.60972917e-01 4.95080888e-01 4.45784658e-01
      -8.07775974e-01 -1.52874738e-01 3.90659064e-01 -1.09921598e+00
      2.94903517e-01 1.16974853e-01 -7.22546875e-01 1.07347481e-01
      -1.53990060e-01 1.54596329e-01 1.69944599e-01 3.19426716e-03
      -5.21519668e-02 1.87572930e-02 2.93176472e-01 -8.61836597e-02
      6.31908253e-02 3.08464468e-01 -3.04490864e-01 4.51062560e-01
      6.24089360e-01 1.68989331e-01 1.05973482e-01 1.84302300e-01
      -1.01788044e-01 8.44295174e-02 -2.59011865e-01 1.01732269e-01
      -1.55567348e-01 4.39160436e-01 2.48971298e-01 4.82247248e-02
      -6.68385029e-02 -1.71956956e-01 1.19443670e-01 -4.12621312e-02
      1.13024093e-01 1.90963089e-01</_>
    <_>
      1.74026918e+00 4.32290697e+00 -1.76249549e-01 1.87994695e+00
      3.56565237e-01 5.20785689e-01 3.62975419e-01 -1.15053773e+00
      -2.15455008e+00 1.07608020e+00 -3.40619802e-01 1.12996764e-01
      -6.68792248e-01 -6.49757450e-03 -5.40792644e-01 -7.39164412e-01
      -3.84368777e-01 1.48658633e-01 3.56608421e-01 3.11830163e-01
      -4.75822717e-01 -1.08223505e-01 -6.72711357e-02 -1.35494292e-01
      -1.06971771e-01 -1.79661587e-01 5.15547991e-02 9.55784172e-02
      2.72021275e-02 7.30517283e-02 -2.06807256e-02 1.77908614e-02
      6.59303516e-02 -4.26233076e-02 -1.51223347e-01 7.71436393e-02
      5.04899025e-01 -3.67802158e-02 2.09150195e-01 9.19402018e-02
      2.98210382e-01 4.53713506e-01 2.33626306e-01 -2.67546019e-03
      1.62880018e-01 -2.24769622e-01 -4.38165605e-01 -5.23911357e-01
      -1.61578283e-01 -2.49842852e-01 1.72238067e-01 -3.26978028e-01
      -1.66090742e-01 5.17595053e-01 -4.38517421e-01 9.67475101e-02
      -1.50145903e-01 6.51929200e-01</_>
    <_>
      -2.85445237e+00 5.01105964e-01 -1.79509833e-01 4.63352650e-01
      8.44532728e-01 7.77604356e-02 1.80379713e+00 -8.35974276e-01
      1.55059624e+00 9.74460781e-01 -2.60799319e-01 -2.76277483e-01
      -3.81756663e-01 -6.52691200e-02 3.12725276e-01 -2.04808056e-01
      -6.47031292e-02 -6.58712462e-02 -1.01224983e+00 -1.86483771e-01
      -3.18117380e-01 -8.51085782e-01 8.61944377e-01 1.17722958e-01
      -4.31466222e-01 7.73452893e-02 -4.49322313e-02 7.18076080e-02
      1.27853617e-01 1.04216896e-01 -4.14406471e-02 -7.62229413e-03
      -1.75531879e-02 4.38235328e-02 4.96097133e-02 1.06039522e-02
      6.02265336e-02 -2.42317673e-02 1.13434903e-02 1.10295311e-01
      1.58861205e-02 -8.21178481e-02 1.26919523e-01 -4.64299275e-03
      6.54682633e-04 -8.97485763e-02 6.65011331e-02 2.48245448e-02
      6.58190772e-02 -1.23075368e-02 -1.22154143e-03 -5.73438266e-03
      -1.25444353e-01 2.44526528e-02 1.37069318e-02 7.37668350e-02
      -2.93994490e-02 1.31116016e-02</_>
    <_>
      -4.09545708e+00 3.78460944e-01 3.30658793e-01 1.44680655e+00
      -1.42329836e+00 3.59683096e-01 -3.55806440e-01 5.74818552e-01
      -3.01596612e-01 -7.97220647e-01 4.90590125e-01 3.14379096e-01
      1.02052689e-02 5.01020312e-01 -2.45367378e-01 1.60534363e-02
      -3.29484850e-01 3.25482666e-01 1.40232754e+00 -7.05513000e-01
      1.06603491e+00 -7.79540062e-01 7.84336090e-01 -9.95109528e-02
      -3.15206766e-01 -2.20651820e-01 1.64523304e-01 1.00951694e-01
      -3.79799791e-02 1.67793155e-01 8.97159353e-02 -5.53238904e-03
      -6.50858507e-02 -1.00099273e-01 1.40374810e-01 7.07663074e-02
      -3.86704393e-02 1.25324026e-01 8.34422782e-02 1.60102230e-02
      3.84861343e-02 -4.34305817e-02 8.05960149e-02 -1.35123380e-03
      -8.06993991e-02 1.47388950e-02 4.16875891e-02 -2.08427031e-02
      2.50146724e-02 -3.56339924e-02 -2.48971544e-02 3.46063287e-03
      4.78624403e-02 -3.82673778e-02 -3.12067270e-02 3.45013328e-02
      -5.94870513e-03 4.37584659e-03</_>
    <_>
      1.13095999e+00 -6.31049335e-01 -1.58379722e+00 -1.04769720e-02
      1.25663966e-01 -1.30838478e+00 -7.65746385e-02 -1.61914974e-01
      -7.05615222e-01 6.75071180e-01 2.14217281e+00 -1.34955913e-01
      5.50538480e-01 -1.10497689e+00 1.25196540e+00 -2.37311319e-01
      -4.48928744e-01 4.62343097e-01 -1.82863593e-01 -3.09452802e-01
      3.78596246e-01 -2.28189215e-01 -4.17612880e-01 9.26225446e-03
      -3.90610933e-01 2.25584060e-01 -8.01163986e-02 -1.38629928e-01
      1.34021118e-01 -5.01709543e-02 9.04892012e-02 2.70671751e-02
      1.44340798e-01 -7.03118742e-02 -3.66471522e-02 -4.97115813e-02
      -1.29731707e-02 -3.98850180e-02 -7.10876063e-02 -1.01904914e-01
      -3.17963143e-03 -1.06567796e-02 -1.28817648e-01 1.63325563e-01
      8.02414864e-02 -5.79761853e-03 2.02834681e-01 -1.34309037e-02
      1.29824832e-01 -1.52081829e-02 2.45964944e-01 4.10157489e-03
      1.45503074e-01 1.42652988e-01 1.75722286e-01 4.88196053e-02
      6.76994771e-02 1.91300064e-01</_>
    <_>
      3.54494667e+00 1.51503611e+00 2.33890915e+00 7.41365790e-01
      4.52803560e-02 1.56071424e+00 -1.24696478e-01 1.69119775e+00
      8.65814507e-01 8.08267593e-01 1.54079759e+00 -1.25510025e+00
      2.71590859e-01 2.36850530e-01 -6.39034986e-01 -9.23497975e-02
      6.80574298e-01 3.13593060e-01 -6.38615787e-02 -2.09967986e-01
      -7.60089383e-02 1.13320202e-02 1.08372189e-01 -1.80533826e-02
      1.32438451e-01 1.37268454e-01 3.75305898e-02 -3.76329497e-02
      -8.96614566e-02 -2.18924731e-01 1.38688520e-01 2.22601704e-02
      1.36375865e-02 3.86717953e-02 -1.56083256e-01 4.66262177e-02
      7.12660104e-02 -1.35478437e-01 1.38650417e-01 1.71796963e-01
      5.23690023e-02 -1.55548930e-01 4.72711287e-02 -1.32637650e-01
      1.33863613e-01 1.65752426e-01 -1.89387992e-01 5.88118508e-02
      -8.38196501e-02 7.84187764e-02 2.92826116e-01 4.06456627e-02
      7.89135769e-02 2.30371654e-02 3.38601619e-01 5.04068494e-01
      1.15703896e-01 9.88458246e-02</_>
    <_>
      -2.61159301e+00 -1.34526873e+00 1.50120723e+00 2.80712962e-01
      -3.81701708e-01 3.49216461e-01 2.83214241e-01 -3.98511767e-01
      -1.37273836e+00 -1.26005280e+00 -5.49265034e-02 -1.67951190e+00
      4.45724100e-01 -6.49550438e-01 -4.90204483e-01 1.09136748e+00
      -5.34838259e-01 5.34787238e-01 8.33382905e-02 -2.23754849e-02
      -3.14455301e-01 1.95209607e-02 3.97998452e-01 3.78309637e-01
      -3.92056823e-01 2.05076486e-01 -4.04542685e-01 -1.04961939e-01
      -7.45971024e-01 -1.27526855e+00 1.62677273e-01 1.26229867e-01
      4.62833583e-01 1.74280179e+00 -5.46002150e-01 -9.62666035e-01
      2.74726331e-01 -4.29009348e-01 3.40281516e-01 -5.99265844e-02
      3.48148197e-02 1.78395703e-01 -1.05451620e+00 3.28865081e-01
      3.69491249e-01 -2.12133273e-01 -2.04512924e-01 1.24079131e-01
      -1.52876988e-01 1.51576996e-01 -2.59893566e-01 4.19207811e-02
      -5.22988513e-02 -1.85170043e-02 1.84192240e-01 -4.47410434e-01
      1.84014335e-01 4.18799728e-01</_>
    <_>
      2.45082855e+00 -1.04459417e+00 -1.91938698e+00 9.09674466e-01
      -6.07159436e-01 5.18826433e-02 -1.18279457e-01 -5.27996302e-01
      -1.15964949e-01 3.22796762e-01 7.66829014e-01 2.57740080e-01
      -5.01270294e-01 -2.96163261e-01 1.00589015e-01 8.92592430e-01
      -2.70074010e-01 -1.61696684e+00 3.22806716e-01 -1.53202519e-01
      -5.41366413e-02 1.55535057e-01 8.84203792e-01 -1.13235302e-01
      7.60728538e-01 1.13950789e+00 1.62322760e-01 -3.53262335e-01
      -7.00649858e-01 -5.62768638e-01 -3.79694253e-01 -1.85262010e-01
      -1.06566858e+00 -2.50461042e-01 -6.95293546e-01 -2.96666659e-02
      4.23831135e-01 1.69547424e-01 3.66021484e-01 9.58903730e-01
      -4.60463800e-02 2.38048241e-01 4.58905548e-01 -5.32750845e-01
      6.02987051e-01 2.09136173e-01 3.19719791e-01 -2.17830285e-01
      -7.00094998e-01 -3.84282529e-01 -4.67022002e-01 1.95734903e-01
      2.60839015e-01 -1.36423662e-01 3.39823157e-01 1.19813189e-01
      9.46862921e-02 -5.18290065e-02</_>
    <_>
      -9.45050240e-01 2.14218950e+00 -1.70563400e+00 -2.23086715e+00
      3.37913260e-02 1.71961233e-01 1.76991150e-02 -2.26638183e-01
      1.13890499e-01 5.85580051e-01 -1.61442935e-01 7.25534856e-01
      2.17672133e+00 -1.71324700e-01 -1.44918072e+00 4.41521853e-02
      -2.71004587e-01 -2.62580484e-01 -7.26251081e-02 -1.02003381e-01
      5.54773770e-02 4.65765558e-02 2.80544534e-02 -4.53750789e-02
      -4.08540033e-02 -1.79439522e-02 -3.08569446e-02 6.97688293e-03
      3.52199632e-03 -3.86421606e-02 7.26187881e-03 2.94349017e-03
      -2.10163184e-03 -4.11636308e-02 -7.33242463e-03 2.73361243e-03
      -8.34264383e-02 9.80630741e-02 -7.03437030e-02 7.40110278e-02
      -1.56115992e-02 -9.20305476e-02 -1.80193469e-01 -1.44199356e-01
      -3.26542497e-01 2.81259716e-02 6.04402542e-01 1.62277710e+00
      -7.26774216e-01 -2.68103391e-01 2.67051086e-02 3.14484239e-01
      -1.31876588e-01 2.22250104e-01 -2.81069756e-01 -1.68500952e-02
      -3.29750568e-01 2.22775623e-01</_>
    <_>
      -1.06584586e-01 -2.05804873e+00 1.68854713e+00 -1.04118013e+00
      6.71965897e-01 1.74009204e-01 -9.81996477e-01 -4.63515781e-02
      -4.44705844e-01 6.12762570e-01 -4.58065659e-01 5.39083600e-01
      1.43398074e-02 4.11498435e-02 2.61971325e-01 -5.31012535e-01
      6.30661428e-01 -3.62421095e-01 5.80635548e-01 2.93916345e-01
      7.38446265e-02 -1.88288867e-01 1.00795604e-01 7.96974719e-01
      -1.92273229e-01 4.22584951e-01 -2.89262742e-01 1.34051457e-01
      1.00998387e-01 5.04888780e-02 2.29685996e-02 1.61021538e-02
      9.25766453e-02 6.56243190e-02 -1.83421001e-01 -2.93108582e-01
      -6.30327314e-02 6.43560961e-02 4.41686735e-02 4.36086208e-03
      1.57116666e-01 -1.57450065e-01 1.47185951e-01 1.92900337e-02
      3.73647541e-01 -3.70958894e-01 1.39176831e-01 3.91322710e-02
      -3.78030539e-02 2.49167848e-02 -2.17542514e-01 6.33939803e-02
      6.86461985e-01 -6.07781149e-02 -4.12933417e-02 3.34648252e-01
      4.93983664e-02 5.55739820e-01</_>
    <_>
      -2.82353950e+00 -8.28042805e-01 1.56848431e+00 2.37746075e-01
      -9.56642151e-01 2.27948233e-01 2.18684122e-01 -4.06086683e-01
      -1.22851574e+00 -1.15658832e+00 -4.20217901e-01 -1.83472753e+00
      5.83123147e-01 -8.00286531e-01 -3.89535844e-01 1.73661470e+00
      -4.47246552e-01 8.84666026e-01 3.99622858e-01 2.10941836e-01
      -9.99625385e-01 9.09671336e-02 1.40338093e-01 6.85252905e-01
      -3.47765326e-01 4.39387292e-01 -5.94653487e-01 -2.25989565e-01
      -4.81624693e-01 -6.01148009e-01 7.52716139e-02 4.45090011e-02
      9.34564099e-02 -4.55948673e-02 -2.96287745e-01 2.17200354e-01
      3.13362896e-01 -1.13462973e+00 -7.05571771e-01 9.62302387e-02
      1.66235432e-01 -3.54506284e-01 7.45251656e-01 -1.12722427e-01
      -1.52778774e-01 -2.00568482e-01 1.02109037e-01 1.86249331e-01
      4.64355111e-01 1.92881763e-01 -2.37957403e-01 -1.43465132e-01
      -4.74454343e-01 3.47975455e-02 -3.92339349e-01 8.06241155e-01
      -3.83820832e-01 -5.76582074e-01</_>
    <_>
      3.85128355e+00 -3.84078175e-01 -2.07218602e-02 1.31812549e+00
      -1.04691863e+00 2.36375380e+00 -1.11295320e-01 -5.18891692e-01
      1.13460636e+00 -1.23847592e+00 -1.25448906e+00 3.74448985e-01
      9.39850956e-02 -5.49669087e-01 1.82668313e-01 -1.43114209e-01
      -5.71324944e-01 -2.36334518e-01 -1.53794542e-01 2.49463663e-01
      5.76214671e-01 -1.11263290e-01 -2.74164110e-01 -5.07183135e-01
      -5.97162068e-01 8.27711582e-01 -4.12057668e-01 -4.53464836e-01
      6.00390196e-01 -4.51878309e-01 -2.65969574e-01 -2.04508919e-02
      2.13436097e-01 5.85612282e-02 2.28068307e-01 2.61242449e-01
      1.85773373e-01 2.03042045e-01 -3.82787734e-02 -7.44541407e-01
      9.22899246e-01 8.91358107e-02 -2.06365213e-01 -1.60042927e-01
      -3.74428898e-01 -9.82380658e-02 2.90881187e-01 -1.07693598e-01
      -5.30985966e-02 -3.90255935e-02 -1.53095350e-01 5.05348966e-02
      9.14995223e-02 5.25230408e-01 5.33040524e-01 1.17160834e-01
      -3.08746304e-02 -1.20681025e-01</_>
    <_>
      -2.97298384e+00 -5.26450157e-01 1.37439382e+00 2.69417822e-01
      -9.16000724e-01 4.21658128e-01 1.69331789e-01 -6.86646879e-01
      -1.11647475e+00 -8.27390552e-01 -3.93088907e-01 -1.58074069e+00
      6.45931423e-01 -8.38026702e-01 -1.26913980e-01 1.88868022e+00
      -2.04588190e-01 7.96956420e-01 2.12547868e-01 3.30947608e-01
      -1.04372907e+00 2.23950118e-01 -9.92771909e-02 6.58096671e-01
      8.06032307e-03 3.71405542e-01 -6.78416371e-01 -2.02628329e-01
      3.75957727e-01 3.96634787e-01 -1.37334272e-01 -5.50367534e-02
      -2.28487208e-01 -6.83987737e-01 1.27257640e-02 7.09252417e-01
      -1.28904864e-01 -4.25262839e-01 -3.95250082e-01 1.55457482e-01
      7.14206919e-02 -4.81413603e-01 7.89497972e-01 -1.80265680e-01
      -3.89838636e-01 3.19683433e-01 -3.87525968e-02 -2.27616996e-01
      -3.72920424e-01 -2.28258386e-01 5.35189748e-01 1.12179734e-01
      8.81330967e-01 2.13252783e-01 1.33974656e-01 -8.10898006e-01
      1.84144914e-01 2.58755207e-01</_>
    <_>
      2.49282360e+00 -9.67540681e-01 -2.38700509e+00 1.15885258e+00
      -8.19410503e-01 -6.53977171e-02 1.93415716e-01 -6.52375102e-01
      -3.66447359e-01 2.39247143e-01 6.11759365e-01 2.93949634e-01
      -6.31380796e-01 -3.77007931e-01 -1.64311424e-01 7.25254774e-01
      2.41263121e-01 -1.33052969e+00 2.94866413e-01 -1.61742136e-01
      -2.08693027e-01 1.85964897e-01 1.04196119e+00 6.35199696e-02
      1.32691336e+00 7.39824831e-01 3.98351289e-02 2.00039983e-01
      -5.92981279e-01 4.60581005e-01 1.53222784e-01 1.02305179e-02
      1.17824869e-02 1.61582798e-01 1.99351922e-01 5.05792379e-01
      -1.58754602e-01 2.30021581e-01 -2.17461511e-01 -2.18065947e-01
      -1.98608458e-01 -4.34513599e-01 -3.08930695e-01 6.31080925e-01
      -1.98852941e-01 -3.88146847e-01 -4.71410573e-01 2.45739236e-01
      4.70957309e-01 4.18488771e-01 1.78352877e-01 -2.18152717e-01
      7.37101883e-02 5.58828294e-01 -3.69501501e-01 -8.00478831e-02
      -2.07421556e-01 2.11544335e-01</_>
    <_>
      1.46591663e-01 -2.03081775e+00 1.29440200e+00 -1.10386169e+00
      7.67957866e-01 -1.55446619e-01 -9.64631081e-01 1.38415292e-01
      -5.66549897e-01 6.65232360e-01 -6.08155906e-01 5.16047120e-01
      1.59555614e-01 6.48247749e-02 4.41072047e-01 -9.67753530e-01
      8.14725041e-01 -6.21745646e-01 7.37253666e-01 6.69910014e-01
      1.61236867e-01 1.38574606e-02 3.29009384e-01 1.31022012e+00
      -4.38571155e-01 5.76363444e-01 -5.35736263e-01 7.05071259e-03
      1.93319261e-01 6.08374253e-02 3.08815926e-01 1.48542207e-02
      -1.15542926e-01 -4.55759056e-02 -3.07398513e-02 1.02364957e-01
      -1.35193095e-01 2.02682354e-02 -5.01096481e-03 -1.72353759e-01
      -8.52433443e-02 2.28582099e-02 6.50599971e-02 2.93036550e-03
      5.12141846e-02 -1.59425139e-02 -7.40831345e-02 1.37496181e-02
      -7.21132848e-04 -2.74748746e-02 -9.13114920e-02 -2.35061906e-02
      -3.10204625e-01 -1.29162759e-01 -3.57630625e-02 -8.61486867e-02
      2.20547542e-02 -7.35661462e-02</_>
    <_>
      -3.92291617e+00 5.62360823e-01 3.23057622e-01 1.34200656e+00
      -1.74741542e+00 3.34234178e-01 -8.72355044e-01 4.64991242e-01
      -2.06700414e-01 -7.59290934e-01 1.00995290e+00 1.27022254e+00
      4.29823324e-02 6.18416846e-01 1.45852461e-01 -6.04837239e-01
      4.47012603e-01 -5.19512117e-01 -1.19791353e+00 5.73626697e-01
      -8.28863025e-01 1.40294448e-01 -4.72884864e-01 -4.40921076e-03
      7.53609985e-02 1.00353003e-01 -1.57152954e-02 -2.67269686e-02
      3.83357778e-02 -5.46821095e-02 -8.06253701e-02 2.68481509e-03
      5.41380383e-02 4.38646562e-02 -6.94193467e-02 -1.15267783e-02
      5.38206436e-02 -1.50005549e-01 -6.02365583e-02 5.49218319e-02
      -1.54657254e-03 -1.75672006e-02 5.58591932e-02 3.36312540e-02
      2.65921168e-02 -5.73732033e-02 2.19405591e-02 4.05562818e-02
      4.67049330e-02 -1.96519699e-02 -5.13435109e-03 1.05786929e-02
      -6.39640391e-02 -2.67090127e-02 2.50638016e-02 8.02005082e-02
      -1.25987399e-02 1.55537734e-02</_>
    <_>
      3.26383305e+00 1.62018931e+00 2.52516651e+00 5.78785479e-01
      3.06257993e-01 1.46353805e+00 -1.94135681e-01 2.09558344e+00
      1.10301006e+00 8.10056686e-01 1.57490826e+00 -1.27015388e+00
      2.04405114e-01 2.08736360e-01 -9.41168010e-01 -7.65180662e-02
      7.84714401e-01 2.52323747e-01 1.82056911e-02 1.84053797e-02
      -1.71965316e-01 1.60722360e-01 1.90923989e-01 5.85700385e-02
      -7.63639361e-02 2.14075640e-01 9.56109092e-02 -1.02205081e-02
      8.76325294e-02 -3.28019895e-02 -2.86193062e-02 -3.00029051e-02
      -1.25443369e-01 -6.32346720e-02 5.96761294e-02 2.12105140e-02
      -1.57450080e-01 1.83975309e-01 -1.05665646e-01 -1.42877832e-01
      -2.09221095e-02 1.03592351e-01 -3.12032551e-02 1.78251043e-01
      -1.03121854e-01 -9.21562165e-02 1.13983586e-01 -2.11284589e-02
      9.87359658e-02 -4.68271747e-02 -1.79285869e-01 -2.22575869e-02
      2.84006316e-02 -2.50827707e-02 -2.09511369e-01 -2.54689246e-01
      -6.99900389e-02 -6.88058808e-02</_>
    <_>
      -2.96716046e+00 -1.58557832e-01 9.06357050e-01 3.65053535e-01
      -6.10029638e-01 4.92534310e-01 3.89570355e-01 -9.93629396e-01
      -7.19105661e-01 -5.88942051e-01 -3.36141400e-02 -1.23742044e+00
      6.67245686e-01 -5.66263378e-01 1.54543370e-01 1.65330386e+00
      -6.46024197e-02 6.56997263e-01 -5.71269095e-02 1.91380143e-01
      -9.09813106e-01 4.96032745e-01 -1.94250122e-01 4.89398152e-01
      3.11435640e-01 1.34466767e-01 -1.90986738e-01 -2.53903031e-01
      6.79484844e-01 8.99327159e-01 -1.72897264e-01 -9.42174271e-02
      -3.43890160e-01 -3.46037269e-01 4.24108833e-01 2.00747773e-01
      -2.91312248e-01 1.06844282e+00 5.54158747e-01 -1.34233057e-01
      -1.22785866e-01 4.06364441e-01 -5.93283653e-01 1.21592216e-01
      9.94791538e-02 2.14681283e-01 -1.32675946e-01 3.48038301e-02
      7.76001960e-02 1.42594650e-02 1.13877293e-03 -2.55348515e-02
      -3.26242954e-01 -1.82347447e-01 9.17377025e-02 2.75385827e-01
      6.70420304e-02 -8.15966949e-02</_>
    <_>
      2.53718281e+00 -1.14244378e+00 -2.56175160e+00 1.21174359e+00
      -8.37264001e-01 -1.34610515e-02 1.84894457e-01 -5.75572848e-01
      -3.13139588e-01 2.46059641e-01 5.06995082e-01 1.81484982e-01
      -5.47892928e-01 -7.68519193e-02 -1.75462186e-01 8.62366438e-01
      3.14381987e-01 -1.10275543e+00 2.54071236e-01 -2.63253778e-01
      -3.44836563e-01 1.18856654e-01 7.26363301e-01 2.91310009e-02
      1.01321542e+00 4.29412812e-01 2.06767656e-02 4.11234200e-01
      -5.70916384e-02 3.53777975e-01 2.04578623e-01 1.03560954e-01
      6.49109483e-01 2.47725457e-01 1.06951559e+00 -3.22308749e-01
      -7.88638234e-01 -5.40435314e-01 -2.74621069e-01 -4.15210336e-01
      -5.23165315e-02 -1.39582008e-01 -5.89218177e-02 2.00671092e-01
      4.19982970e-02 3.86514179e-02 -1.50985764e-02 7.16856420e-02
      1.17170803e-01 6.75875023e-02 2.01716051e-02 -4.76909690e-02
      6.80118948e-02 1.23841412e-01 -1.39125809e-01 -8.89369026e-02
      -5.12204729e-02 6.84741735e-02</_>
    <_>
      3.54440618e+00 -6.41391575e-01 -8.90974477e-02 1.00395167e+00
      -9.50578213e-01 2.10989666e+00 -1.94402948e-01 -5.85843384e-01
      1.20709443e+00 -1.20768714e+00 -1.17000806e+00 4.27946895e-01
      2.35854089e-01 -6.32874131e-01 2.30593294e-01 -2.61818588e-01
      -4.41036880e-01 2.48139158e-01 -8.50358754e-02 2.99681962e-01
      2.59372413e-01 -3.14948767e-01 -4.54864919e-01 -3.68243963e-01
      -5.64375937e-01 1.06540665e-01 8.97219926e-02 -8.05583477e-01
      -2.43428096e-01 3.18822354e-01 4.41593289e-01 3.44977118e-02
      -1.30498692e-01 2.09781930e-01 -4.45107341e-01 -3.52271408e-01
      -4.48328316e-01 2.59075999e-01 -2.58750975e-01 3.73600215e-01
      -9.15303111e-01 -4.76368487e-01 3.80841017e-01 4.70773101e-01
      3.69341761e-01 -4.34405088e-01 -1.02467194e-01 -3.73895206e-02
      -2.79326528e-01 1.05519593e-01 1.56249240e-01 3.43828611e-02
      1.14757627e-01 -5.62367380e-01 -3.96668822e-01 5.51589997e-03
      5.96047752e-02 2.66509295e-01</_>
    <_>
      -1.01001835e+00 2.15042567e+00 -1.86515367e+00 -2.56661034e+00
      -1.56962387e-02 2.76724756e-01 2.36488064e-03 -1.63652822e-01
      2.45253637e-01 5.35051942e-01 -1.65400386e-01 8.25849116e-01
      2.53851366e+00 -2.17589140e-01 -1.63134587e+00 1.51988983e-01
      -3.49064410e-01 -4.13647562e-01 -1.66599646e-01 -2.22763345e-01
      1.92714766e-01 8.87275487e-02 5.58216199e-02 -2.05391515e-02
      -2.17049830e-02 9.14117619e-02 -3.25228646e-02 1.90983806e-02
      3.69648039e-02 1.22956168e-02 -8.16077292e-02 -8.76892805e-02
      1.24329798e-01 1.27358614e-02 -2.62803882e-02 -6.74595777e-03
      4.09860276e-02 -1.15816534e-01 1.01746127e-01 -4.29078043e-02
      -3.87569927e-02 3.22786756e-02 1.33136660e-01 1.05564490e-01
      2.07113951e-01 -3.29190120e-02 -3.82282197e-01 -1.03342545e+00
      4.95424539e-01 2.07239211e-01 -3.09699960e-02 -7.22524077e-02
      8.68331566e-02 -1.54494718e-01 1.89151838e-01 9.31525696e-03
      2.49787897e-01 -2.04224065e-01</_>
    <_>
      -2.78907204e+00 1.79784931e-02 7.86284506e-01 2.58867860e-01
      -4.34298098e-01 4.44340736e-01 3.75003129e-01 -8.32075357e-01
      -6.17699444e-01 -4.43961263e-01 -8.41765255e-02 -1.07564545e+00
      6.98138714e-01 -4.75556850e-01 1.85597017e-01 1.45597851e+00
      1.06572332e-02 5.42920113e-01 -1.38848305e-01 2.93344468e-01
      -1.01894510e+00 4.23976809e-01 -2.69223154e-01 4.29680735e-01
      3.71904820e-01 1.64284095e-01 -3.92473131e-01 -4.79121864e-01
      3.97724569e-01 7.40450919e-01 -1.35140345e-01 -8.40315744e-02
      -3.28888863e-01 -1.81770608e-01 2.36478165e-01 5.50125949e-02
      -3.69212508e-01 1.03098977e+00 4.42366153e-01 -2.21521124e-01
      -1.53630167e-01 4.06789422e-01 -5.27071178e-01 -1.01344958e-01
      5.93833447e-01 -8.17427784e-02 1.05104752e-01 -1.92760825e-02
      -4.65012789e-02 -1.07662998e-01 -2.57085353e-01 6.11872412e-03
      -2.44867772e-01 -1.14686109e-01 6.43791407e-02 1.32781550e-01
      3.18362340e-02 1.70644701e-01</_>
    <_>
      2.50959396e+00 -1.14984727e+00 -2.62205386e+00 1.26942503e+00
      -7.81992018e-01 2.83977352e-02 1.03342168e-01 -8.54820728e-01
      -4.49720442e-01 2.68089771e-01 6.50011003e-01 8.24355185e-02
      -6.89237297e-01 -3.13190520e-01 -4.75949258e-01 6.21026337e-01
      4.51236695e-01 -6.64616585e-01 6.82139546e-02 -3.94276410e-01
      -6.01417236e-02 2.88879544e-01 2.52609283e-01 -7.69625679e-02
      1.54161572e-01 3.05255800e-01 -1.00118950e-01 3.91886324e-01
      2.70099640e-01 2.12260827e-01 -6.22809604e-02 5.37101626e-02
      3.78267080e-01 4.58341390e-01 1.25285745e+00 -7.80245483e-01
      -7.87932575e-01 -8.55243087e-01 1.96540691e-02 -4.69618291e-01
      2.24509746e-01 4.50058758e-01 3.76735181e-01 -3.51701170e-01
      1.61778852e-01 5.36534667e-01 8.82521868e-02 -1.58404350e-01
      -3.88054550e-01 -4.80198592e-01 7.03238416e-03 1.31702304e-01
      2.42691375e-02 -8.36705148e-01 -2.49384314e-01 1.74447000e-01
      1.09110586e-01 1.17640356e-02</_>
    <_>
      3.54926610e+00 -8.61310363e-01 -2.25353893e-02 8.52992654e-01
      -7.49498427e-01 1.76409113e+00 -2.01832265e-01 -4.58531201e-01
      1.06449211e+00 -1.30923355e+00 -1.02054882e+00 3.65973294e-01
      2.89345533e-01 -6.98720694e-01 3.08941960e-01 -5.26945412e-01
      -1.62610039e-01 2.37324059e-01 -7.95378257e-03 1.09081574e-01
      1.83108434e-01 -9.55297239e-03 -1.34421304e-01 -1.63959220e-01
      -4.88122016e-01 -1.99656621e-01 -5.78325167e-02 -6.49694622e-01
      3.12552452e-01 -2.43312567e-01 -6.11214578e-01 -6.96685985e-02
      -8.42080116e-02 -2.87918687e-01 -5.50219081e-02 -2.97556370e-02
      1.50354475e-01 -1.63769023e-03 1.40334532e-01 4.55392480e-01
      -5.19866824e-01 1.20365202e-01 -1.26652345e-01 -2.18122065e-01
      1.02597885e-01 6.70714200e-01 9.51028094e-02 1.64090469e-01
      7.07683206e-01 1.52551576e-01 7.96751585e-03 -1.85945675e-01
      7.20461383e-02 -4.11640495e-01 -9.48846102e-01 -3.98686796e-01
      -6.36009201e-02 2.57891208e-01</_></support_vectors>
  <decision_functions>
    <_>
      <sv_count>72</sv_count>
      <rho>-2.6367852454105301e-01</rho>
      <alpha>
        1.3639613545994309e+00 1.5665677522981567e+00
        7.4362299336800897e-01 1.5277324037298943e+00
        6.4567536936186498e-01 1.4640614627011954e+00
        5.9465512193025227e-01 2.1479023921301992e+00
        3.3579886806259418e-01 1.0965160710425748e+00
        5.1980990914431313e-01 7.3040720074268517e-01
        6.9305257669464071e-01 8.1265002828840915e-01
        7.0488298325336951e-01 8.7937928963116710e-02
        7.0830111787056826e-01 8.0701586878780562e-01
        4.1600157004603516e-01 1.5127934758449719e+00
        4.3802443458466422e-01 8.6870010374247553e-01
        2.5000000000000000e+00 4.0676914720911600e-01
        8.1876487202893466e-01 8.4351748905777035e-01
        8.2738543504811579e-01 5.7428463830830934e-01
        1.1944034110257926e-01 7.4135113845596567e-01
        8.6893550629472793e-01 1.3512047785531525e-01
        2.4253746735819828e+00 3.1406334295002680e-01
        5.5213294130177504e-01 5.0348755113877153e-01
        5.9108402316628939e-01 -5.5561892580247674e-01
        -3.3841183644672568e-01 -3.8573622292249837e-01
        -2.5000000000000000e+00 -1.0490374123632811e+00
        -8.6912131573544960e-01 -1.2265967701287264e+00
        -6.6740565171713520e-02 -1.1833192050863242e+00
        -1.4033669024574607e+00 -1.4304714911005862e+00
        -5.0336534331302452e-01 -8.2538927284780994e-01
        -3.6688516692268547e-01 -7.9775463412099845e-01
        -7.4401659287939459e-01 -8.9221374790142605e-01
        -1.0897128090999570e+00 -1.2450504974754784e+00
        -4.4609405276082958e-01 -1.9825415528294027e-01
        -9.7069063741444495e-01 -6.3122361610394861e-01
        -2.1193724713792994e+00 -4.2940681819032922e-01
        -5.9681925575883088e-01 -8.0413416144158101e-01
        -1.3905599445946726e+00 -1.2138650228379140e+00
        -2.5000000000000000e+00 -7.3416206697397701e-01
        -4.1600157004603516e-01 -2.8891578088680925e-01
        -3.7199576599802298e-01 -1.4234785332412541e+00</alpha>
      <index>
        25 28 27 26 24 23 22 21 20 0 36 35 34 33 1 32 31 30 29 5 8 7 6
        18 4 3 2 19 9 17 16 15 14 13 12 11 10 60 59 58 57 56 55 54 53 68
        71 70 69 61 67 66 65 64 63 62 44 43 42 41 40 39 38 37 52 51 50
        49 48 47 46 45</index></_></decision_functions></opencv_ml_svm>
</opencv_storage>
